#include <stdio.h>
#include <opencv2/opencv.hpp>
#include "superResolution.h"

using namespace cv;
using namespace std;
#define test112 0


int main() {
	Mat image = imread("Resources/flag.png",IMREAD_UNCHANGED);
	if (image.empty()) {
		cerr << "Can not load the image file :" << "waitSR.jpg" << endl;
		return -1;
	}

	////´òÓ¡Í¼ÏñÖµ
#if test112
		for (int ch = 0; ch < image.channels(); ch++) {
			cout << "The original input \n" << ch << " channel= (\n" << (int)image.at<Vec3b>(0, 0)[ch] << "\t" << (int)image.at<Vec3b>(0, 1)[ch] << " ... " << (int)image.at<Vec3b>(0, image.cols - 1)[ch] << endl
				<< (int)image.at<Vec3b>(1, 0)[ch] << "\t" << (int)image.at<Vec3b>(1, 1)[ch] << " ... " << (int)image.at<Vec3b>(1, image.cols-1)[ch] << endl
				<< " , ..., " << endl
				<< (int)image.at<Vec3b>(image.rows-1, 0)[ch] << "\t" << (int)image.at<Vec3b>(image.rows-1, 1)[ch] << " ... " << (int)image.at<Vec3b>(image.rows-1, image.cols-1)[ch] << endl

				<< " )" << endl;
		}

#endif


	//imshow("asd", image);
	//waitKey(0);
	superResolution(image.ptr(0), image.cols, image.rows, (int)image.step);
	cout << "SR_image.cpp success" << endl<<image.channels();
	waitKey(0);
	return 0;



	//float f9_0_weight[32 * 32 * 3 * 3] = { 0.0132f,-0.0487,-0.00761,0.0209,-0.0323,0.00471,-0.0472,0.0305,-0.0337,0.0354,0.0175,0.00386,0.0538,-0.0113,0.0611,0.0483,-0.0392,-0.051,-0.0264,-0.0713,-0.000803,-0.0233,0.00372,-0.00933,-0.00449,0.0441,-0.0383,-0.00789,-0.0407,0.0556,0.0466,-0.0421,-0.0424,-0.0417,0.0154,0.0576,0.0635,0.0521,0.00732,0.000508,0.0266,0.00543,0.0297,-0.0516,-0.0255,0.000639,0.0403,-0.0244,0.0575,-0.0614,0.0182,-0.0533,-0.0514,0.00886,0.0482,-0.0385,0.0177,-0.0358,-0.00864,-0.0391,-0.0254,0.0531,-0.0554,-0.0398,-0.032,-0.00504,-0.0524,0.055,-0.0419,0.0187,-0.0228,-0.0452,0.0348,-0.0461,-0.0488,-0.00128,-0.0193,-0.00466,0.0608,0.043,0.0494,0.0363,-0.0465,-0.0231,-0.0416,-0.0427,0.00736,0.0513,0.0143,0.0287,-0.000686,-0.0484,0.0098,0.0626,0.0399,-0.0233,-0.0171,0.0469,-0.0402,-0.052,-0.0479,0.039,0.059,0.0446,0.0182,0.0517,0.00573,-0.0427,0.0391,0.0338,-0.00714,-0.0261,-0.0324,-0.051,0.026,-0.0277,-0.0426,-0.0228,0.0538,-0.00823,-0.0543,-0.00356,-0.0167,0.00857,0.0468,0.0234,-0.0258,-0.029,-0.0568,0.0269,0.0371,0.0228,0.0588,0.0374,0.0242,0.0199,0.0496,-0.021,0.0361,0.051,0.0377,-0.0351,-0.0187,-0.00889,0.0123,0.0482,-0.00315,0.032,-0.0316,0.0495,-0.00704,0.0106,-0.037,0.055,0.0247,-0.0544,-0.0216,-0.0522,-0.0577,-0.00277,0.0557,0.0377,-0.0408,0.00282,-0.00892,0.0174,0.0198,-0.0462,0.0163,-0.0229,-0.0376,-0.00184,-0.023,-0.00105,0.0194,-0.0159,0.0102,-0.0552,-7.98e-05,0.0451,0.0326,0.035,0.00929,-0.00798,0.0471,0.0289,0.0279,0.0519,-0.0396,0.0214,0.034,0.0487,-0.0136,0.0081,-0.0549,-0.0442,0.0137,-0.0132,-0.00177,0.0566,-0.0208,-0.0111,0.0123,-0.00663,0.0111,-0.0392,-0.0311,-0.0314,0.0405,0.0224,-0.00187,0.0574,-0.0412,-0.000689,0.00932,0.0506,0.014,-0.0387,-0.0529,0.0242,-0.0139,0.00228,0.0563,0.017,0.00286,0.0441,-0.0185,0.0084,0.0262,-0.0396,-0.026,0.017,0.0479,-0.048,-0.042,0.00722,0.0459,-0.0197,-0.0515,-0.00258,0.0371,0.0427,0.0193,0.0308,-0.0188,-0.0352,-0.00626,-0.0516,0.0448,-0.0204,-0.0451,-0.0243,-0.0332,-0.0206,0.0273,-0.0218,-0.0328,0.00184,-0.00576,-0.00787,-0.0414,0.049,0.0261,0.0535,0.037,0.0236,0.0243,-0.0193,-0.0576,0.0179,-0.00127,0.0147,-0.0648,0.04,-0.00683,0.00319,-0.056,0.0366,-0.00659,-0.0306,0.0118,0.00011,0.0186,-0.0295,0.0433,0.0232,0.0315,0.0248,-0.0277,-0.0533,-0.0318,-0.0269,0.0131,0.0538,-0.00507,0.0402,-0.0339,0.0431,-0.016,-0.0489,0.0234,0.0508,0.0242,0.0498,0.055,-0.0694,-0.0562,-0.0194,-0.0283,0.0282,0.037,0.00119,-0.0159,0.0027,0.0237,0.0395,-0.023,0.00589,0.0507,5.71e-06,0.011,-0.0359,0.0244,-0.0225,-0.0164,0.0126,0.0587,0.0397,0.034,-0.0485,-0.0231,-0.014,0.000499,0.013,-0.04,0.0493,0.0435,-0.016,0.02,-0.0207,-0.0602,-0.0474,0.0616,0.00456,-0.00358,-0.00275,-0.0294,0.00115,0.0102,0.0388,0.0398,-0.04,0.0405,-0.0507,0.0527,-0.0546,-0.0499,0.00997,-0.0404,-0.0145,-0.0208,0.0364,0.0296,0.0487,0.00838,-0.0463,0.0605,6.87e-05,-0.0374,0.0222,-0.0066,-0.0328,-0.0464,-0.0179,0.00208,-0.0121,-0.0411,0.0474,-0.0482,-0.019,0.04,0.0215,-0.00392,0.00888,0.043,-0.0455,-0.0222,-0.0557,0.0432,0.0188,0.0345,-0.00365,0.0477,-0.0165,-0.0126,-0.00902,0.0141,0.00775,-0.0336,0.0502,0.0465,-0.0457,0.00147,-0.0555,0.0292,-0.0576,0.0137,-0.0113,0.0468,-0.0192,-0.0349,-0.0241,0.0245,-0.0538,0.056,-0.0178,-0.0527,-0.0134,-0.0542,-0.0155,-0.0198,-0.0117,-0.033,0.00594,-0.0387,0.0434,-0.0482,0.0106,-0.0656,0.0178,-0.0564,-0.011,0.00168,0.0549,0.0415,0.0128,0.0169,0.0362,-0.0147,0.0524,-0.0218,-0.0266,0.0172,-0.024,0.00818,0.0518,-0.0372,0.0313,0.0209,-0.0183,0.000575,0.0249,-0.0146,0.0448,0.00998,0.0547,0.0208,0.0402,0.0335,-0.0504,-0.00959,0.0456,0.0301,0.0189,0.0258,-0.0442,0.0426,-0.00809,-0.0178,-0.0128,-0.0572,-0.00271,0.0176,0.0211,-0.0135,-0.0185,0.0312,0.0294,0.0448,0.0248,-0.0203,-0.0398,-0.0449,0.0294,0.0165,-0.0267,-0.0209,-0.0221,0.00492,-0.0485,-0.0288,0.0099,0.0091,-0.0317,-0.00654,-0.0602,0.013,-0.0445,-0.0532,-0.0239,0.0513,-0.036,0.0196,0.0267,0.0167,0.0403,-0.0379,-0.0463,0.00209,-0.00684,0.046,0.0406,-0.0512,-0.0277,0.0334,-0.00167,0.0097,0.012,0.000649,-0.00897,0.0202,-0.0577,-0.0255,0.00111,-0.0289,0.0337,-0.0301,0.00849,0.0277,-0.0085,0.00483,0.0182,-0.0122,-0.0182,0.0219,0.0211,-0.00402,0.015,0.000983,-0.0518,0.0324,0.0409,-0.023,-0.022,0.0392,-0.00883,-0.00796,0.017,0.0581,-0.0347,0.000891,0.000727,0.016,-0.057,-0.00524,-0.0131,0.00444,0.0264,-0.0333,-0.00609,0.0466,0.0263,-0.0405,0.0315,0.0275,0.0454,-0.0114,-0.0597,9.55e-05,-0.0334,0.0107,-0.00249,0.00425,0.011,-0.0555,0.0461,0.00307,0.0131,0.0311,0.055,0.0537,0.038,0.00774,-0.0201,-0.0268,-0.0222,0.0115,0.0509,-0.0476,0.00323,0.0262,-0.0294,-0.00963,0.0532,0.0246,-0.0582,0.0089,-0.00544,-0.0197,0.0562,-0.0559,0.035,-0.0134,-0.00776,-0.0359,0.033,0.0393,-0.0316,-0.0323,0.0109,-0.0525,0.00301,-0.0209,0.0201,0.0426,0.0318,-0.0269,-0.0384,-0.0485,0.00711,0.0381,-0.00464,-0.0028,-0.0273,-0.00219,0.0622,0.0437,0.0422,-0.00214,0.013,-0.0171,0.00843,0.0308,0.0161,-0.00154,0.0443,0.0534,0.0256,0.0475,0.00322,0.00787,0.0239,-0.0182,-0.0528,0.0167,0.0362,-0.0436,-0.0138,-0.0317,-0.00326,0.00825,0.0586,-0.0442,0.0059,-0.00685,-0.0498,0.0201,-0.061,0.0274,0.0348,-0.0421,-0.00908,-0.0437,-0.0321,0.0352,0.0381,0.0209,-0.0315,0.0146,0.0266,-0.0555,0.0212,-0.0167,-0.0524,-0.0356,-0.0092,-0.0368,0.0237,0.03,0.0448,0.0126,-0.00355,-0.0284,0.0026,-0.00161,-0.00101,-0.0336,0.0609,-0.00668,-0.044,0.0165,-0.0542,-0.0214,0.00361,-0.0559,-0.0167,0.0184,-0.0236,0.0317,0.0217,-0.0408,0.000503,-0.0247,0.0543,-0.0265,-0.0248,-0.054,-0.054,-0.0332,0.0517,0.0347,-0.0503,0.0581,-0.0487,0.0567,0.034,0.0607,0.0037,-0.032,0.015,0.0582,-0.0359,0.0146,-0.0379,0.0519,0.000208,-0.0337,-0.000292,-0.0472,-0.0257,0.0195,-0.0469,-0.0311,0.0147,0.000148,0.00365,-0.0481,0.0305,0.0569,0.0522,-0.0257,-0.0411,0.0551,-0.0538,-0.00504,0.00613,-0.0323,0.0468,0.0461,0.0315,-0.0367,0.00951,-0.0302,-0.0517,0.0616,-0.0223,-0.0532,0.0044,-0.0485,-0.0114,-0.0463,-0.0235,-0.0291,0.0593,0.0313,0.0219,0.0411,-0.0571,0.0312,0.0393,0.0111,0.0512,-0.0555,-0.0498,0.00798,-0.0491,0.0522,-0.00495,0.0141,0.034,-0.00639,0.0494,0.0236,0.0308,0.0404,-0.0412,0.0114,0.0226,-0.0316,-0.0509,0.0492,0.0166,8.72e-06,0.0215,0.0116,-0.0172,-6.13e-05,0.0553,0.0612,-0.000895,0.0538,-0.0567,0.0233,0.0219,0.0326,-0.00338,-0.0148,-0.047,-0.049,-0.0527,-0.0154,0.0366,-0.0297,-0.0434,0.00218,-0.0313,-0.0183,-0.0351,-0.0229,-0.00963,0.0122,0.00161,-0.0245,-0.0423,0.0436,-0.0418,0.0376,-0.026,0.0228,0.0498,0.00387,0.0374,0.0405,-0.0468,0.0454,-0.0239,-0.00477,0.0609,0.0275,0.0189,-0.0239,0.0219,-0.0347,-0.00305,-0.037,-0.0204,-0.01,0.0313,-0.0382,-0.0306,-0.000846,-0.0431,0.0531,-0.0405,0.0291,-0.0245,-0.0304,0.0447,-0.0142,0.0422,-0.0443,-2.8e-05,0.0138,0.0489,0.0276,0.0182,-0.0385,0.0247,-0.0313,0.0234,-0.0127,-0.0412,-0.0331,0.0408,0.0472,0.0421,-0.00309,-0.0227,0.0228,-0.0126,0.0326,0.0369,0.0183,0.0189,0.0467,-0.0385,-0.0447,0.0414,0.0103,0.00498,-0.015,-0.0506,0.0416,-0.0135,0.04,-0.0383,-0.0311,-0.0524,0.0418,-0.00516,-0.0315,-0.0171,-0.0244,-0.0362,-0.0132,-0.00106,0.0243,0.0293,-0.0614,0.00947,0.0264,-0.0341,0.0173,-0.0428,0.00105,0.00832,-0.0368,-0.0383,-0.045,-0.0446,-0.023,0.0293,-0.0338,-0.0534,-0.00911,-0.00417,-0.0115,-0.00876,-0.00587,0.0138,-0.00313,-0.0402,-0.0288,-0.0397,-0.0175,0.019,0.0328,0.059,0.0155,0.0381,0.0267,0.00254,0.0503,-0.022,0.064,0.0235,-0.0263,-0.0365,0.0489,0.0404,-0.0346,-0.0385,0.0345,0.017,0.0176,0.0224,0.0298,-0.027,-0.0227,0.00655,0.00347,-0.0154,0.0296,0.0562,-0.0367,0.0603,-0.0236,-0.00928,0.0437,-0.0204,0.0464,-0.0333,-0.0245,0.00702,-0.0388,-0.0561,-0.0191,0.0315,0.00177,-0.0246,-0.0289,0.00142,-0.0402,0.0408,0.0213,0.0352,-0.021,-0.0402,-0.0354,-0.00152,-0.0248,0.0243,0.0121,0.0242,0.0365,0.0629,-0.0384,-0.0271,0.0193,0.0237,0.0259,0.0374,-0.0144,0.032,-0.0432,-0.0327,-0.0225,0.002,0.0295,-0.0197,-0.0514,-0.000515,0.0119,-0.0427,0.0346,0.0234,-0.0543,-0.0389,-0.0181,0.00953,-0.0607,-0.0313,0.0212,-0.0127,0.0389,0.0296,-0.0293,0.0634,0.0283,-0.0292,0.0513,0.00908,-0.00907,0.0439,0.0511,0.0594,0.0519,0.0453,0.00527,0.0336,0.0348,-0.0359,0.024,-0.0451,0.0472,-0.0456,0.0499,0.0162,-0.0203,0.0491,-0.0568,-0.0218,0.0359,0.00835,0.0349,-0.0191,0.0233,-0.0366,-0.0254,-0.0142,-0.00847,0.0258,-0.0162,0.0217,-0.0107,0.0188,-0.0211,0.0511,0.0383,0.0403,0.047,0.0159,0.0305,0.000699,0.0123,-0.0289,0.0545,-0.0197,0.0191,0.054,0.0587,0.0188,0.0397,0.0378,-0.0179,0.0574,-0.023,0.0148,-0.0554,-0.00313,0.03,-0.0388,0.0511,-0.0328,-0.0463,-0.0506,-0.0367,-0.00915,0.0131,-0.0419,-0.0066,0.0343,-0.000945,0.0427,0.0159,-0.0175,0.0228,0.0111,0.000312,-0.051,-0.0343,-0.0147,0.0408,-0.016,-0.0161,-0.0147,-0.0302,-0.0132,0.00903,-0.0396,0.0212,0.0275,-0.0277,0.0406,-0.0091,-0.0444,-0.0221,-0.0386,-0.0281,0.0289,-0.0369,-0.0473,0.0598,0.0401,-0.0497,-0.0105,-0.00107,-0.0593,0.0244,-0.0522,-0.024,-0.00428,0.0189,0.0224,0.0149,-0.0157,-0.0305,-0.0339,-0.0563,0.0203,0.0534,0.0531,0.0271,0.0507,-0.0285,0.0398,-0.0469,0.0514,0.0302,0.0379,-0.028,-0.0314,0.0285,0.0165,0.0497,0.00965,-0.0433,0.00564,-0.059,-0.0403,0.0423,0.0528,0.0357,0.0548,0.0564,0.0198,-0.0174,0.0162,-0.049,-0.0378,0.0218,0.0577,0.0212,-0.0555,0.0456,-0.0235,-0.0456,0.00353,0.00745,0.00569,0.0309,-0.0104,0.017,-0.00892,0.00581,-0.0401,-0.00522,-0.00819,-0.00668,-0.0438,-0.00462,0.0267,0.0211,-0.056,-0.0166,0.0385,0.0119,0.0418,0.0548,0.0521,-0.0133,0.0121,-0.0291,-0.0289,-0.0194,0.00443,0.0242,-0.0437,-0.0556,-0.0539,-0.0429,0.0178,0.053,0.0487,-0.0557,0.0284,0.0337,0.0492,0.0328,0.0576,-0.00334,-0.0146,0.0469,0.0392,0.0528,-0.00783,0.0537,-0.0197,5.4e-05,-0.0353,0.0152,0.011,-0.0271,0.0548,0.0298,-0.0428,0.000352,0.0155,-0.0254,-0.00283,-0.0179,-0.00901,0.0282,0.00897,0.0468,0.0241,0.0389,0.0454,0.0555,0.00582,0.05,0.0411,0.0513,0.00979,0.0432,-0.0443,-0.0518,-0.0637,0.0143,0.038,-0.00674,-0.0143,0.0358,0.00204,0.0503,0.0491,-0.014,-0.0138,0.00219,-0.0362,0.0342,-0.0357,0.0525,0.0157,-0.017,0.0552,0.0535,0.025,-0.00483,0.0567,0.0557,0.0284,-0.0467,-0.0565,0.0118,-0.0529,0.00818,-0.065,0.0349,-0.046,-0.0214,0.0538,-0.042,-0.0389,0.0226,-0.0306,-0.0489,0.0404,0.0207,-0.00881,-0.0214,0.0306,-0.0567,-0.012,0.0466,-0.0196,0.00923,-0.0462,0.00298,0.0497,0.043,-0.0262,0.00904,-0.0124,0.0298,-0.0474,-0.0243,0.0272,-0.0225,0.0282,0.0112,-0.0234,0.0375,-0.0211,-0.0267,0.007,0.027,-0.00362,0.0382,-0.0054,0.0114,0.0314,0.0278,0.0535,-0.0557,-0.0369,0.052,-0.0135,-0.00972,0.0129,-0.0471,0.0263,-0.00153,0.00323,0.011,-0.0278,-0.0311,-0.0569,-0.0169,-0.0568,-0.0304,0.033,0.0308,0.0125,0.0298,-0.0175,-0.0472,-0.00912,-0.0352,-0.0296,0.052,-0.0348,0.042,0.0345,0.0539,-0.0347,-0.0405,-0.047,-0.00583,0.00949,-0.0131,-0.0116,0.0159,0.00766,-0.0176,0.0232,0.0327,0.0467,-0.0408,-0.0575,-0.0513,0.0271,-0.0343,0.0543,0.0137,0.0594,-0.0321,0.00479,-0.0271,0.0329,-0.0315,-0.00224,-0.0228,0.0368,-0.0424,-0.0183,-0.0508,-0.05,0.0564,0.0445,-0.0233,-0.0509,0.0464,-0.0171,0.00827,0.0314,-0.0143,-0.0475,-0.0256,-0.0416,0.0325,-0.00257,-0.0153,0.0337,0.0361,0.00969,0.0135,-0.0253,-0.00477,0.0481,-0.0475,0.0215,0.0145,0.0395,0.0102,0.0354,-0.00293,-0.00735,-0.0165,-0.0308,0.0253,-0.0279,0.0337,-0.0538,0.0423,-0.0103,0.0453,0.0421,-0.0216,-0.00151,-0.0268,0.0578,-0.0587,-0.0223,-0.0282,-0.0522,0.013,0.0257,0.0399,0.0304,-0.0361,-0.0119,-4.6e-05,-0.0491,-0.0215,-0.0441,-0.00324,0.0272,-0.0427,0.0113,0.00641,-0.0168,0.0229,0.0492,-0.0256,0.0226,-0.0076,0.0329,0.0351,-0.0112,0.0555,0.00239,0.0316,-0.0299,0.0114,-0.0545,0.0522,0.0384,0.0262,-0.0448,0.00512,0.0525,0.0596,-0.00271,-0.0205,-0.00182,0.0182,0.0246,-0.0369,0.0145,-0.0277,-0.0274,0.0287,0.021,-0.00495,0.0483,0.0412,0.0317,-0.0553,0.0162,-0.0515,0.0278,-0.0246,0.0564,-0.0134,0.0346,-0.0165,0.0363,0.0462,0.0107,0.0195,-0.0184,-0.0518,-0.0522,-0.028,0.00351,-0.0509,-0.0124,-0.0202,0.00859,-0.0475,0.03,-0.00215,-0.0252,0.0234,-0.038,-0.0105,0.0506,-0.0417,0.0487,0.00148,0.000752,0.00135,0.0338,0.0446,0.0364,0.0119,-0.00455,0.00102,0.0483,0.0196,-0.00482,0.0426,-0.0538,-0.0134,0.0191,-0.0405,0.00352,0.0272,-0.0158,0.0242,-0.0447,-0.0138,0.0581,-0.0318,-0.0396,-0.00854,-0.0264,0.0451,0.0519,0.0535,0.0167,-0.0615,0.0295,-0.00769,0.0116,-0.00388,0.00613,-0.0047,0.0186,-0.0419,0.0118,-0.0222,-0.0433,0.0236,-0.0178,-0.0318,-0.0173,0.00181,0.015,0.0354,0.0165,-0.0512,-0.00281,-0.0402,0.0228,0.0248,-0.0443,-0.0229,-0.00245,0.00563,-0.0526,0.00765,-0.0025,-0.00905,0.00942,0.0565,0.0246,0.0227,-0.0148,-0.00442,-0.0198,-0.0634,0.0191,0.00238,0.0316,0.0469,0.00597,0.0299,0.0333,-0.0191,0.05,-0.00965,0.0202,0.055,0.043,0.0353,-0.0506,-0.0421,0.0523,-0.0379,-0.0294,0.0535,0.026,-0.0471,0.0297,0.0253,-0.0317,0.0245,0.00848,0.00946,-0.0559,0.0516,0.0319,-0.0542,-0.0248,0.0555,0.0499,-0.0234,-0.0514,-0.038,0.05,-0.0486,0.052,0.00237,-0.0144,-0.0344,0.0489,-0.0248,0.0121,-0.0314,-0.0519,0.0547,-0.00229,0.0612,-0.0402,-0.031,-0.051,0.0296,0.016,-0.0554,0.0221,0.0294,0.018,-0.00544,0.0354,-0.0177,-0.00229,-0.0564,-0.0246,-3.08e-05,0.053,0.0467,-0.0296,-0.0391,-0.0256,-0.0474,0.017,0.044,0.0387,0.0646,-0.0447,-0.0485,0.00463,-0.0427,0.0464,0.0141,0.0552,-0.0235,0.00093,-0.00769,-0.0319,-0.0288,0.0576,-0.0534,0.0518,0.00477,0.0414,0.0106,-0.0509,-0.00576,-0.0435,-0.0337,0.0231,-0.00292,-0.0202,-0.0267,-0.0359,0.0245,-0.00563,0.0541,0.0138,0.0198,0.0248,0.00531,-0.0141,-0.0151,0.0151,-0.00811,-0.0507,-0.0204,-0.0516,-0.0342,0.0609,-0.0379,0.0584,0.0408,-0.0246,0.0381,0.0157,-0.0454,0.0404,0.0463,0.0458,0.00364,-0.0477,0.0348,-0.0107,0.0339,0.0109,0.0109,0.0241,-0.0538,-0.0449,0.0443,0.0216,-0.0423,-0.0571,-0.0174,-0.0413,-0.0474,-0.0177,0.0479,-0.0191,0.00646,0.0406,-0.00182,0.0103,-0.027,0.0234,-0.0405,-0.0251,0.0385,0.0108,-0.038,-0.00361,-0.00479,-0.0491,0.0528,-0.0314,0.00647,-0.0383,0.023,0.0266,-0.0151,0.0109,0.0105,6.74e-06,-0.0117,0.00439,0.0243,-0.0374,0.0319,0.0404,-0.0406,-0.0197,0.0503,-0.0354,-0.0574,0.0304,-0.0127,-0.00505,-0.011,-0.0242,-0.0284,0.0117,0.0208,-0.0468,-0.0622,0.0399,0.00876,0.0431,0.0566,-0.044,-0.027,-0.0112,0.0107,-0.0629,0.0564,0.0282,-0.0301,-0.0301,0.0353,0.0122,-0.0459,0.0161,-0.00813,-0.00324,-0.0242,-0.0369,0.0434,0.0426,0.0259,0.0384,0.0113,0.0101,-0.0337,0.0547,0.055,0.0312,0.0573,0.0315,-0.026,0.027,-0.00906,-0.0546,0.0477,0.0465,0.0556,0.0603,-0.0161,0.0277,0.01,0.0084,0.0216,-0.0245,0.0249,0.0215,0.0416,-0.0109,-0.0143,0.0231,-0.00311,-0.0172,-0.00985,0.0177,-0.0111,-0.0498,0.0454,-0.0106,0.0356,0.0205,0.0295,-0.0398,0.0331,-0.0305,0.0323,-0.0252,0.0283,-0.0149,0.0138,0.048,0.00608,0.0354,0.0271,-0.0581,0.00421,-0.0499,0.0561,-0.0284,-0.0497,-0.0334,-0.0145,-0.0446,0.0157,0.0415,-0.033,0.0347,0.00458,-0.0536,-0.0224,0.0408,0.0315,-0.0299,0.0108,-0.0119,-0.0363,0.000332,0.0473,0.00284,0.0204,-0.00456,-0.0337,0.0557,-0.0179,-0.0355,-0.0522,0.00408,0.0612,-0.0515,-0.037,0.0163,-0.0381,-0.0331,-0.0584,-0.0233,0.0278,-0.00651,-0.05,-0.0571,0.0556,0.0148,0.0074,-0.0113,-0.0406,-0.0462,-0.0262,0.0341,-0.033,-0.034,0.0332,-0.038,-0.0385,0.0336,0.0439,0.0243,-0.022,0.00496,-0.0221,0.0169,0.0552,0.0111,-0.0261,-0.0516,0.0393,0.0586,-0.0396,0.0562,0.0521,0.054,-0.0441,0.0425,0.0184,0.0177,-0.0337,0.0578,0.0555,0.0462,0.0568,-0.0275,0.045,-0.0283,-0.0532,-0.0267,-0.0469,-0.0418,-0.0143,-0.02,-0.0585,-0.034,-0.0473,-0.0442,-0.0283,-0.00402,-0.0295,-0.031,-0.0533,0.00926,0.0198,0.01,-0.00919,0.0274,-0.00565,-0.00068,0.0111,-0.0358,0.0318,0.038,0.0137,-0.031,0.0134,-0.0605,-0.00889,0.0177,-0.00358,0.0273,-0.0427,-0.0105,0.0302,-0.0298,-0.00687,-0.0568,-0.0124,0.0196,-0.0195,0.029,-0.0251,-0.0622,-0.0192,-0.0261,0.0481,0.0213,0.0393,0.00941,0.0137,0.00452,0.0085,4.4e-05,-0.0482,0.0322,-0.0323,0.027,0.0214,-0.0097,0.0203,-0.0269,-0.0556,0.0259,-0.0386,0.0388,-0.041,-0.0217,-0.0422,-0.0377,-0.0312,-0.0183,0.0647,0.00463,-0.00678,-0.0497,0.0593,0.0114,0.0607,-0.0116,-0.0387,0.00852,0.0239,0.0397,0.0466,0.00846,-0.034,-0.0116,0.0269,-0.0212,0.0259,0.00653,0.0319,-0.00527,-0.00608,0.0178,0.0221,-0.00365,0.00811,-0.0556,-0.0523,0.0602,0.0249,-0.0125,0.059,0.0131,-0.0533,-0.0374,-0.0538,-0.00473,-0.0468,0.0441,0.0463,-0.0208,-0.0389,-0.0162,-0.0244,-0.0396,0.0375,-0.00194,-0.033,-0.0331,-0.0415,0.0197,-0.0544,0.00528,-0.00645,0.0153,-0.00564,0.0459,-0.00694,0.033,-0.0355,-0.013,0.0473,-0.00526,0.0128,-0.044,0.0453,0.0532,0.0493,-0.0386,0.0188,0.0523,0.0466,0.057,-0.0348,-0.0324,0.0109,-0.0317,-0.0465,-0.0335,0.0415,0.0239,-0.00502,0.0383,0.0577,-0.00149,0.0422,0.0125,0.0141,-0.00526,0.0476,0.0484,0.0356,-0.0465,0.00242,-0.00462,-0.0194,0.0471,-0.0614,-0.00348,0.0223,0.0358,0.0253,0.0514,-0.0204,0.046,-0.0087,-0.037,-0.00401,0.0543,0.00744,-0.0342,0.039,0.0521,0.0413,0.03,-0.0188,0.0235,0.025,-0.03,0.045,0.00297,-0.0458,0.0389,-0.00433,-0.00626,-0.00447,0.00624,0.0536,0.0395,-0.0619,0.05,-0.0314,-0.0577,0.0526,0.0208,-0.0388,-0.0401,-0.0167,-0.0372,-0.053,0.0043,-0.0477,-0.0131,0.0527,-0.00703,0.0251,0.00775,-0.00845,-0.0471,0.0514,0.0102,-0.0406,0.0256,0.0423,-0.0243,-0.0439,0.0278,-0.0408,0.0274,0.0366,0.0206,0.00952,-0.0554,-0.0182,-0.034,-0.0416,-0.0293,-0.0128,-0.036,0.0464,-0.00755,-0.00292,-0.0316,0.0536,-0.0191,-0.0337,0.0231,-0.0269,-0.0331,-0.0384,-0.0133,0.0111,0.0206,-0.0342,-0.0228,0.00206,-0.0451,0.0474,0.0566,0.0406,0.0123,0.0534,0.0104,0.0521,-0.0583,0.0169,-0.0206,-0.0395,0.00951,-0.0183,0.00545,0.0215,-0.0392,-0.023,0.0101,-0.0381,0.0282,-0.0564,-0.012,0.00939,0.0509,-0.0223,0.0208,-0.0184,-0.00333,0.0298,0.0126,-0.055,0.0278,-0.0465,-0.0526,0.0228,0.0595,-0.000244,0.0555,-0.00445,0.0144,-0.0325,-0.0589,-0.0484,0.0343,0.0133,-0.0268,0.0316,0.00552,0.00512,0.0553,0.0238,-0.041,-0.0318,-0.0217,-4.22e-05,-0.0129,0.049,0.023,-0.00258,0.0217,0.0141,0.0514,0.00105,0.042,-0.0474,-0.0382,-0.0161,0.0259,0.00187,-0.0116,-0.028,0.0405,-0.0306,-0.0428,0.0553,-0.0272,-0.022,0.00428,-0.00368,0.0284,-0.0269,-0.0177,0.00408,-0.029,0.00349,0.00623,0.0235,-0.0248,0.0122,0.000344,0.0579,-0.00401,-0.0476,0.0513,-0.0517,0.0319,0.0416,0.00396,0.05,0.000938,-0.0501,-0.00998,0.00252,0.0167,0.057,0.0552,0.0371,0.0477,-0.0141,0.0412,-0.0524,-0.0193,0.0216,0.0215,0.00394,0.0315,-0.0202,-0.0485,-0.00782,0.0193,-0.0155,-0.0413,0.0334,0.00257,0.00853,0.00651,-0.0258,0.0509,0.0559,0.00793,-0.000191,0.0541,0.0578,0.0533,0.0121,-0.00623,0.0134,-0.0263,0.0502,-0.00812,-0.0401,-0.0113,-0.0091,0.0505,0.0191,-0.0412,0.0572,0.014,-0.0114,0.0126,-0.0387,-0.0417,-0.0415,-0.0417,-0.0233,0.0401,0.0461,-0.0225,0.0242,-0.0569,-0.0563,0.00601,-0.00262,0.0458,-0.0341,-0.00352,-0.043,-0.0159,-0.00865,5.98e-05,0.062,0.0458,-0.0208,0.00301,0.0363,0.0419,-0.00359,-0.0147,0.0381,-0.0612,-0.0435,-0.0408,-0.0341,-0.0248,-0.0429,0.0199,-0.0315,-0.0498,0.000859,0.0532,0.0333,-0.0566,-0.0443,0.0288,-0.00193,-0.00877,0.0332,0.0496,-0.0409,0.0473,-0.0294,-0.00122,0.0332,0.024,-0.0195,0.00331,-0.0526,0.0257,-0.0162,-0.0451,0.0387,0.0438,-0.0632,-0.0499,-0.0271,0.0358,0.0636,0.0365,0.0274,-0.0519,-0.0355,-0.00134,-0.0343,-0.00835,-0.0523,-0.0294,-0.0136,-0.0186,0.0287,0.0607,-0.0558,-0.0173,0.0395,0.0425,-0.000395,-0.0377,0.0371,-0.0227,0.0442,0.056,0.0379,0.00462,0.0448,-0.0173,0.00389,-0.0463,0.0347,0.0225,0.0127,0.0453,0.058,0.0453,0.0409,0.0504,0.0389,0.0281,-0.00193,0.00869,-0.0316,-0.0174,0.0509,-0.0175,0.0115,0.0283,0.0232,0.0417,0.00964,-0.0395,-0.0115,0.0256,0.0403,0.0457,0.0532,0.0509,-0.000469,0.0114,-0.0298,-0.0236,-0.0506,0.0218,0.0104,-0.0456,0.00189,-0.0145,-0.0173,-0.0454,0.0189,0.0295,0.0106,0.0444,-0.0328,0.0337,0.0181,0.00813,-0.00151,-0.00694,0.0475,0.013,-0.0412,-0.00381,-0.0459,-0.0531,-0.0306,-0.0308,-0.0211,0.0464,-0.00344,-0.0147,0.00635,-0.0538,0.0277,0.0377,0.0136,-0.055,0.0559,-0.000208,-0.0455,0.0191,0.0277,0.0385,0.0493,-0.011,-0.0501,0.0552,-0.021,-0.0337,-0.0343,0.0468,-0.0555,-0.0089,-0.051,0.0616,0.0483,-2.17e-05,0.00261,-0.02,0.0431,0.0531,0.0371,0.0386,0.00115,-0.0135,-0.017,0.0125,-0.0503,0.0319,0.0266,-0.0359,0.0424,0.0194,-0.0138,-0.00996,0.0184,0.0247,-0.0398,-0.0476,0.00389,0.0444,-0.0342,-0.0504,-0.0578,0.0186,-0.0241,-0.0375,-0.0376,-0.02,0.0331,0.0495,0.0566,-0.00859,-0.0012,-0.0454,0.00375,-0.00588,-0.00833,-0.0636,-0.0164,-0.0445,0.0353,0.0157,0.0593,-0.0533,-0.0308,-0.00943,0.0455,0.00929,-0.0286,-0.0473,-0.00301,-0.0153,0.0277,0.0484,-0.00855,0.00551,-0.0197,0.00598,-0.0295,0.0129,0.0393,0.048,-0.0346,0.000788,-0.0291,-0.0432,0.00403,-0.0387,-0.036,0.037,-0.0457,-0.0579,0.0236,-0.0132,0.0442,-0.00333,0.0154,0.0535,0.0288,-0.0298,-0.0462,-0.0346,-0.0101,-0.0182,-0.00116,-0.0389,0.0458,0.0403,-0.0452,-0.00862,0.0173,0.0499,0.0233,-0.0568,0.0508,0.0114,0.00306,-0.0162,0.0387,-0.0403,0.00344,-0.0473,0.0573,0.0199,-0.00515,-0.0372,-0.0319,0.0324,0.0455,-0.0152,-0.0458,-0.0227,0.0514,0.00924,-0.0199,-0.0436,0.0546,0.00129,-0.0412,-0.0071,0.0523,-0.00195,-0.0133,-0.0341,0.0518,0.0234,0.0393,-0.0525,0.0379,0.0251,0.0264,-0.00192,0.0476,0.0442,0.0161,0.00348,-0.00196,-0.0276,-0.0306,-0.00717,-0.0255,-0.054,0.0214,0.0604,-0.0448,0.0156,0.0502,0.0114,0.0143,-0.0143,0.0558,-0.0316,0.0456,0.0125,-0.0401,0.0374,-0.00352,-0.000165,0.0407,-0.0292,0.0216,0.0231,-0.0169,0.0243,0.0538,0.0197,0.047,0.0118,0.0103,-0.0402,-0.00265,-0.0444,-0.0208,-0.00229,0.0107,-0.0367,0.0217,0.0111,0.0553,-0.0273,-0.0521,0.0227,-0.0491,-0.0233,0.0235,0.0199,-0.0548,0.0456,0.0632,-0.0417,0.0171,-0.052,-0.0151,-0.00228,0.0198,-0.0537,-0.0024,-0.00658,-0.00154,-0.0456,-0.056,0.00299,-0.0285,0.0168,-0.0328,-0.0203,-0.0282,0.0348,-0.000409,0.0478,-0.00995,-0.0113,-0.0453,-0.0609,-0.00995,-0.0335,-0.0474,-0.0145,0.022,-0.000888,-0.0345,-0.048,-0.037,-0.0315,0.042,-0.00911,0.0115,0.0322,0.052,-0.00622,-0.00342,-0.0227,0.0548,-0.0185,0.0228,0.0396,-0.0457,0.0179,0.0398,-0.0301,-0.0466,0.0315,0.0368,-0.00635,0.0221,0.0163,-0.0522,-0.0237,-0.0366,0.0325,-0.0412,-0.0134,0.00702,0.0525,-0.0247,0.0443,0.036,-0.0332,-0.0164,0.0476,-0.01,-0.0298,0.0579,-0.0245,-0.0239,-0.0331,0.0491,-0.0154,0.0245,0.043,0.0181,0.0478,0.0229,0.0351,0.00222,-0.0297,-0.0404,0.00733,-0.0351,0.0256,0.059,0.0514,0.0284,0.0436,-0.0533,0.0432,0.0602,0.0372,-0.00434,-0.0438,-0.0203,0.0057,-0.0572,0.0348,-0.000301,-0.0229,-0.0124,0.0038,-0.0407,-0.00263,-0.0112,-0.0534,-0.00574,-0.0311,0.0345,0.0216,0.0346,0.0609,0.054,-0.0342,0.0333,0.0468,-0.0284,-0.0235,0.0444,0.00432,0.026,0.0341,-0.039,-0.0366,0.0225,-0.0501,-0.0364,-0.00753,-0.0255,-0.0469,0.0309,0.00205,-0.0569,0.00774,-0.0388,-0.0399,0.0156,0.0149,-0.0475,0.0429,-0.0264,-0.0109,-0.0543,-0.0461,0.00215,-0.024,-0.035,-0.0537,-0.0227,0.00202,0.0552,-0.0328,-0.0551,-0.0196,0.0225,-0.00858,0.0644,0.0403,0.0369,-0.0241,-0.0373,-0.0299,-0.0421,-0.0229,-0.0565,0.00957,0.0416,-0.035,0.0446,0.0504,0.0577,-0.0358,0.0443,0.0218,-0.0109,-0.015,-0.0337,0.00896,0.0065,0.0469,-0.0464,0.0101,0.00718,0.0526,0.00618,0.0525,-0.03,-0.0175,0.0358,0.019,-0.0494,0.0186,0.0311,0.0496,0.0328,0.0369,0.0313,-0.008,0.02,-0.0473,-0.0347,0.0171,0.0392,-0.0153,0.00526,-0.0294,-0.0311,0.00384,-0.0497,-0.0468,0.047,-0.0383,-0.0571,-0.0231,-0.0525,-0.0145,-0.0605,0.0218,-0.0175,0.0279,-0.00286,0.0117,0.0325,-0.0562,-0.0651,-0.0278,0.0433,-0.00635,0.00988,0.00319,0.0345,-0.0246,-0.0433,0.0181,0.0226,0.0225,-0.054,0.0505,-0.0221,-0.038,0.0444,0.0215,0.0165,0.0216,-0.0431,0.0292,-0.046,0.0129,-0.0458,0.0337,-0.017,0.0246,0.01,-0.00927,-0.00415,0.0517,0.0074,-0.0172,0.0346,0.0486,0.0103,0.0235,0.0452,-0.0383,0.00978,-0.0419,-0.0339,0.0179,-0.0121,-0.0132,-0.0451,-0.0185,-0.0523,-0.021,-0.013,0.0224,0.0403,-0.00893,-0.0483,-0.0602,-0.0538,0.016,-0.0354,0.0283,0.0296,0.0287,0.0183,-0.0308,-0.0438,-0.0472,0.0406,0.0542,0.0145,0.0218,0.0295,-0.0196,-0.0182,0.00869,-0.0185,-0.0181,0.0287,0.019,-0.012,-0.0391,-0.011,0.0232,-0.0515,-0.00459,0.0042,-0.0156,-0.0508,-0.013,-0.0467,-0.039,-0.0557,0.0436,-0.00872,0.0124,0.0516,-0.0502,-0.0397,0.0133,-0.0504,-0.0492,0.0443,-0.0284,0.0107,0.0301,-0.0198,0.044,-0.0579,0.0298,0.0576,-0.0498,-0.0382,-0.0301,0.0257,0.0566,-0.0337,-0.0538,-0.0412,0.0252,0.0303,0.0398,-0.0349,0.0267,-0.0348,0.0417,0.011,0.00969,-0.00813,0.000546,-0.00357,-0.0303,-0.0243,-0.059,0.0146,0.0102,-0.0546,-0.00992,-0.0612,0.00944,-0.0447,0.00332,0.0474,-0.0133,-0.0478,-0.0338,-0.0361,0.05,0.0478,-0.038,0.0406,-0.0387,-0.0534,-0.0194,0.0232,0.0422,-0.0112,0.0267,-0.00626,0.044,-0.0421,-0.0074,-0.0408,0.0581,0.00667,0.0374,0.0272,0.0193,-0.0578,-0.0329,0.0124,0.0502,0.0362,0.0401,0.00758,0.0155,-0.0445,0.0115,0.0452,0.05,0.0497,-0.0303,0.00952,-0.000405,-0.012,0.0549,0.00992,0.0174,-0.0406,0.0148,0.0519,0.0517,0.0363,-0.00572,0.00733,0.0481,-0.0611,0.0274,-0.00909,-0.0103,0.018,-0.0458,-0.0184,-0.0251,0.0476,0.00638,0.00827,-0.0187,-0.017,0.0423,-0.000705,-0.0102,0.0072,0.0325,-0.0262,-0.0383,0.04,-0.0505,0.00856,-0.0152,-0.0227,-0.0244,-0.0418,-0.016,-0.0545,0.054,-0.0649,0.0175,0.0291,0.0454,0.015,0.0476,0.0501,-0.00493,-0.0475,0.0334,-0.00234,-0.0587,0.0415,0.036,-0.0133,0.0393,0.06,-0.00586,-0.0037,-0.0542,0.0449,0.0226,0.0256,-0.0346,0.0447,0.0468,-0.0175,-0.00333,-0.00485,-0.014,0.0339,-0.0315,0.0369,0.0107,-0.0153,0.0511,-0.0449,0.000177,0.00898,-0.0167,-0.0205,-0.0493,-0.0461,0.0244,0.0273,-0.00665,-0.0418,0.0243,-0.0115,0.0512,0.0206,-0.0162,0.0296,0.0318,0.0469,0.000618,-0.0443,-0.0349,0.0276,0.0124,0.0491,0.0169,0.0453,-0.01,-0.053,-0.00301,-0.00942,0.0152,0.0319,0.0311,-0.0298,0.00587,0.0263,-0.0506,-0.0424,0.0491,0.00742,-0.000285,0.0334,-0.0411,-0.0359,-0.0139,-0.048,-0.0333,-0.0272,0.0399,-0.0255,-0.00232,-0.0157,0.0434,-0.0221,-0.024,0.0184,0.0598,-0.0116,-0.0505,0.00225,0.013,-0.0237,-0.0299,0.028,-0.0122,0.0209,0.0429,-0.0144,0.0148,-0.0311,0.0233,0.0143,0.023,-0.00114,0.0418,0.00652,0.0326,-0.0501,-0.0442,-0.0358,-0.0208,-0.0187,-0.0418,-0.00149,-0.0225,-0.0047,0.0315,0.0228,0.0547,-0.00415,0.0289,-0.0071,0.0286,0.0103,-0.0163,0.0402,0.00766,0.0531,0.0499,-0.0455,-0.0394,-0.0382,0.0436,0.00201,-0.00866,0.0142,-0.0555,0.0561,0.00434,-0.00195,0.0537,0.00944,-0.019,-0.0332,0.0498,-0.0373,-0.048,-0.0132,0.0205,-0.0389,-0.000783,0.0353,-0.0146,-0.0103,-0.0584,0.0283,-0.0038,0.0599,-0.0248,-0.0252,-0.0556,0.0471,0.0189,-0.0276,-0.0587,0.024,-0.0434,-0.0552,0.0197,-0.0327,-0.0204,-0.0371,-0.0408,-0.0392,0.0104,0.0374,-0.0547,-0.000669,-0.00361,-0.0511,-0.0375,-0.0161,0.0365,0.045,0.0168,-0.0552,-0.0536,0.000952,0.0599,-0.0176,-0.0532,-0.0215,0.0352,-0.0603,-0.0309,-0.0376,0.0103,-0.0241,-0.0294,-0.0512,-0.0248,0.0603,-0.0119,0.0361,-0.0497,0.00706,0.0456,0.00761,0.0298,0.0272,-0.052,0.000503,0.0389,-0.0178,-0.0391,-0.0415,0.0558,0.0105,-0.000987,0.0439,0.024,0.0522,-0.0597,0.055,0.0248,-0.0195,-0.00551,-0.0198,-0.0551,0.00623,-0.0082,-0.0372,-0.059,-0.0213,-0.027,0.0286,-0.0165,0.00704,0.00674,-0.00651,0.0489,0.0575,0.00377,0.06,0.0449,-0.0442,-0.0312,-0.000405,-0.0282,-0.059,0.0246,-0.00729,0.0415,-0.026,0.00853,-0.0499,0.0182,0.0246,-0.00847,-0.031,-0.00233,0.066,-0.0429,0.0363,-0.0311,-0.0607,0.0245,0.0485,0.0492,-0.0254,-0.0563,-0.0402,-0.0353,-0.0497,0.0594,-0.0342,0.0176,-0.0282,-0.000718,-0.00467,0.00579,-0.0504,0.00748,-0.0278,0.0064,-0.0448,0.0361,0.0452,0.0237,0.00988,-0.0235,0.0404,0.0208,-0.0166,0.0366,-0.0597,0.0353,-0.00278,-0.0471,0.0506,-0.0313,0.0557,-0.0378,0.0581,0.0411,-0.049,-0.00148,-0.00386,-0.0314,-0.0449,-0.0235,-0.00988,-0.0167,0.00979,-0.00241,-0.0309,-0.0105,-0.022,0.0434,-0.00907,0.0237,0.0241,0.0295,0.00784,-0.0359,-0.0282,-0.0506,-0.0487,0.0383,-0.0587,0.0484,-0.0127,0.0535,-0.0225,0.0449,-0.0306,-0.0351,-0.00946,-0.0412,0.03,0.0488,-0.0402,-0.0433,-0.0033,0.0236,0.0178,-0.0693,0.0512,0.0395,0.026,0.00293,0.0558,0.0398,-0.0134,-0.00743,-0.0528,-0.0115,-0.0478,0.0199,0.0251,0.0429,0.0121,0.0437,0.0515,0.0205,-0.0327,-0.0217,0.0443,0.00536,-0.0408,0.042,0.00705,0.0143,0.0573,-0.0427,-0.0407,0.0448,0.0567,-0.0534,-0.0127,-0.0547,-0.00475,0.000195,-0.0294,-0.0377,-0.048,-0.0533,0.0106,-0.0106,0.0269,-0.037,-0.0225,0.00447,-0.0375,-0.0131,-0.019,0.00405,0.0346,-0.0521,0.0104,0.0154,0.023,0.00768,0.013,0.012,0.00281,-0.0553,-0.047,0.0488,-0.0542,-0.0494,-0.0525,-0.0355,-0.0327,-0.0182,0.0296,-0.0137,0.0368,-0.0542,0.029,-0.00236,-0.0436,0.0365,-0.0405,0.0397,-0.0307,-0.0465,-0.0447,0.0537,-0.0484,0.0143,0.00625,-0.0112,-0.0515,-0.034,0.0126,0.0445,-0.0463,0.0507,-0.0322,0.0249,-0.0577,-0.0417,0.0202,-0.0153,0.0348,0.0585,-0.0354,-0.0065,-0.0425,0.0106,0.033,0.0612,0.00759,-0.0249,0.0023,0.0367,-0.0431,-0.0517,-0.0214,0.0452,0.0289,-0.0101,0.000712,0.00189,0.00968,-0.05,-0.0383,-0.0334,0.0418,0.0228,0.0447,-0.00411,0.00551,0.0316,0.00504,-0.0507,0.0236,-0.0215,-0.00932,-0.0498,-0.0229,0.0296,-0.0562,0.0341,-0.0039,0.0427,0.0434,-0.0409,-0.00656,0.00201,0.0481,0.0475,0.00566,-0.0473,0.0318,-0.0138,-0.0175,-0.0415,-0.0364,0.0337,-0.035,-0.0407,0.0375,-0.0374,0.0331,0.0704,0.00705,0.0329,-0.00256,0.00471,-0.0637,-0.0177,-0.0398,-0.052,-0.0378,0.00146,-0.0342,0.0245,0.0547,0.042,0.00434,-0.0592,0.0197,0.0311,-0.0344,-0.0172,-0.00931,0.0306,0.0194,0.009,0.0342,-0.0222,-0.0344,-0.00378,-0.0556,0.0237,-0.0575,0.0318,-0.036,0.0124,0.0154,-0.0257,0.0333,-0.0406,0.0244,-0.0451,-0.0187,-0.00122,-0.0432,-0.0424,0.00822,0.0438,-0.0219,0.0274,0.0407,0.000728,-0.0352,0.0431,-0.0293,0.0526,-0.0413,-0.0139,-0.00417,-0.0281,0.0126,-0.053,0.0434,-0.0536,-0.0373,-0.0493,-0.0252,-0.0498,-0.0391,0.0398,-0.0122,0.00958,-0.0504,-0.0177,0.0133,0.0151,0.0235,-0.0584,0.00922,0.0104,-0.00952,0.0428,-0.0494,-0.0221,-0.0508,0.013,0.0433,-0.0185,-0.0103,0.0303,0.0482,0.0464,-0.0244,-0.0185,0.00502,-0.0475,-0.0584,-0.0336,0.0509,0.0465,0.00458,-0.0436,-0.00874,-0.0534,-0.0461,0.0207,0.0537,0.00344,0.0422,0.0178,0.0166,0.044,0.0021,0.0422,-0.0427,0.0463,-0.0597,-0.049,0.0379,-0.0083,-0.0229,-0.0579,-0.0286,-0.038,0.0257,-0.00859,0.0387,-0.0383,-0.0193,-0.0618,0.0192,-0.00939,0.0148,0.047,-0.00839,-0.00234,0.0187,0.00491,-0.03,-0.0569,-0.0213,-0.0461,-0.00644,0.00764,0.05,0.0176,-0.0411,0.0474,0.0145,-0.0188,-0.00764,-0.0421,-0.0217,0.0486,-0.0218,0.0554,-0.0077,-0.00135,0.0535,-0.0388,-0.0428,0.000587,-0.0278,0.0343,-0.0463,-0.0386,-0.0454,-0.00605,0.00249,0.00246,0.0533,0.037,0.0594,0.00953,-0.0512,-0.0104,0.0168,0.042,0.00636,-0.0568,0.0341,0.0299,0.0484,0.0395,-0.0397,0.0569,-0.0245,0.0444,0.024,0.034,-0.00302,-0.0218,-0.00925,0.0131,-0.043,0.0353,-0.0271,0.0286,-0.0501,0.0294,0.00851,-0.0119,-0.0557,0.0494,-9.92e-05,-0.00823,-0.0348,-0.0344,0.0102,0.027,-0.0243,0.0148,-0.0434,-0.00616,0.0452,-0.013,0.00446,-0.0579,-0.0114,-0.0389,-0.0158,-0.028,0.0369,0.0548,0.00355,-0.0204,-0.0165,-0.0447,0.011,0.0365,-0.0101,-0.0475,-0.0264,0.0239,-0.0104,0.0536,0.056,-0.0348,-0.000391,-0.0465,0.0384,0.0389,0.0341,-0.0386,-0.0211,0.0261,0.00727,-0.0053,0.0522,-0.0339,0.0266,-0.00113,0.0405,0.0479,-0.0553,-0.0129,-0.00707,0.0349,-0.0446,0.00538,-0.0576,0.0445,-0.0353,0.0461,-0.0284,-0.0441,0.0405,-0.0442,-0.0303,0.0237,0.0543,0.00368,-0.0101,0.0177,-0.0339,-0.0535,-0.051,0.0458,0.0466,0.0397,-0.0592,-0.0432,-0.00841,-0.045,-0.0312,0.0037,-0.0114,-0.0265,-0.0585,-0.00452,-0.0012,-0.0275,0.00828,-0.0466,-0.0445,-0.0447,-0.0215,0.0214,-0.059,0.0112,0.0482,-0.0545,-0.0274,0.0249,-0.0455,0.00132,0.042,0.0223,0.0345,-0.017,0.0252,-0.0276,0.00854,-0.038,-0.00645,-0.0254,-0.007,0.0571,-0.0439,0.00295,-0.00654,-0.0032,0.0542,0.0165,0.0478,0.042,-0.00709,0.0454,0.0421,0.0566,0.0489,-0.0284,0.00383,0.0402,0.0409,0.0471,-0.0326,0.0187,0.00344,0.0365,-0.0191,0.0474,0.0361,-0.00315,-0.0319,0.0538,-0.018,-0.0202,-0.0229,0.00352,0.0369,-0.00649,0.0203,0.0387,-0.0293,-0.031,-0.00769,-0.00623,-0.00648,0.0253,0.0453,-0.0434,-0.00383,0.0541,-0.00113,-0.0506,0.0594,0.0317,0.00349,0.0211,0.0481,0.0509,0.0173,0.0335,0.0175,0.00722,0.0408,0.0483,0.0272,0.0534,0.0133,0.019,0.0228,-0.0471,-0.0221,-0.0147,-0.0203,0.0389,-0.0243,-0.0065,-0.00933,-0.0396,-0.0511,-0.0139,0.0339,-0.0318,-0.0368,-0.0181,-0.0358,-0.0459,-0.0502,0.0143,-0.0491,-0.0316,-0.0142,0.0452,0.0201,0.0276,0.0204,0.0531,-0.00738,-0.0351,0.0407,0.0201,-0.0506,0.00819,-0.021,0.034,-0.0297,0.0167,0.0274,0.0263,0.0398,0.0245,-0.00684,0.00611,-0.00506,0.0076,0.00457,-0.0028,0.0317,0.0409,-0.0495,0.0279,0.0278,-0.0201,-0.0219,-0.000971,0.0282,0.0269,-0.0325,0.0521,0.00359,0.000799,0.0274,0.043,-0.0288,-0.0271,0.0213,0.0539,-0.0271,-0.0201,-0.0387,0.000973,0.0417,0.00234,-0.0152,0.0119,0.0582,0.049,0.0409,-0.0452,0.00727,-0.0215,0.0572,-0.0349,-0.0239,-0.0465,0.00915,0.0199,-0.059,0.0183,0.0098,0.0134,0.0388,0.0483,-0.0123,0.02,0.0585,0.0142,-0.0589,-0.00871,0.0026,-0.0161,0.0521,0.00712,0.0363,0.0246,-0.00132,-0.0389,0.0165,-0.0485,-0.0623,-0.0491,-0.0473,0.00955,0.0418,0.0598,-0.0399,-0.0471,0.00296,-0.0507,0.0521,-0.0192,-0.0479,0.0322,-0.0334,0.027,0.00277,0.0431,-0.0194,0.023,0.00126,0.0258,-0.0503,0.0244,0.0435,-0.0444,0.0221,-0.0136,0.0225,-0.00545,-0.017,0.0333,0.0426,-0.0143,-0.0073,-0.0183,0.0127,0.0589,-0.0254,-0.0462,-0.055,0.00463,0.0512,0.0443,0.0446,0.0579,0.0481,-0.0106,0.0428,-0.033,-0.00837,0.0339,0.0148,0.0117,-0.0394,0.0247,-0.00239,0.00242,-0.00606,0.000231,-0.0511,0.0575,-0.0241,-0.0136,0.0487,-0.0139,-0.0556,0.0528,0.0434,-0.0397,0.00751,-0.0481,0.0105,-0.0189,0.0526,0.034,-0.0416,-0.0363,0.0142,-0.0418,0.0379,0.0192,0.0251,0.0512,-0.021,0.0435,-0.0186,-0.0199,0.0132,0.00972,-0.0224,0.0132,0.0335,-0.0432,-0.0174,-0.0272,0.0382,0.025,0.00183,0.0276,-0.0164,0.0014,0.00434,-0.0278,-0.0374,0.0296,0.0199,-0.0519,0.0233,-0.00687,0.0441,-0.0451,-0.0357,0.0278,0.0297,-0.0525,-0.032,-0.0184,0.0374,-0.0251,-0.0402,-0.055,-0.0533,0.00769,-0.0534,0.0208,0.0197,-0.0282,-0.00583,0.0262,-0.034,-0.0306,0.0118,0.00621,0.0266,-0.057,0.0248,-0.0362,-0.0543,0.0428,-0.00679,-0.0405,0.0335,-0.0196,0.065,0.046,0.0312,0.00735,0.0107,0.011,0.0404,-0.0214,0.0347,-0.0496,-0.00758,-0.0355,-0.0409,-0.0277,0.0222,-0.0496,0.0257,-0.0074,-0.0263,-0.0224,-0.00983,0.0385,0.0289,0.00311,0.0582,-0.018,-0.0337,0.0327,-0.0134,-0.0393,-0.0544,-9.93e-06,-0.0406,0.0305,0.0301,0.048,0.033,0.0278,-0.0228,-9.15e-05,0.00614,-0.0476,0.00535,-0.0302,0.0476,0.0132,-0.0275,-0.0231,-0.0507,-0.0465,0.0259,-0.0219,-0.0118,0.0168,0.036,0.000405,-0.00747,-0.058,-0.02,-0.0143,-0.0591,0.0427,-0.051,-0.0603,0.0177,-0.00745,-0.00889,-0.0456,0.0134,-0.0437,0.0245,-0.0233,-0.011,0.0134,0.0293,0.00992,0.0061,0.00317,-0.016,-0.0306,-0.0431,-0.0103,-0.0449,-0.000944,-0.0293,-0.00672,0.0327,-0.0374,-0.0386,-0.0213,-0.0184,-0.00108,-0.0103,-0.022,0.0556,0.0244,0.0323,0.00789,0.0371,0.0315,-0.0034,0.0374,-0.0448,-0.0223,-0.0223,0.0137,-0.0426,-0.0378,0.00854,0.00249,-0.00311,0.0204,0.0239,0.0165,0.015,0.0534,0.00126,-0.0308,-0.0269,0.00986,-0.0442,-0.0163,-0.0513,0.0269,0.059,0.00785,0.0399,-0.0375,-0.0275,-0.0245,0.0377,0.0286,-0.0178,-0.00224,0.00449,-0.00973,0.00079,0.00442,0.0317,-0.0302,-0.0446,0.00422,-0.0434,-0.0428,0.0581,0.038,-0.00971,-0.0119,0.0258,0.0163,-0.0386,-0.0366,0.0482,0.0139,0.0482,-0.0375,-0.00235,0.0031,-0.0533,-0.0579,-0.0402,-0.0459,0.0294,0.0357,-0.011,-0.0145,0.019,0.0194,0.0348,-0.00423,-0.0151,0.0403,-0.0561,0.0397,-0.0621,0.0133,-0.0323,-0.0343,0.0575,0.0312,-0.0615,-0.0135,-0.0483,0.039,-0.0377,-0.0209,-0.0407,0.0217,-0.0396,-0.0467,-0.0182,-0.0253,0.00687,-0.0296,-0.0466,0.013,0.0439,0.0101,0.0228,0.008,-0.0413,0.0377,-0.0367,0.0015,-0.00351,-0.0476,-0.0632,0.0431,0.00695,-0.0201,-0.00971,0.0484,-0.019,-0.0514,-0.0441,0.0352,-0.0288,0.0348,0.0461,-0.0145,-0.0416,-0.0188,0.00922,-0.0476,-0.0117,0.0129,-0.0124,-0.0102,0.0253,-0.0498,-0.0514,0.0375,0.0571,-0.0165,0.0174,0.0431,0.0413,-0.0358,-0.0131,-0.0153,0.0158,-0.00586,-0.0624,0.0141,-0.0339,0.00675,-0.0359,-0.0105,-0.0448,-0.0445,0.00222,-0.038,0.0501,-0.0223,-0.0226,0.0155,0.0117,0.0428,0.056,0.0285,-0.0394,-0.00225,0.0138,0.0348,-0.0279,0.0219,-0.00544,-0.0404,0.0141,-0.0459,-0.0388,0.0569,-0.034,-0.0472,0.0531,-0.0203,0.0489,0.00516,0.00749,0.00567,-0.0111,0.00163,0.0143,0.0107,0.0491,-0.0431,-0.0243,0.014,-0.0268,0.0519,-0.0263,0.0326,0.0178,0.00822,-0.051,0.00326,0.0408,-0.021,-0.0452,-0.0236,-0.0151,-0.0382,-0.0537,0.0324,0.0623,-0.0405,-0.00926,0.000166,-0.00925,-0.0261,0.00887,-0.0326,0.0163,-0.0462,0.0186,0.0489,-0.0461,-0.018,-0.0038,0.0548,0.0613,0.0145,0.00421,0.0324,0.0048,0.0476,0.0119,0.0484,0.0167,-0.00516,-0.00195,0.0293,0.0258,-0.0319,0.00409,0.043,0.0461,-0.0446,-0.0234,-0.042,-0.0246,0.0228,-0.00926,-0.0376,-0.0111,-0.0492,-0.0193,0.0353,0.0135,0.0259,0.0496,-0.0407,0.00256,0.0312,0.0556,-0.0589,-0.031,-0.00468,0.0584,0.0277,-0.000213,0.0188,-0.0374,0.0565,-0.0398,0.0104,-0.0521,0.0202,0.0556,-0.0123,-0.0517,0.0287,0.0339,0.0403,0.0543,-0.0184,0.00897,0.000654,0.0208,0.025,-0.0376,0.0385,0.0152,-0.0168,-0.0456,0.0409,-0.0524,0.0481,0.0323,-0.0377,0.0274,-0.0704,-0.0503,0.0241,0.0344,-0.0421,-0.0207,-0.0479,-0.0487,-0.0233,0.0252,0.0131,0.0273,0.00684,-0.0228,-0.00496,-0.0411,0.0358,-0.0372,-0.0539,0.0346,-0.0413,0.0204,-0.0549,0.0235,-0.0162,-0.0422,-0.053,0.0313,-0.0298,-0.00556,-0.033,0.0131,0.017,0.0225,0.0537,0.0495,0.0283,-0.0387,-0.0396,-0.0489,-0.0511,0.0607,-0.0413,0.00624,-0.0262,0.0309,-0.0153,0.0397,-0.0158,0.0106,0.0346,-0.0438,0.0465,0.000261,-0.0383,0.057,-0.0442,-0.00237,-0.021,0.0287,0.0126,-0.0294,-0.0397,-0.0166,-0.0615,-0.0434,-0.0325,0.0463,0.00351,0.0222,-0.0495,0.00386,0.0516,0.0499,-0.0441,0.0491,0.0545,-0.0624,0.0467,0.0429,-0.0466,-0.0284,-0.011,-0.0481,0.0421,-0.00347,0.0519,-0.0115,0.0413,0.0318,-0.0571,0.0439,0.00956,0.0162,-0.0479,0.00221,0.026,-0.0396,-0.0396,0.0354,0.0215,0.0581,-0.0588,0.0422,-0.0249,0.0472,-0.0552,-0.044,0.0316,-0.0116,0.0333,-0.0518,-0.0474,-0.0356,-0.0246,0.0468,0.0561,-0.0467,0.0557,-0.0318,0.00511,0.00293,0.0205,-0.0266,0.0399,-0.0391,0.0151,0.0253,-0.0492,-0.0277,-0.038,-0.012,0.0522,0.0179,0.0158,-0.0362,0.0166,-0.0461,0.0499,-0.0508,0.000328,0.0239,0.048,0.0422,-0.0221,0.0243,0.000174,0.0309,0.0127,0.0211,0.0139,0.0375,-0.019,-0.00545,0.0206,-0.0556,0.0488,-0.0153,-0.0135,-0.00946,-0.0342,0.0575,0.0553,0.0374,0.0295,-0.00438,-0.0585,-0.0544,-0.0564,-0.00495,-0.00335,0.013,0.0503,0.0173,-0.0493,0.0529,0.059,0.0429,0.00762,0.0109,0.00405,-0.0205,0.0606,0.0457,0.0196,0.000477,0.0148,0.0193,0.0466,0.045,-0.0068,-0.0203,-0.045,-0.0515,-0.0447,-0.0416,0.0381,-0.0143,0.0554,0.0345,0.00758,0.0488,-0.0458,-0.0327,0.0514,-0.0049,0.0515,-0.0427,0.0361,0.0153,0.00369,-0.0563,-0.0172,0.0389,0.0517,-0.0232,0.0326,-0.0541,0.00982,0.0476,-0.0559,-0.00391,-0.00513,-0.00209,0.038,0.016,-0.00782,0.0164,-0.037,0.0484,-0.0146,0.0448,0.0424,0.0432,-0.0543,-0.0425,0.00338,0.0118,-0.0494,-0.0435,0.06,0.00111,0.0577,-0.0185,-0.011,-0.036,-0.0508,-0.0154,0.0378,0.00932,-0.0542,-0.047,0.0048,-0.0476,-0.0538,0.00107,-0.0375,0.0132,-0.02,0.00102,0.0337,-0.0415,-0.011,0.0497,-0.0416,0.0362,0.027,-0.0259,-0.0338,-0.0164,0.0473,0.0273,0.0176,-0.0112,-0.0125,-0.00767,0.0549,-0.00903,-0.0277,-0.00932,-0.00556,-0.0493,-0.0353,0.0358,-0.0285,0.0213,0.00861,0.0304,-0.0491,-0.0115,0.0244,-0.00964,-0.0194,0.0577,-0.0135,-0.0563,0.0497,0.0348,0.0107,-0.0539,0.0544,0.0179,-0.0561,-0.00677,0.0559,0.0503,-0.00355,-0.0332,0.0298,-0.0298,0.0412,0.0235,-0.0234,-0.0443,-0.028,-0.00915,-0.0445,0.038,0.00712,-0.0162,-0.0112,-0.00153,-0.00606,0.0373,0.0468,-0.0542,-0.0475,-0.0224,-0.0191,0.0604,0.0363,0.0117,0.00416,0.0457,0.0215,0.0527,0.0105,0.0167,0.00718,0.0574,-0.0407,0.0377,-0.0478,0.051,0.0196,0.0428,0.00303,0.0116,-0.0208,0.0042,-0.0357,0.0295,0.0233,-0.0548,-0.015,0.03,-0.0224,0.0037,-0.0106,-0.0303,0.0369,0.0589,-0.0505,-0.0347,0.0557,0.0341,-0.0335,-0.0317,0.0142,0.04,0.04,0.0474,-0.0115,0.0188,-0.00246,-0.0507,-0.00995,0.0156,0.0376,-0.0224,-0.0357,0.0176,0.0341,-0.015,-0.00963,0.042,-0.0196,0.0414,-0.0213,0.0584,-0.0169,-0.0135,0.0336,0.014,-0.0404,0.0453,0.0108,0.0489,-0.063,0.0397,-0.047,-0.0281,-0.0357,0.0361,-0.051,-0.026,0.0324,0.0208,0.034,0.0572,-0.0485,0.0224,-0.046,-0.0261,-0.0392,-0.0213,-0.0477,0.00156,0.0278,-0.063,-0.0199,0.0325,0.035,0.0134,0.0411,-0.0226,0.0425,-0.0407,0.0317,-0.0168,0.0296,-0.051,0.0193,0.0138,-0.0283,-0.00924,0.0549,0.0558,-0.0283,0.0417,-0.00657,-0.0502,0.0251,0.0584,0.0139,-0.0485,0.0244,0.0104,-0.0124,-0.00429,0.0213,0.0527,0.00739,-0.03,0.0137,-0.0585,0.0133,0.0179,-0.00853,-0.00137,0.000126,-0.0175,-0.0311,-0.0124,0.0109,0.0279,-0.027,-0.00425,0.0547,0.0145,0.0533,-0.0296,-0.0267,-0.0234,-0.0288,0.00293,-0.0518,0.00293,-0.0529,0.0393,0.0367,-0.0347,-0.00528,-0.0515,-0.0513,-0.0218,0.0225,-0.0114,0.0244,0.0514,-0.0217,0.0447,0.0263,0.00186,0.0262,-0.0574,-0.0378,-0.0509,-0.00683,0.0317,0.032,0.0123,0.00389,0.0244,0.0516,-0.00446,-0.034,0.026,-0.029,-0.00855,-0.0388,0.0476,-0.0231,0.0307,0.0142,0.0292,0.0386,-0.055,-0.0595,-0.0383,0.0288,0.0303,0.00117,-0.00897,-0.0265,-0.0578,0.00292,-0.0572,0.00119,0.0341,0.00825,-0.0265,-0.0433,0.0464,-0.0291,-0.0229,0.0404,0.0312,-0.0284,-0.0209,0.0115,0.0528,-0.0398,-0.0196,-0.0165,-0.0346,-0.0426,-0.0193,0.0576,-0.0112,0.0257,-0.00203,0.0461,-0.0201,0.00206,0.0578,-0.0143,-0.0023,0.0531,-0.0135,-0.0452,-0.0239,0.0215,-0.0185,0.0553,0.0512,0.0463,-0.0392,-0.0347,0.0112,-0.0486,-0.02,0.0174,-0.0431,0.0543,0.0476,-0.046,-0.0394,0.0517,-0.0123,-0.0269,0.0436,0.0461,-0.0407,-0.0424,0.0222,0.008,0.0288,0.0294,0.0268,-0.047,0.0354,0.0442,-0.026,-0.049,0.035,0.0449,0.0134,-0.00931,0.00281,-0.00241,0.0155,-0.0171,0.00587,0.00845,0.0262,-0.00023,-0.000456,-0.0318,-0.0214,0.0612,-0.0477,0.0458,0.0553,-0.0472,-0.0594,0.0108,-0.0215,0.0221,0.0242,0.00588,-0.0628,-0.0529,0.0586,-0.0475,-0.0394,0.045,0.038,0.00679,0.0114,0.0195,0.0067,-0.0414,0.0181,-0.0473,0.0436,-0.0288,0.0146,-0.0435,0.0534,-0.0632,-0.00441,-0.0234,0.045,0.0246,-0.0362,-0.0531,0.0392,0.0599,0.0145,-0.0386,-0.0334,-0.00595,0.0512,-0.0595,-0.0312,-0.0475,0.0313,-0.0452,-0.00765,-0.0438,0.0407,-0.0336,0.000158,0.00498,0.0532,-0.00903,-0.00535,-0.0389,-0.0137,0.0135,0.0101,-0.00676,-0.051,-0.0295,-0.0162,-0.0402,-0.00404,-0.0197,-0.0447,-0.0117,-0.0334,0.0455,0.0409,0.0177,-0.00691,-0.0216,-0.0541,0.0368,0.056,-0.00101,0.0581,0.0587,0.0403,0.023,-0.0018,-0.0402,-0.0172,0.0324,-0.0213,-0.00943,-0.0435,-0.0593,-0.019,0.0429,0.0143,-0.0536,0.0572,-0.0226,0.0524,-0.026,0.0456,0.0393,0.0505,0.0283,0.0566,-0.00083,0.0169,-0.00199,-0.0263,0.0456,0.0269,-0.0277,-0.0505,-0.0331,0.0142,0.0533,0.0455,0.0497,-0.0335,-0.0591,0.027,-0.0557,-0.00602,-0.013,0.0261,0.0545,-0.0122,0.0278,0.0448,0.0323,-0.057,-0.0264,0.018,0.0295,-0.0138,-0.0391,0.0106,0.00211,0.0209,-0.063,0.0498,-0.032,0.0461,0.012,0.0145,-0.000912,-0.0415,0.0599,-0.0501,0.0196,-0.0428,-0.00538,0.0416,-0.039,0.0374,-0.051,-0.00581,-0.0519,0.0231,0.00741,0.00819,-0.00964,0.0222,-0.0325,0.0246,-0.012,-0.00755,0.00215,0.0133,0.0453,0.0299,-0.048,0.0118,-0.0385,0.0652,-0.0216,-0.0404,0.0587,-0.0359,0.0548,-0.028,0.0206,0.017,0.0423,-0.0045,0.029,-0.0438,-0.0464,0.00794,-0.0277,-0.0202,0.059,0.00736,0.03,0.022,-0.0179,-0.0387,-0.0125,0.0541,0.0522,-0.0193,0.0548,0.00722,0.0287,0.049,0.00358,-0.0117,-0.0567,-0.0266,0.0414,0.0358,-0.00244,-0.0483,0.0387,-0.016,0.0122,0.0548,0.0376,-0.04,-0.0477,0.00724,0.0415,0.0283,0.00177,-0.0438,-0.0584,-0.0298,-0.0429,-0.0049,-0.023,-0.0484,0.0134,0.0229,0.0454,0.0292,-0.0442,-0.00769,0.0441,0.0436,0.0571,0.0588,0.0168,-0.0462,-0.0242,0.0143,0.0533,-0.00273,-0.0604,0.0387,-0.0333,-0.0156,0.066,0.0209,0.034,0.0492,0.00579,-0.0109,0.0245,-0.0363,-0.00244,-0.0377,-0.0559,0.0496,-0.0125,0.0567,0.064,-0.000425,-0.0621,-0.0582,-0.012,-0.0284,0.0509,-0.0494,-0.0529,-0.0309,-0.0495,0.0103,0.0103,-0.0129,0.0512,0.0118,-0.0286,0.00881,-0.0289,0.0433,-0.00464,-0.0419,0.015,-0.0385,0.0571,-0.0391,-0.0381,-0.0361,-0.0278,0.0123,0.000745,-0.000506,-0.0162,-0.0509,0.00947,-0.00203,-0.00403,0.0576,0.0266,0.00851,0.0609,-0.05,0.00505,0.00576,0.0552,-0.0431,-0.0255,-0.0204,-0.0196,-0.00807,-0.000199,0.0436,-0.0604,0.033,0.0302,0.0664,0.0539,-0.0239,0.0588,-0.0135,-0.0267,-0.0224,-0.0063,-0.027,-0.0539,-0.0514,0.036,-0.0471,0.00526,-0.00531,0.0251,0.0594,-0.0454,-0.0544,0.0219,-0.0531,-0.0362,-0.0645,0.0323,0.0411,-0.00805,0.0242,-0.063,-0.029,0.0384,0.0572,-0.00157,0.0354,-0.0512,0.00235,0.0502,-0.0165,-0.0156,-0.0201,0.049,-0.0337,-0.000601,0.0372,0.0265,0.0445,0.0562,-0.0167,0.0401,0.0434,0.00366,0.00247,0.0258,-0.0478,-0.0138,0.0115,-0.0185,-0.00976,-0.00555,0.0295,-0.00952,0.0398,0.0549,-0.00555,-0.0161,-0.0324,-0.0131,-0.0177,-0.00962,-0.0122,-0.0475,0.0311,-0.0555,0.0191,0.0459,-0.0368,-0.0437,0.00125,0.0146,-0.0318,-0.00853,-0.00504,0.024,0.0257,0.0176,-0.00647,-0.0509,0.0311,0.0355,0.0511,-0.0508,-0.0221,0.0329,0.0428,0.0605,0.0417,0.0313,0.017,0.0237,-0.0423,-0.058,-0.00656,-0.00297,-0.0128,-0.0557,-0.0349,-0.0286,0.0265,-0.0607,-0.0352,-0.0174,0.0624,0.0212,-0.038,0.00122,0.00414,0.000654,0.0282,-0.0451,-0.0468,-0.0554,-0.0323,0.0333,-0.037,0.0159,0.0268,0.0014,-0.0533,-0.0118,0.0284,-0.0196,0.0422,0.0213,-0.00459,-0.0248,0.0342,0.0326,0.0268,-0.0162,0.0147,-0.0196,0.035,0.0166,-0.045,0.0186,0.0514,0.0562,-0.0399,0.0315,-0.0367,0.0387,-0.0399,-0.0148,-0.0212,-0.0315,0.06,-0.0524,-0.0122,-0.0731,-0.0162,0.0264,0.0338,0.0506,-0.054,-0.0164,-0.0326,-0.00629,0.0629,0.0457,0.0603,-0.00322,0.0103,0.0162,0.0492,0.0278,0.0194,-0.0245,0.0475,-0.0408,-0.0218,-0.0289,0.0355,-0.05,0.0522,-0.00566,-0.0201,-0.0319,0.00272,-0.0237,0.0152,-0.0718,-0.0263,0.0489,-0.0219,0.019,0.00606,-0.0041,-0.0277,0.0322,0.00314,-0.036,-0.0203,0.0144,0.039,0.0397,-0.0416,0.0587,-0.0533,-0.0329,-0.0487,-0.015,-0.0115,0.0424,0.0255,-0.0187,-0.0357,0.0482,-0.00376,-0.0241,-0.0394,0.045,-0.0179,0.0166,-0.0194,-0.04,-0.0046,0.0118,-0.0166,-0.00404,-0.0197,-0.0018,0.0214,-0.0193,0.0409,-0.0234,0.0381,0.0429,-0.0109,0.041,0.0576,-0.0491,0.0302,0.0526,0.0469,-0.0521,0.023,-0.000514,-0.0107,-0.0317,-0.0608,-0.0178,0.0654,-0.0807,-0.0308,-0.0277,-0.0532,-0.019,0.00449,0.0617,0.0558,0.0579,0.035,0.057,0.0221,0.0496,0.00773,0.0235,0.0391,-0.0382,-0.0176,0.0189,0.0508,-0.0471,0.0118,0.0163,0.00108,0.0398,-0.0466,0.00476,-0.0358,0.0356,0.0449,-0.0128,0.026,-0.0415,0.0143,0.022,-0.0297,0.0244,-0.0134,0.0352,0.00286,0.0419,0.0549,0.0206,-0.033,0.0613,0.00943,0.0314,-0.00169,-0.0457,0.0141,-0.041,0.0387,0.0124,0.0434,-0.0393,0.0302,-0.0369,-0.053,-0.000166,-0.00437,0.0395,0.0373,-0.0242,-0.00862,-0.0141,0.0304,-0.00598,-0.0132,-0.0467,-0.0352,-0.00987,-0.00734,-0.0502,0.0145,0.0525,0.0157,0.0362,0.059,0.00131,-0.066,0.0292,-0.0231,-0.000849,-0.038,-0.0304,0.0405,0.0254,0.0365,-0.0383,-0.00496,-0.0355,-0.067,0.00544,-0.00381,-0.0323,-0.0128,0.0486,0.00329,-0.00186,-0.0346,0.044,-0.000312,-0.0515,0.00702,-0.0444,-0.0131,-0.0447,0.0546,-0.0349,-0.00227,0.0376,-0.032,0.0571,0.0348,0.000725,-0.0498,0.0346,0.00106,-0.00949,-0.013,0.00913,-0.0162,0.0412,-0.0251,0.00654,0.0247,0.0495,0.0422,0.0612,-0.0423,0.0548,-0.0044,-0.0115,-0.0491,0.00579,0.000689,-0.0488,0.022,0.0178,-0.0302,0.00744,0.0034,-0.0319,0.000116,0.0518,-0.0323,0.0538,0.00181,0.0015,0.0379,0.0389,-0.0101,0.0061,0.0557,-0.0023,0.0283,-0.00624,-0.0386,-0.0119,0.0465,0.0361,0.0557,-0.036,0.0126,-0.0489,-0.0337,-0.0231,0.0212,0.0147,-0.0139,-0.0147,-0.0153,-0.0402,0.000196,0.043,0.00205,0.0107,0.0283,-0.0187,0.0179,-0.0315,0.0491,0.0147,-0.0241,0.00246,0.0202,-0.00321,-0.00906,0.0273,0.0473,-0.0329,-0.00505,0.0314,0.0329,-0.0316,0.0162,-0.0459,0.00921,-0.0272,-0.0497,0.0469,-0.0316,0.0609,-0.0509,-0.0205,0.0639,0.0475,0.042,0.0132,-0.0101,0.0169,0.0437,0.0163,-0.0283,0.0582,-0.0434,0.0113,0.000576,-0.026,0.0564,-0.0288,-0.00132,-0.0407,-0.0118,0.0237,0.0079,0.0435,0.0613,-0.0391,0.0567,0.0445,-0.0237,0.0542,-0.0265,0.0498,0.0159,-0.0298,-0.0251,0.00797,0.0524,0.0505,0.0584,0.0268,0.0364,-0.0424,0.0629,0.0274,-0.0223,-0.0437,-0.0373,0.0587,-0.0362,-0.0124,-0.0169,0.0447,-0.0458,0.0185,-0.0336,0.0179,0.051,-0.0439,-0.0251,-0.00471,0.0388,0.0275,0.0141,0.0379,-0.00511,-0.0395,0.0188,0.0351,-0.0393,0.0522,0.06,-0.0562,0.0446,-0.00874,-0.0121,-0.0234,0.0519,-0.0487,0.0297,-0.000847,-0.06,0.0417,0.0249,-0.0123,-0.0496,-0.0259,-0.0371,0.0162,-0.000415,-0.0467,0.0492,-0.000783,0.00616,0.0172,-0.0123,-0.0161,0.0372,-0.0219,-0.0513,0.0367,0.0275,0.0333,0.0445,0.0152,0.0106,-0.0524,-0.012,-0.0325,0.0263,-0.0234,0.0608,0.00256,-0.0226,0.0179,-0.0356,0.0431,-0.0416,-0.00717,-0.0422,-0.0112,0.0547,-0.0257,0.0188,0.0504,0.0606,0.0517,0.0441,-0.00262,0.0381,-0.0137,0.0641,0.0507,0.00586,0.0411,0.0224,-0.0378,-0.0352,-0.00852,0.0587,0.0275,-0.0153,-0.0547,0.0335,0.0577,0.0573,0.025,0.0114,-0.0208,-0.00971,-0.000591,0.0249,0.0165,-0.0493,0.0174,-0.0498,0.0258,0.0522,0.0118,-0.0569,0.0162,0.0377,0.0406,0.0021,0.00371,-0.0216,-0.0101,0.0294,-0.0556,-0.041,0.0248,0.00311,0.00614,0.0255,0.0177,-0.041,-0.00836,0.0527,0.0446,0.0596,-0.0248,0.0207,-0.0648,0.0595,-0.0191,-0.0382,-0.045,-0.0473,0.0448,-0.00327,-0.0538,0.0507,0.0589,-0.0345,-0.0499,0.039,0.00485,0.00883,-0.0298,-0.046,-0.0511,-0.0357,-0.0261,-0.0478,-0.0441,0.0303,0.0117,0.0207,0.0371,-0.0296,-0.0324,0.0317,0.0272,-0.0574,0.014,-0.019,0.0492,-0.0279,0.0538,0.0185,0.0127,0.0464,0.0316,0.0379,0.0149,-0.00372,-0.0298,0.0482,0.0409,-0.053,0.0126,-0.0151,-0.0296,-0.0136,-0.0231,0.0529,0.0156,0.0471,0.0391,-0.0268,-0.0547,0.0395,-0.0331,0.00216,0.0101,-0.00834,0.0175,-0.0547,0.0195,0.0338,0.033,-0.0544,0.0563,0.0416,-0.0138,0.0232,0.0028,0.0375,-0.000617,0.0268,0.0449,-0.0475,-0.0143,0.0309,0.0359,0.0503,0.0484,0.0287,-0.0346,-0.00836,0.0413,0.0557,-0.0194,0.0524,-0.0433,0.0179,-0.0512,0.0535,0.0466,0.0428,0.0315,0.0309,-0.0461,0.0192,0.00672,-0.0203,-0.00418,0.0433,0.0571,0.0532,-0.0199,0.0146,0.0418,-0.0488,0.00957,-0.0259,0.0184,-0.034,-0.0536,-0.0554,0.0528,-0.038,-0.0491,0.013,-0.0469,0.049,0.0183,-0.00381,0.00429,-0.00262,-0.0372,0.0214,-0.0275,-0.0489,0.0125,0.0366,0.0014,0.0172,0.0156,0.021,-0.018,-0.0189,0.0587,0.0278,-0.0184,0.0215,-0.0228,-0.0432,0.0208,-0.0449,0.0301,0.0483,0.0324,0.00764,0.000813,0.0228,-0.0333,0.013,0.00366,-0.0224,-0.0221,-0.000434,-0.0401,-0.0281,0.0507,0.0085,2.39e-06,-0.0134,-0.00222,-0.0231,0.0151,-0.0204,0.0405,0.0288,0.0444,-0.0176,0.00443,-0.0444,0.0337,-0.0523,0.0108,0.0159,0.0377,-0.0398,0.0191,0.0556,0.0209,-0.00457,-0.0373,-0.018,0.0269,0.0471,0.0604,0.042,-0.000487,-0.0271,0.00835,0.0557,-0.0301,-0.0363,-0.0341,0.0531,0.0524,0.00827,0.0159,0.0264,-0.0365,0.00202,-0.0517,0.0496,0.0302,-0.0516,0.000982,0.000152,0.0034,0.0465,-0.0369,0.0458,-0.00517,-0.0431,0.0279,-0.0119,-0.0134,0.00233,-0.0294,0.0276,-0.0485,0.0515,0.0234,-0.00676,0.0196,0.0417,-0.0324,-0.0502,0.0399,-0.0206,-0.0155,0.0528,0.0521,-0.0553,0.000317,-0.00171,-0.00299,0.0372,0.0494,-0.0264,0.023,0.0553,0.0448,0.031,-0.0346,-0.0491,0.0546,-0.0283,0.0539,0.0321,0.0399,-0.00833,-4.83e-05,-0.0592,0.0186,-0.0533,-0.0176,0.0547,-0.0279,-0.0387,-0.0368,-0.0205,0.013,0.0466,0.00429,-0.021,0.0339,-0.0407,0.0439,0.0374,0.0418,0.0607,0.00593,0.0147,0.0435,0.0276,0.00224,0.00567,-0.00392,-0.0358,0.0453,-0.0417,-0.000276,-0.00395,-0.00607,-0.0314,0.028,0.0229,0.0511,-0.00742,-0.017,0.0452,-0.0108,0.0596,-0.0462,-0.0244,-0.0574,0.0446,0.0123,0.0279,-0.00724,-0.0368,-0.0381,-0.0221,-0.0193,-0.0406,-0.0471,0.048,0.025,-0.0431,-0.0294,0.0145,-0.00411,-0.05,0.0564,0.0612,0.0344,-0.0591,0.0065,-0.0246,-0.0556,-0.0459,-0.026,0.0466,-0.0408,0.00896,-0.0444,0.0357,0.0343,-0.000743,0.0235,-0.00307,0.0103,-0.0162,-0.051,-0.0305,0.0368,-0.0382,0.0303,0.0479,-0.0292,0.00968,0.0319,-0.0227,0.0579,-0.0299,0.00108,0.0653,-0.0395,0.0422,0.000248,0.00175,-0.0461,-0.0164,0.00971,0.0169,-0.0195,-0.0514,0.0184,-0.0391,0.0141,-0.00231,0.000222,0.00143,0.0458,0.0487,-0.0394,0.0126,-0.0151,-0.0323,-0.00788,0.0261,0.0179,0.0492,0.0254,0.0062,0.0112,0.00432,-0.0122,0.0217,-0.0531,0.0557,-0.0325,-0.0183,-0.0143,-0.0266,0.0554,0.0185,0.0601,-0.052,0.0422,-0.0554,0.0395,0.0252,-0.0137,-0.00845,0.0182,0.0136,0.0499,-0.052,-0.0496,0.0214,-0.0316,-0.0102,-0.044,-0.048,-0.00183,-0.0508,0.0153,0.0541,-0.0124,0.0257,-0.0333,0.0424,-0.00251,-0.0284,-0.018,0.00357,-0.0039,-0.0392,-0.0467,0.029,0.032,0.0269,-0.017,0.0157,-0.0567,0.0162,-0.0119,0.0553,-0.0421,-0.0174,-0.0116,-0.000542,0.0449,-0.0055,0.0532,0.042,0.00795,0.00523,0.00288,-0.00157,-0.0175,0.0132,0.0172,-0.0335,-0.0159,-0.0155,-0.0273,0.00234,-0.0313,0.0278,0.0369,0.0157,-0.00782,-0.0113,-0.0413,-0.0304,0.015,0.0134,0.0226,0.00475,0.0267,-0.0258,0.0495,-0.05,-0.0265,0.0163,-0.0232,0.00231,0.00899,0.0415,0.0133,0.0166,0.0206,-0.0232,-0.0516,0.00678,-0.0218,0.00504,-0.0566,0.0376,-0.0191,0.018,0.0387,0.0081,-0.00245,-0.00442,0.0136,0.0483,-0.0557,-0.0176,-0.0553,-0.0535,-0.0489,-0.0504,-0.00639,0.0456,-0.0259,-0.00913,-0.0226,0.0405,0.014,-0.0391,-0.0374,0.0118,-0.0199,-0.0269,0.0269,-0.0441,-0.00174,-0.0524,0.00467,0.038,0.00654,0.0014,-0.00282,0.0418,0.0554,0.0536,0.0117,0.00514,0.0409,0.0396,-0.00399,-0.0445,-0.0427,-0.04,-0.0308,-0.0175,0.0482,-0.0559,0.0386,0.024,-0.053,-0.0156,0.0121,0.0223,-0.0522,0.0598,-0.0539,0.0479,-0.00183,-0.0224,-0.0109,-0.00278,-0.0191,-0.0227,0.0346,0.0682,0.00392,0.0497,-0.0108,0.0525,-0.00029,-0.0508,-0.0105,0.00632,-0.0469,-0.0449,0.0343,0.0396,-0.0163,-0.0151,-0.0433,-0.0409,-0.0541,0.0371,-0.0154,-0.0523,-0.0298,-0.0199,-0.0102,-0.0573,0.024,-0.00602,-0.0154,0.0203,-0.0496,-0.0581,0.00803,0.0292,0.0572,-0.0459,0.0344,-0.00281,-0.053,-0.0263,-0.0394,-0.00983,-0.0419,0.00385,-0.0513,0.0465,-0.032,-0.031,0.0173,0.0178,-0.0436,-0.0171,0.0369,0.014,0.0406,-0.047,0.0241,0.0488,0.00502,0.0513,-0.0349,-0.0357,-0.0199,0.0176,0.014,0.00807,-0.0191,0.0292,-0.0385,0.0296,-0.0541,0.0241,-0.0537,0.0155,0.0564,-0.0507,-0.0502,0.0566,-0.0564,0.00364,-0.0367,0.0258,0.0544,-0.0283,0.0198,-0.0424,0.0196,0.0186,0.00697,-0.0148,-0.0372,0.0544,0.0255,-0.0352,0.026,-0.0113,-0.053,0.00371,-0.0355,0.03,0.0379,0.0126,-0.0176,-0.0229,-0.0527,0.0227,0.0611,0.0548,0.0357,0.0274,-0.00088,0.0127,-0.0339,0.0482,-0.0067,0.0328,-0.00371,0.0359,0.00443,-0.0494,-0.0175,-0.0359,-0.0173,-0.0436,0.0147,-0.0609,-0.00958,0.0323,0.0531,-0.0132,0.0343,0.0478,-0.0288,0.0493,0.0132,0.0334,-0.00661,0.0327,-0.0197,0.0454,0.038,0.0312,-0.00956,0.0482,0.0425,-0.0394,0.0413,0.0564,-0.0467,-0.013,-0.0439,0.0278,0.0421,-0.0253,0.0404,-0.0126,-0.0477,0.054,-0.0379,0.000664,-0.0436,0.0705,-0.0525,-0.00674,0.0279,-0.0306,0.026,0.0248,0.0371,-0.015,0.0367,-0.046,0.047,-0.0264,-0.00615,-0.0168,-0.00398,0.0501,0.0294,0.0418,0.014,0.0496,0.0219,0.00137,0.0189,0.00458,-0.0465,0.0105,-0.061,0.0292,-0.000203,-0.0525,0.0612,-0.0124,-0.0338,-0.0638,-0.0282,0.00851,-0.0385,-0.0391,0.0467,-0.0179,0.0107,0.0241,0.0572,-0.0566,0.022,0.0316,-0.0155,0.0145,0.0383,-0.00368,0.0325,0.0457,0.0556,0.00349,-0.0459,0.0135,0.0161,-0.0243,-0.0349,0.0391,-0.0455,0.0351,-0.0236,0.0496,-0.0079,0.0392,0.0172,0.0227,0.0137,-0.0191,0.0556,0.0194,-0.0148,-0.0311,0.0148,-0.046,-0.0489,0.0472,0.0316,-0.0464,0.00572,-0.0324,-0.00706,0.0207,0.0146,0.0388,0.0295,0.056,-0.00107,0.0041,0.0259,-0.0508,-0.0405,0.018,-0.0181,-0.0308,-0.0545,0.00728,-0.0239,-0.0512,-0.0426,0.00696,0.0374,-0.0563,0.05,0.00283,-0.0147,0.00038,0.0347,0.0509,0.0255,-0.0517,0.0451,-0.0161,-0.0429,0.008,0.0386,0.0502,-0.0449,-0.046,-0.0137,0.00573,-0.0343,-0.0128,0.0364,-0.00712,0.0247,0.0158,0.0129,-0.0389,0.00385,0.0498,-0.0148,0.0246,0.0569,0.0183,0.0195,-0.0396,0.0555,0.0133,-0.00297,-0.0194,0.0333,-0.0408,-0.045,-0.0451,-0.043,0.0362,0.0492,-0.026,-0.0738,0.0323,-0.0375,0.0571,0.0258,0.0505,0.0303,-0.0336,-0.00278,1.72e-05,-0.0191,0.0324,0.053,0.0189,-0.00164,-0.0477,-0.0175,0.0594,0.0382,-0.0142,-0.0231,0.0538,0.0183,0.0167,-0.0318,0.00304,0.0206,-0.0134,-0.0447,0.035,-0.0198,-0.0284,-0.0167,0.0448,0.00603,-0.0101,-0.0381,0.0122,-0.00756,0.0494,-0.036,-0.00026,-0.0525,-0.0214,-0.0379,0.0429,-0.0179,0.015,-0.0519,-0.0307,0.0103,-0.0618,-0.02,0.0358,-0.0357,0.0269,-0.0147,0.0583,0.0327,-0.0228,-0.0357,0.0197,0.031,-0.0476,-0.0385,0.0376,-0.0775,-0.054,-0.0438,-0.0154,-0.0247,-0.0256,0.0558,-0.0173,-0.0491,-0.0175,-0.0334,0.0592,-0.0187,-0.0274,-0.0405,-0.00659,0.0316,-0.0602,-0.0408,0.0254,-0.0555,-0.0459,-0.0559,-0.00835,-0.00428,0.00772,0.0249,-0.0129,-0.052,-0.00821,0.0415,0.0252,-0.0681,-0.0101,0.0429,0.0456,0.0478,0.0243,-0.00923,0.0255,-0.0314,0.00387,-0.0207,-0.0512,0.0447,-0.0202,0.0408,-0.0211,0.0207,0.0132,0.0208,0.0169,0.00379,-0.00918,-0.0349,0.0466,-0.033,0.0118,-0.0371,0.0502,0.0232,-0.0542,0.00721,0.0436,0.0311,0.0369,-0.00565,0.00912,0.00221,-0.0253,0.0321,-0.0385,-0.0222,-0.0423,-0.019,-0.0211,0.0214,-0.0553,0.00789,0.0107,0.0103,-0.00118,0.0607,-0.0258,-0.0136,0.00513,0.029,0.0349,-0.0211,-0.0121,-0.0295,-0.00249,0.0423,0.0287,0.0183,0.0285,0.0301,-0.0323,-0.0332,0.0564,-0.0407,0.0226,0.00515,-0.0518,-0.00435,0.0612,0.0212,0.0391,0.0357,-0.00357,0.0329,0.0372,-0.00823,-0.0518,0.04,-0.0522,-0.0173,-0.0024,-0.0188,-0.0435,0.0392,-0.0404,0.0451,0.0494,0.0229,-0.0326,0.0506,0.00124,0.0463,0.0127,-0.00341,0.000616,0.0624,-0.00742,0.00402,-0.048,-0.0399,-0.0456,0.043,0.033,-0.0162,-0.056,0.00534,0.0254,-0.0254,-0.0607,0.0431,0.0608,0.0245,0.0391,0.0564,0.0441,0.0294,0.0235,0.0259,-0.0313,0.00841,-0.0269,0.0514,0.0544,0.0101,-0.0271,-0.0316,-0.0497,0.00918,-0.00236,-0.0554,0.0219,0.0506,-0.0182,-0.0454,0.0193,-0.00752,0.0398,-0.0448,-0.0394,0.0182,0.0174,0.0288,0.00543,0.0406,-0.0251,0.0523,0.02,-0.0371,-0.03,-0.0616,0.0541,0.0604,-0.00404,0.0102,-0.0515,-0.0298,0.0154,0.0185,0.0417,0.0107,-0.0506,0.0208,0.00645,-0.0211,-0.00624,-0.0483,-0.0359,-0.0226,0.0256,-0.034,-0.0123,-0.0347,0.0238,0.02,-0.00132,0.0407,-0.0389,-0.00572,-0.0243,0.0481,-0.00555,0.0315,-0.0362,-0.0169,-0.0188,0.00357,-0.0358,-0.0473,-0.00584,0.0343,-0.0541,0.0522,-0.0196,0.0545,-0.0249,-0.015,-0.0264,-0.0524,-0.026,-0.0564,0.0491,0.0237,0.0504,0.0272,0.0298,-0.0352,0.0384,-0.00994,0.0546,-0.0142,-0.0282,0.0302,-0.0387,-0.0413,-0.0328,-0.013,0.0152,-0.0278,-0.0252,0.0563,-0.0116,0.0396,-0.0374,-0.02,-0.0245,-0.0168,0.0302,0.000688,0.0525,-0.0581,-0.0128,-0.0304,-0.0487,0.058,0.00464,-0.0226,-0.0629,0.0563,0.00106,-0.0131,0.0434,0.00137,-0.0512,-0.0394,-0.0606,-0.0203,-0.0499,-0.0304,-0.0264,-0.023,0.0394,-0.0416,0.026,-0.0467,-0.0497,0.00423,-0.0616,0.0333,0.0039,-0.0468,-0.0627,-0.0232,-0.0458,0.0373,0.0444,0.0526,-0.0363,0.00685,0.00743,0.038,0.0451,-0.0597,0.0494,-0.029,-0.0353,-0.0172,-0.0589,-0.0267,-0.0551,-0.0354,-0.0422,0.0305,0.0107,0.0415,-0.0396,0.0347,0.0501,0.026,0.0556,-0.0508,-0.00196,-0.0378,-0.0533,-0.0524,-0.0154,0.0471,-0.0214,-0.00406,-0.0437,-0.0478,0.0174,0.0213,0.0234,-0.00601,0.0255,-0.0169,0.002,-0.0308,0.00596,-0.0524,0.0239,0.0364,0.0518,0.0418,0.000239,-0.0513,0.0402,0.0447,-0.00594,0.0553,-0.0112,0.0194,0.0505,-0.0221,0.00513,0.00587,-0.0228,-0.021,0.0134,0.0327,-0.00563,-0.0348,0.0059,0.0432,0.0525,0.019,0.0279,-0.0418,-0.0498,0.0486,0.0364,-0.00293,0.0503,0.012,-0.0122,-0.0183,0.0562,0.00435,-0.0502,-0.0349,0.00451,-0.0298,-0.0329,-0.028,0.0352,-0.0425,0.035,0.0545,0.0185,-0.00724,-0.0173,-0.000651,-0.0104,-0.00279,0.0323,0.045,-0.00251,0.0449,-0.0242,0.0417,-0.0131,-0.00359,0.0319,0.0376,0.0541,-0.0329,-0.0425,-0.0551,-0.044,-0.0478,-0.00477,-0.0035,0.0101,0.0304,-0.0406,-0.0296,0.0138,-0.0325,-0.023,-0.0425,0.0515,0.0248,0.0207,0.0429,0.0105,0.00644,0.027,0.0537,-0.0371,-0.058,0.0209,-0.0454,-0.0253,-0.0543,0.00588,0.0383,-0.0327,0.0541,-0.00711,-0.0507,0.0284,0.0591,-0.0143,-0.00261,0.00627,0.0158,-0.0312,0.0658,-0.0294,0.0336,-0.0625,0.0548,-0.0125,0.0438,-0.033,0.00815,0.0452,0.0433,0.0412,0.000374,0.0338,0.00953,-0.0402,-0.0392,-0.00446,-0.0531,-0.0434,-0.0265,0.0442,0.0371,0.0301,-0.0102,-0.0219,-0.0428,-0.0311,-0.0263,0.0155,-0.0512,-0.0291,-0.0236,-0.034,0.0559,-0.043,0.0059,-0.0139,0.0506,0.0589,0.0611,-0.0126,-0.0553,0.04,0.013,-0.033,-0.0431,0.0281,-0.0387,0.00247,0.0564,-0.0352,0.0589,-0.0387,0.0358,-0.00014,-0.0019,-0.00193,-0.00848,-0.000675,-0.0363,-0.0446,0.0136,0.0185,0.0385,0.0612,-0.0508,-0.0313,-0.0482,-0.0377,0.0433,-0.0447,0.045,0.00435,-0.0441,-0.0247,-0.0104,0.0525,-0.0416,-0.0222,-0.0491,0.0515,0.0133,-0.0562,0.0333,-0.000196,0.0427,-0.024,0.00281,-0.0424,0.0311,0.0254,0.0148,-0.0276,0.0233,0.0494,-0.0498,-0.0248,-0.0534,0.0551,-0.0566,0.0153,-0.018,-0.0182,-0.0166,0.0609,0.0492,-0.036,0.019,0.0372,-0.00586,0.0417,-0.0435,-0.0139,0.0609,-0.0412,0.00015,-0.038,-0.0104,0.0237,0.0491,0.0324,0.0207,-0.0146,-0.0161,0.0197,0.031,-0.00581,0.0353,-0.0429,-0.00677,-0.024,-0.0318,0.0564,0.0265,-0.00786,0.0205,-0.0469,0.0551,-0.0181,0.00341,0.0603,0.0604,-0.0464,0.0474,-0.0269,0.0513,-0.0344,-0.0356,0.00809,-0.0224,-0.0369,-0.0113,-0.0481,-0.015,0.031,-0.0032,0.00843,-0.0365,-0.0369,-0.0205,0.0224,-0.00691,-0.0332,-0.0195,0.0556,0.0402,0.0421,-0.0194,0.0498,0.0474,0.043,0.0262,0.0441,0.00431,0.0348,-0.0261,0.00246,-0.00547,-0.0155,-0.0224,-0.0531,0.0226,0.0298,0.0183,0.06,0.012,-0.0579,0.0383,-0.042,0.0197,0.0132,0.0249,0.0302,0.0406,-0.0137,0.0586,0.0261,-0.0479,-0.0571,0.0186,-0.0425,-0.013,0.0447,-0.0405,-0.0122,0.00829,-0.0403,0.0354,0.0457,0.0562,-0.0106,0.00615,-0.0147,0.00127,0.0287,0.0167,0.0456,-0.0316,0.0239,0.0472,0.0062,-0.00233,-0.0144,-0.0316,0.0372,0.0613,0.00547,-0.000253,-0.00103,-0.051,0.00842,0.0133,0.0165,-0.00284,-0.00777,-0.038,-0.0253,-0.00661,0.0134,-0.0281,0.0204,-0.0162,0.0406,-0.0421,0.013,0.0483,0.0115,0.0323,-0.0104,-0.0415,-0.0491,0.062,-0.0303,0.0223,-0.0218,-0.0436,-0.0111,0.0315,0.059,0.0446,0.00583,0.0377,-0.0226,-0.00195,-0.0493,0.00929,-0.0207,-0.0413,0.057,-0.000958,-0.0541,0.0489,0.0585,-0.0101,-0.0111,-0.00638,0.0523,0.0556,-0.0126,-0.00384,-0.0194,-0.00197,0.0189,-0.000175,-0.0339,-0.000429,0.05,-0.0372,-0.0531,0.0233,-0.0158,0.00788,-0.0519,-0.0326,-0.0236,-0.00903,0.0284,-0.0545,-0.0261,-0.0407,-0.0546,0.0137,-8.01e-05,0.025,-0.0136,-0.00611,-0.000603,0.0412,-0.0486,-0.0297,0.0508,0.00879,0.0293,-0.0306,0.0141,0.0446,-0.0631,-0.0396,-0.00694,-0.034,0.02,-0.05,-0.0426,0.0573,0.0313,0.0369,-0.00821,0.0357,-0.00556,0.0513,-0.0318,-0.0405,-0.00168,-0.00881,-0.0123,0.0194,-0.0553,-0.0293,0.0442,0.0413,0.0497,0.0271,-0.0101,-0.00816,-0.043,-0.0208,0.0255,0.05,0.044,-0.03,0.0254,-0.0304,0.0554,-0.0178,-0.0265,0.0277,-0.0311,-0.0473,-0.0575,-0.0217,-0.0507,-0.00725,-0.0468,-0.0422,-0.00345,0.0209,-0.0132,-0.0512,-0.022,0.0145,0.0552,0.0573,-0.0469,0.0174,-0.00412,-0.026,0.0329,0.0314,0.0416,-0.0254,-0.0382,-0.002,0.0486,0.0305,-0.0277,-0.0422,0.00555,-0.0233,-0.0162,0.00731,-0.0291,0.0331,-0.0272,-0.011,-0.0251,0.0157,-0.00747,-0.0343,0.00622,-0.0221,0.0554,0.013,-0.0281,-0.0548,-0.0054,-0.0229,-0.0471,-0.00138,0.0255,-0.0249,-0.0578,-0.0427,0.0404,0.0549,0.0227,0.0432,-0.0442,0.0317,-0.0535,-0.00116,-0.0303,0.038,0.0503,-0.00732,0.0511,-0.0546,-0.0351,-0.0196,-0.0378,0.0487,-0.00199,-0.0479,0.0288,0.0281,-0.047,0.0075,-0.00199,-0.0251,-0.035,0.00813,0.0549,-0.00904,-0.0223,-0.0285,-0.0432,0.0276,0.0499,0.022,-0.0524,0.0165,0.0136,-0.0382,0.0584,0.0425,-0.0555,-0.016,0.0341,0.0187,-0.00303,-0.0375,0.0196,-0.0601,0.0165,0.0179,0.0571,-0.0276,0.0624,0.0147,0.0617,0.00831,0.0554,0.0435,-0.0301,-0.00571,-0.0146,0.0544,-0.0574,0.0139,0.0259,-0.0308,0.028,0.0279,0.00361,0.0494,0.0168,-0.0522,-0.0371,0.0353,0.0263,0.0117,-0.0158,0.05,-0.0238,-0.00449,-0.0603,0.00349,-0.0177,-0.0551,0.0534,0.0602,0.00236,0.0271,-0.0163,0.0103,0.053,-0.013,-0.0608,0.00316,0.033,-0.00119,0.0328,-0.0293,-0.0171,0.0176,0.004,-0.0175,0.0566,0.049,-0.0358,0.0458,0.0437,0.0218,0.0281,-0.00527,-0.0501,-0.0032,0.0442,0.0522,0.00105,0.0196,-0.0126,0.0312,0.0483,-0.0419,0.00968,-0.0244,-0.0384,-0.0477,-0.0546,0.0495,-0.0288,-0.00344,-0.013,0.0156,0.0405,-0.0156,-0.0297,0.0243,0.0159,0.0502,0.0173,-0.0314,0.0525,-0.0234,-0.000429,0.00868,0.0151,0.0522,0.0267,0.0477,-0.0308,-0.024,0.0143,0.0168,0.0243,-0.000341,0.0453,-0.0166,-0.0435,0.0316,0.00363,-0.0318,-0.00577,-0.012,0.00855,-0.051,-0.0304,0.0434,0.0362,-0.0515,-0.0459,0.0393,0.0473,-0.0121,-0.0455,-0.0274,-0.00825,-0.0451,0.0283,0.0235,-0.0134,-0.0522,-0.0151,0.0205,-0.035,0.0364,0.0169,0.0546,0.00218,0.0615,-0.0114,0.0629,0.0095,0.0241,-0.0165,-0.029,-0.0572,0.0629,-0.0226,0.0553,0.0325,0.00913,-0.0219,-0.0235,0.051,-0.0466,0.0385,0.0276,-0.00339,0.0427,-0.0537,0.0461,-0.048,0.0196,0.0204,0.0104,0.00908,-0.04,-0.0467,-0.0274,0.0369,-0.0404,0.00818,0.0441,0.046,-0.0202,0.0227,-0.00835,0.0315,-0.00748,0.0138,0.0108,-0.029,0.0162,0.0445,-0.0313,0.0186,-0.0351,0.00619,-0.0392,0.0151,0.02,-0.0488,-0.0325,-0.0286,-0.0367,0.0489,-0.0394,0.0577,-0.0292,0.0512,-0.0349,-0.0342,-0.0424,0.000119,-0.00916,-0.0457,0.0265,-0.00277,0.0577,0.0382,0.0315,-0.0187,0.00344,0.0229,-0.00923,0.0221,-0.0286,0.0565,-0.00216,-0.0198,-0.00505,0.0469,0.00444,0.0121,-0.00885,0.0169,-0.0301,0.0536,0.0317,0.0545,-0.0298,0.0457,-0.055,-0.0284,-0.0438,-0.00854,-0.0365,0.000594,0.0472,-0.008,-0.00519,0.0564,-0.0491,-0.0134,-0.0256,-0.025,-0.00685,0.0242,0.054,0.0442,0.0479,-0.0544,0.00512,0.0264,-0.0364,-0.0488,-0.0162,0.0337,0.0217,0.0513,0.0467,-0.0533,0.0334,0.0522,-0.0326,-0.0207,0.0157,-0.00708,-0.0107,-0.0219,-0.0253,0.0451,0.041,0.00699,0.00725,0.0485,-0.0536,-0.0259,-0.0346,0.0325,0.0299,-0.0466,-0.0566,0.00285,-0.0246,0.0334,0.00328,-0.0334,-0.0286,0.00668,0.0296,0.0319,-0.0176,0.0539,-0.0565,0.0361,-0.0126,-0.0575,-0.0431,0.0233,-0.0118,0.0285,0.054,-0.00302,0.049,-0.000968,-0.0438,0.00587,0.0429,0.0185,-0.0274,0.00174,-0.0179,-0.0326,-0.0129,0.0171,0.0313,-0.0034,-0.00914,0.0508,0.0218,0.0325,0.0299,-0.0327,0.0032,0.0351,0.0263,0.042,0.0158,-0.0203,0.0292,-0.0545,0.0505,-0.0443,-0.0276,-0.0296,0.00823,0.0604,0.0249,0.0151,-0.0458,0.0403,-0.0265,0.0144,0.0132,-0.0144,-0.0479,0.00353,-0.0552,-0.0131,0.0504,-0.0312,-0.0467,0.0441,-0.0527,0.0159,0.0367,-0.0168,0.0199,-0.0539,0.0567,0.051,0.0384,0.0218,0.0177,-0.046,0.0427,0.0521,-0.00191,-0.0135,-0.0105,-0.0436,-0.0152,-0.0416,0.0269,0.0289,-0.0211,0.0584,0.012,0.0345,-0.0355,0.0154,0.0163,0.0345,-0.0484,-0.0222,-0.0286,0.045,0.0575,0.0517,0.0454,-0.00363,0.0525,-0.0123,-0.0257,0.0368,-0.0166,-0.0538,-0.0462,0.056,-0.0384,0.0289,-0.0364,0.0463,-0.00853,0.00441,-0.00308,-0.0235,0.0463,-0.0201,0.0133,-0.0182,0.0234,0.0079,-0.0348,-0.017,-0.0275,-0.0202,-0.0101,0.0201,-0.0214,0.0477,0.0128,-0.0245,0.0586,-0.0167,-0.0281,0.0471,0.00823,0.022,-0.00428,-0.00769,0.0472,-0.0452,-0.00201,0.0473,0.0277,0.00263,0.00764,0.0106,-0.0534,-0.0252,0.0508,-0.0278,-0.0447,0.0458,-0.00515,-0.00873,0.0217,0.0387,-0.0449,-0.0124,0.0418,-0.0332,0.0503,-0.00216,0.0151,0.00863,-0.028,-0.0465,0.0454,-0.00783,-0.0172,-0.00843,0.0126,0.0227,-0.0365,-0.029,0.04,-0.0202,-0.000535,0.0539,-0.0337,0.0577,0.0442,-0.0578,-0.0143,-0.048,-0.0397,-0.0479,0.044,-0.0398,0.00689,0.0171,-0.00447,0.0265,0.0234,0.0263,0.0254,-0.0194,-0.0319,-0.0245,0.0435,0.0576,-0.0276,-0.0039,-0.0391,-0.0191,-0.0498,0.00152,0.00326,0.0484,-0.039,-0.0573,-0.00925,0.0285,-0.0304,0.0168,-0.00207,-0.0566,-0.0128,-0.0605,-0.0162,0.0326,0.0194,-0.0466,-0.0584,0.0209,-0.0381,0.0267,-0.0564,-0.00393,0.0178,-0.0623,-0.0407,0.0177,-0.0112,-0.0377,-0.0164,0.0399,0.0405,-0.0479,0.0071,-0.00642,-0.0593,0.0538,-0.0591,-0.0317,-0.0486,-0.0593,0.0273,0.0281,0.0297,0.041,-0.00495,-0.00846,0.0209,0.0442,0.0457,0.00959,0.0329,0.0421,-0.0346,0.0162,0.0217,0.0523,0.0318,0.0538,-0.0074,-0.019,0.0377,-0.045,0.0329,-0.0548,0.0408,-0.0259,-0.000799,-0.0206,-0.0212,-0.0191,-0.00914,-0.000456,-0.0582,-0.00702,0.0528,0.0391,-0.0184,-0.0586,0.0497,-0.00192,-0.0484,0.0224,0.0246,0.000776,0.0209,0.0283,-0.0367,-0.0279,-0.00454,0.0486,-0.041,0.0181,-0.0177,-0.0378,-0.000649,-0.0375,0.0285,-0.0524,0.028,0.05,0.0243,-0.049,-0.0565,-0.0329,0.0488,-0.0517,0.0528,0.0501,-0.0499,-0.033,0.0215,0.0535,0.0532,-0.0204,-0.0523,-0.0248,-0.0219,-0.0142,0.0105,0.0186,0.0672,-0.0321,-0.00069,-0.0581,-0.000427,0.0514,-0.0132,-0.0332,-0.019,-0.0519,0.0546,-0.0533,-0.0444,0.0321,-0.0352,-0.0251,-0.0462,0.0519,-0.0306,-0.0162,0.041,-0.0113,-0.0277,0.0466,0.0519,-0.0533,0.0284,0.0213,0.0359,0.048,0.0376,-0.00709,0.0417,-0.0486,-0.000521,0.0537,-0.0359,0.0141,0.05,-0.0592,-0.0316,-0.0316,-0.0469,0.00919,-0.0203,-0.013,0.0432,-0.00215,0.0116,-0.0355,-0.0218,0.0416,0.0567,-0.0191,-0.0433,-0.0219,-0.0202,0.00865,0.0567,-0.0186,-0.0435,0.0187,-0.0341,-0.00194,0.0329,-0.0502,0.0523,-0.0352,0.0144,0.0257,0.0367,0.0599,-0.043,-0.06,0.0384,-0.0582,-0.0517,-0.0115,-0.0356,0.00463,0.0356,-0.00203,0.00341,-0.0585,0.0182,-0.0212,-0.0419,-0.0361,0.0111,0.0565,-0.0565,0.046,0.0281,-0.0078,-0.0253,-0.0156,-0.0139,-0.0555,0.0206,-0.0129,-0.026,0.0279,0.0357,-0.0467,-0.0553,0.0354,-0.0227,0.0625,-0.0322,-0.00923,0.00978,-0.0285,0.00669,0.031,-0.0364,-0.0307,-0.0122,-0.0505,-0.0475,0.0197,0.00128,0.00499,0.0518,-0.0157,-0.00166,-0.044,-0.018,-0.0198,-0.04,0.0272,0.0258,-0.0273,0.00143,0.0489,-0.0506,-0.0391,-0.00425,0.0341,-0.00395,-0.0403,-0.0202,-0.0301,0.00838,-0.0439,-0.00207,0.0608,-0.0276,-0.0256,-0.0284,0.0262,0.019,0.0584,0.00651,-0.042,0.0148,-0.0306,0.00692,0.0163,0.00445,-0.025,0.013,0.0263,0.0476,0.0621,-0.0263,-0.0388,-0.0206,-0.0369,0.0396,0.000951,-0.00793,0.0222,-0.00215,-0.05,0.0423,0.047,0.0251,0.0244,-0.0396,-0.0266,0.0411,0.0516,-0.053,0.0481,0.0472,-0.014,-0.0524,0.0513,0.0103,0.0554,0.0165,0.0178,-0.0357,-0.0525,0.0192,-0.0356,0.00328,0.0512,-0.0609,-0.0231,-0.0108,-0.0297,0.03,-0.00944,0.0307,-0.0115,0.0488,-0.00355,-0.0291,0.0559,0.0446,-0.00481,-0.0078,0.0141,-0.0473,-0.0284,-0.0335,-0.0203,-0.0193,0.051,0.0413,0.0237,0.0155,-0.0447,-0.0584,0.0546,-0.0205,-0.0201,-0.00647,0.0278,-0.0475,0.0326,-0.00081,0.0275,0.00972,0.0118,0.0186,-0.00326,-0.0471,0.0339,0.0314,0.056,0.0615,0.0354,-0.00555,0.0501,-0.0107,-0.0282,0.00735,-0.00364,-0.0421,-0.0602,-0.0396,-0.00931,0.000952,0.0103,0.0312,0.0328,0.0572,-0.00314,0.0222,-0.0374,-0.0555,-0.0436,-0.006,-0.00329,-0.0456,0.000672,-0.0443,-0.0054,0.0227,-0.051,0.0302,-0.026,0.0473,-0.0314,0.00276,0.0474,0.0253,0.0199,0.0209,0.037,-0.00579,-0.0475,-0.0533,0.0475,-0.0688,0.0276,-0.0168,0.0379,0.0413,-0.0326,0.0357,-0.0365,0.0417,0.0232,-0.0367,-0.0148,-0.0536,-0.0472,-0.052,-0.0248,0.00459,-0.0205,0.0141,-0.046,-0.0256,0.0148,0.0238,-0.0204,-0.0349,-0.0162,0.0216,0.052,0.0423,0.0434,-0.0226,0.0539,-0.0573,-0.0472,-0.0442,-0.0217,0.0256,-0.0156,0.0576,-0.0136,-0.0432,0.0122,-0.0282,-0.0349,-0.0232,0.00453,0.00489,0.0148,-0.0244,-0.0362,0.0138,0.0307,0.0262,-0.0162,0.00826,0.0197,-0.00816,0.0484,-0.0198,0.0231,0.02,0.0487,-0.0318,-0.0283,0.0383,0.0531,0.0287,0.0219,-0.0273,-0.00803,-0.0427,0.0443,-0.049,0.0363,0.0289,-0.0479,-0.0407,0.0176,-0.045,0.0499,0.0259,0.00448,-0.0469,-0.0398,0.0222,-0.00336,0.0378,-0.0155,0.0553,-0.0434,0.0234,0.0218,0.0534,-0.014,-0.0242,-0.0129,0.0192,0.0589,0.0397,-0.0177,0.0529,0.0487,0.0511,-0.0305,-0.00249,0.0109,-0.0249,0.0478,0.00823,0.0524,-0.0385,-0.0521,0.0238,0.0397,0.0209,0.00409,0.0454,0.0394,-0.0389,-0.0227,-0.00245,-0.0302,-0.026,0.031,-0.00896,-0.0539,-0.0388,-0.0546,0.0259,0.0131,0.0542,-0.0129,-0.0246,-0.045,-0.0128,0.00029,-0.0407,-0.0565,0.0488,-0.0348,-0.0408,0.0384,-0.0183 };
	//for (int i = 0; i < (32 * 32 * 3 * 3); i++) {
	//	cout << f9_0_weight[i] << endl;
	//}
}