// Auto generate data file
// Copyright (c) 2021-202, XueLiang Zhong, all rights reserved.
#include "superResolution.h" 

float f0_weight[32* 32 * 1 * 1] = {-0.155,-0.0432,-0.0858,-0.0827,-0.0629,-0.0117,-0.147,-0.189,-0.0212,0.134,0.0569,0.137,-0.114,0.0879,-0.0171,0.0647,0.0212,-0.0315,-0.193,-0.188,0.0833,-0.151,0.172,-0.1,-0.168,0.0346,0.122,0,0,0,0,0,-0.0356,0.0792,0.00996,0.0536,-0.192,-0.158,-0.149,-0.192,-0.144,-0.0789,0.143,-0.181,-0.187,-0.169,-0.106,-0.00683,-0.174,-0.101,-0.172,-0.164,-0.183,0.119,0.0171,-0.0689,0.173,-0.103,-0.0502,0,0,0,0,0,-0.123,-0.019,0.0451,-0.0871,-0.0321,-0.0379,0.0156,0.0645,-0.169,-0.0762,-0.117,0.0812,-0.0322,0.0984,0.18,0.0985,0.0284,0.136,0.00891,-0.0754,0.164,0.163,0.123,0.0888,0.0392,-0.0463,-0.102,0,0,0,0,0,0.154,-0.0468,-0.118,0.0886,0.0313,0.194,-0.0105,0.00349,0.156,0.0082,0.171,0.122,-0.169,0.161,-0.0717,0.125,-0.132,-0.0031,-0.162,-0.187,-0.0163,-0.186,2.82e-05,-0.0894,-0.09,-0.113,0.0312,0,0,0,0,0,-0.0206,-0.143,0.0216,0.108,-0.00188,0.177,0.186,-0.0868,0.0338,-0.119,-0.0829,-0.186,0.19,0.143,0.0273,-0.181,0.0271,0.16,0.163,-0.0645,-0.0387,0.134,-0.128,-0.13,-0.135,0.0962,0.138,0,0,0,0,0,0.125,0.0605,0.162,-0.0902,-0.134,0.0367,-0.0296,0.0233,-0.0947,0.0136,0.0282,-0.112,-0.179,0.0165,-0.0487,0.0768,-0.0877,0.0229,0.179,-0.0133,-0.125,0.161,0.15,0.0991,-0.137,0.0582,-0.18,0,0,0,0,0,-0.119,0.116,-0.17,-0.118,0.0856,0.0662,-0.0291,-0.0438,-0.135,-0.0821,0.158,-0.137,0.0139,0.0567,-0.0422,0.144,-0.0616,0.125,-0.0813,0.173,0.127,-0.101,0.186,0.073,-0.015,-0.154,0.103,0,0,0,0,0,0.1,-0.1,0.184,0.166,0.191,-0.145,0.164,-0.163,-0.016,0.108,-0.0386,0.157,0.149,0.155,-0.142,0.0558,-0.16,0.1,-0.168,0.05,0.0842,-0.131,0.102,-0.179,-0.0857,-0.0571,0.0984,0,0,0,0,0,0.00365,0.12,0.00744,0.0543,0.036,-0.18,0.117,0.019,0.0697,-0.0637,-0.0101,0.0986,0.0762,0.145,-0.184,-0.073,-0.0291,0.153,0.0218,-0.0263,-0.188,0.0285,-0.0207,0.0893,-0.179,0.0913,0.103,0,0,0,0,0,-0.0443,-0.0119,-0.00185,0.0015,-0.189,0.128,-0.121,0.000625,0.124,0.0648,-0.0495,0.0801,-0.102,0.0917,0.184,-0.0301,0.0997,0.109,-0.163,0.119,-0.0257,-0.0106,0.182,0.0899,0.169,-0.174,0.112,0,0,0,0,0,-0.153,0.0565,0.0601,0.129,0.129,0.0879,-0.0407,-0.178,0.117,-0.0593,-0.116,0.03,0.153,0.0746,-0.166,0.00898,-0.103,0.0272,0.179,0.0253,-0.0243,0.179,-0.109,-0.0162,-0.109,0.0791,-0.147,0,0,0,0,0,0.143,0.0844,0.0139,-0.171,-0.0254,0.0522,0.176,0.0154,-0.0348,0.154,0.0843,-0.0371,-0.0893,-0.034,-0.0655,0.0215,0.153,0.176,-0.173,0.157,-0.0425,0.109,-0.0625,-0.052,-0.0291,0.123,0.069,0,0,0,0,0,0.0511,-0.0408,-0.0616,-0.175,0.171,0.0255,0.126,0.0925,-0.142,-0.0969,-0.0647,-0.123,0.102,-0.111,-0.0462,-0.00895,-0.105,-0.135,-0.0582,-0.0817,0.0389,0.0226,0.187,0.0531,-0.177,0.197,0.127,0,0,0,0,0,-0.0294,0.148,-0.0672,0.0405,-0.0951,-0.0289,-0.0694,-0.115,-0.0733,-0.121,-0.074,-0.149,-0.151,0.0296,-0.189,-0.0774,-0.0718,0.164,-0.132,-0.118,0.0569,-0.0664,-0.0889,0.0457,0.134,-0.0363,-0.169,0,0,0,0,0,-0.0344,-0.186,-0.18,-0.171,-0.0304,0.0198,-0.0578,-0.148,-0.0518,-0.143,-0.0635,-0.0155,0.14,-0.185,0.138,0.133,0.0642,-0.0631,0.172,-0.131,-0.0544,-0.0971,0.181,0.0871,-0.0916,0.00567,-0.169,0,0,0,0,0,-0.0454,-0.0405,0.0265,-0.0261,-0.166,0.0657,0.152,0.0627,-0.0314,0.0901,0.0925,0.175,-0.0293,0.148,-0.00453,0.0791,0.181,-0.148,0.135,0.0256,0.0586,-0.137,-0.0962,0.147,0.0273,0.0188,0.166,0,0,0,0,0,-0.171,0.161,0.0289,-0.0635,0.0407,-0.177,-0.0413,-0.14,0.0692,-0.182,0.0171,-0.189,0.171,0.0393,-0.0559,0.013,0.0703,0.032,-0.133,0.177,-0.125,0.0472,-0.134,0.0405,-0.124,0.092,-0.163,0,0,0,0,0,0.157,0.0346,0.0209,-0.192,-0.0953,-0.0201,0.172,-0.0263,-0.0338,0.0422,-0.0543,-0.113,-0.0844,0.179,0.0248,-0.155,0.0627,0.07,0.0441,0.0593,0.184,-0.18,-0.11,-0.0107,-0.00456,0.173,0.0567,0,0,0,0,0,0.182,0.187,0.0274,0.0621,-0.00284,0.138,-0.0258,-0.114,0.0125,-0.165,0.0479,-0.0623,0.0705,-0.079,-0.0991,-0.129,0.00139,-0.14,0.0883,0.185,0.158,0.001,0.165,0.154,-0.0625,-0.0212,0.0893,0,0,0,0,0,0.123,-0.116,-0.0442,-0.177,-0.188,-0.189,-0.0514,-0.0528,0.109,-0.0424,-0.00134,0.0633,-0.0818,-0.13,0.11,-0.173,0.135,0.177,-0.113,0.0365,-0.0152,-0.113,0.171,-0.167,-0.0476,-0.0921,-0.00486,0,0,0,0,0,-0.181,0.0981,0.0806,-0.0708,0.0721,-0.136,-0.117,-0.0571,-0.0116,-0.0858,0.0101,-0.0421,-0.185,-0.0651,0.0186,0.0638,0.202,-0.164,0.177,-0.114,-0.166,-0.121,0.126,-0.143,0.0627,0.17,-0.0466,0,0,0,0,0,0.113,-0.0677,0.106,-0.179,0.17,0.00813,0.0694,0.126,-0.0296,0.0456,0.15,-0.099,-0.00459,0.164,0.00953,-0.169,0.18,-0.102,0.129,-0.0705,0.0669,0.149,0.18,0.00594,-0.154,-0.174,0.175,0,0,0,0,0,-0.137,-0.174,-0.0883,0.0377,-0.0495,-0.0831,0.17,0.163,0.102,-0.087,0.135,-0.147,0.126,0.0615,0.152,0.15,-0.0611,-0.154,-0.101,-0.194,-0.0556,0.0794,-0.0623,-0.0359,0.07,0.0845,0.0317,0,0,0,0,0,0.113,-0.00547,-0.176,-0.17,0.0766,0.0928,-0.157,-0.00983,0.183,0.0405,0.135,0.0644,-0.166,-0.0594,0.0382,0.00211,0.101,-0.15,-0.0566,0.164,-0.0961,0.156,0.15,-0.0473,-0.083,0.145,-0.171,0,0,0,0,0,-0.0997,0.0827,-0.0103,0.0282,-0.0925,-0.179,-0.18,0.123,0.153,0.178,0.112,0.136,0.0579,0.0328,0.0858,0.0908,0.0968,-0.0209,0.157,-0.102,-0.187,0.19,0.0476,0.129,0.181,0.17,-0.0314,0,0,0,0,0,-0.166,-0.138,0.0721,0.0916,-0.0539,-0.0548,0.00774,-0.176,-0.167,-0.137,0.073,-0.126,0.135,0.0544,-0.0955,0.0694,-0.0887,-0.0563,-0.16,-0.0295,0.184,-0.0765,-0.0383,-0.0161,-0.0272,-0.136,0.123,0,0,0,0,0,-0.167,-0.177,-0.18,-0.164,-0.153,0.0805,0.175,-0.161,0.0482,-0.0274,0.0712,-0.161,0.133,-0.0304,0.0765,-0.163,0.107,0.123,-0.131,-0.12,0.108,-0.114,-0.159,-0.169,0.0366,0.00925,0.0375,0,0,0,0,0,0.156,0.017,0.0273,-0.144,0.173,-0.139,-0.00565,0.173,-0.0966,-0.0272,-0.0669,-0.188,0.0531,-0.0128,0.15,0.161,-0.143,0.155,-0.186,0.042,0.177,-0.0113,-0.0849,-0.0782,0.147,0.181,0.165,0,0,0,0,0,-0.127,0.0878,0.043,0.18,0.148,0.169,0.0568,0.155,0.0444,0.141,0.0396,-0.02,0.0714,-0.161,-0.168,-0.149,-0.0277,0.0665,0.0753,-0.00249,-0.124,0.00888,0.0734,0.114,-0.174,-0.13,0.129,0,0,0,0,0,-0.0477,-0.0123,0.152,0.00914,0.169,0.0261,-0.0699,0.131,-0.093,-0.116,0.00823,0.0634,0.0492,-0.175,0.0774,0.11,0.121,0.0816,0.0184,-0.152,0.122,0.175,0.167,-0.0486,0.0749,0.106,0.0578,0,0,0,0,0,-0.184,0.0552,0.00121,-0.0188,-0.153,0.19,-0.17,-0.0632,0.0756,-0.147,0.143,0.181,-0.0943,0.0707,0.0244,0.058,0.116,-0.0226,-0.167,0.129,0.188,0.0861,-0.106,0.0914,0.097,-0.0127,-0.0895,0,0,0,0,0,-0.122,0.0327,-0.184,0.0383,0.0608,0.00837,0.0781,-0.0454,0.124,0.174,0.142,0.117,-0.113,-0.0419,0.132,-0.0177,-0.0529,0.105,-0.134,0.0162,0.00844,-0.109,0.0419,-0.0507,0.168,-0.155,-0.0662,0,0,0,0,0};
float f0_bias[32] = {0.0439,-0.0547,0.0326,0.0365,-0.136,-0.138,0.0839,-0.152,0.0516,-0.0055,0.0111,0.131,-0.0862,0.0743,-0.0125,-0.0779,0.165,-0.159,0.158,-0.156,0.0535,0.0279,0.082,0.0875,-0.0679,0.0332,0.142,0.0415,-0.104,-0.0865,0.0519,0.17};


float f1_0_weight[32*32*3*3] = {0.00893,0.0356,-0.0238,0.0102,0.00796,0.00475,-0.000287,-0.0453,-0.0231,0.0285,-0.039,0.0503,0.0117,-0.0167,0.00317,0.0281,0.0209,-0.0156,0.000498,-0.0447,-0.0048,-0.0395,0.0107,0.0399,0.0296,0.0535,0.0119,0.0448,-0.0146,0.0346,0.00123,-0.0493,0.0251,0.0449,-0.0508,0.0421,-0.0211,-0.0506,0.0373,0.0172,-0.0205,-0.0427,-0.00183,0.0265,-0.0223,-0.0268,-0.0274,0.0333,0.0175,-0.0245,0.0134,-0.0242,-0.0368,-0.0199,-0.00199,-0.0302,0.0351,-0.00714,-0.01,-0.0389,0.0199,-0.0343,-0.00292,-0.0268,0.0223,-0.0458,0.0249,0.0446,0.0354,0.024,-0.044,0.0187,0.0108,0.0228,-0.047,-0.00956,-0.00282,-0.0266,0.0408,-0.00903,-0.0251,-0.0468,0.0107,-0.0519,-0.0232,0.0331,-0.0428,0.0181,0.0442,0.0413,-0.021,0.0348,0.0247,-0.0299,0.0501,0.0472,-0.0146,-0.039,-0.0486,-0.0291,-0.0206,0.0488,-0.0167,-0.0561,-0.0515,0.0317,-0.0421,-0.0418,0.00741,0.0143,-0.0485,0.0546,0.00371,-0.0291,-0.0013,0.0367,-0.037,-0.0236,-0.0142,-0.0254,-0.0141,-0.0566,-0.0349,0.0366,-0.0355,0.00902,0.0345,-0.00608,-0.0397,0.0164,-0.0443,0.0115,-0.0418,-0.00675,0.0535,0.0497,0.00791,0.0375,0.0155,-0.0532,0.0224,0.011,-0.0453,-0.0564,-0.0204,-0.0442,0.0416,-0.0141,-0.0497,-0.0317,-0.028,-0.0112,0.0405,0.028,0.023,-0.0451,-0.0157,0.0552,-0.0136,-0.0027,-0.0443,0.0209,-0.00504,-0.0388,-0.012,0.0395,0.0525,-0.0479,0.0561,-0.0304,0.00865,0.0339,-0.00058,-0.0285,-0.00718,0.00543,-0.0321,-0.0422,-0.0274,-0.0427,-0.00648,-0.0271,0.00287,-0.0543,0.0586,-0.0139,0.0362,-0.0461,0.000723,0.0288,0.0544,0.061,-0.0237,0.0479,0.0272,-0.0424,0.0182,0.00766,-0.0476,0.0446,-0.0275,-0.0501,-0.0271,0.0227,0.0399,-0.0381,-0.0238,0.0121,-0.0104,-0.0302,-0.0102,0.0478,0.0458,-0.0119,0.0583,0.0444,0.0192,0.0453,0.0371,-0.00454,0.0481,0.0259,-0.0313,-0.0442,0.0222,-0.0238,0.0157,0.0442,0.0472,0.00229,0.0307,-0.0556,-0.02,0.0361,0.0448,-0.0274,-0.022,-0.0515,0.0117,0.0406,-0.0105,-0.0374,0.0146,-0.0418,0.0564,-0.048,-0.0501,-0.0321,0.0282,0.0352,0.0329,0.0305,0.0439,0.0375,0.0565,0.0416,0.0183,0.038,0.0071,0.0025,0.0247,-0.00211,-0.057,0.00616,0.0202,-0.0074,0.033,0.0496,0.0204,0.0193,-0.0317,-0.0216,0.0478,-0.0243,-0.00753,0.0214,0.0186,0.00519,-0.00302,0.034,0.00589,0.0538,0.0202,0.019,-0.0133,0.00129,0.016,-0.0362,-0.0231,0.0312,0.00808,-0.0529,-0.0213,-0.00426,-0.00243,0.00524,-0.0425,-0.0111,0.00769,-0.00758,-0.0334,0.0505,-0.0213,-0.00636,0.0356,-0.0305,-0.00625,-0.0535,-0.00261,0.0469,-0.00924,-0.0314,-0.0528,0.0426,0.0097,-0.05,-0.0474,-0.0159,-0.0425,0.00453,-0.000368,0.038,0.00087,0.0462,0.0353,-0.0199,0.0699,-0.0199,-0.0171,-0.0101,0.0207,0.0637,0.0126,0.02,-0.0611,-0.0226,0.0451,0.0171,0.0237,-0.0214,0.00514,0.015,-0.00165,0.0511,0.0507,0.0261,0.0161,0.00498,-0.00799,0.0487,-0.0343,0.0128,-0.0585,-0.0561,0.00549,-0.000169,-0.0651,-0.0398,-0.00434,-0.0398,0.00829,0.0336,0.00928,0.0162,-0.00672,-0.0217,0.017,-0.0139,-0.0227,-0.0316,-0.0189,-0.0601,-0.0499,-0.0049,0.0406,0.0606,-0.0474,0.0342,-0.0664,0.0327,0.0491,0.0112,-0.0326,-0.0167,0.00921,-0.0294,-0.0384,-0.0218,-0.000776,-0.0251,0.00701,0.04,0.0142,-0.0322,-0.045,0.0526,-0.000461,-0.0338,0.0299,0.0681,-0.0476,0.0364,-0.0284,0.0216,0.00113,-0.0493,-0.023,-0.00185,0.0262,-0.0274,-0.0441,0.0393,0.0617,-0.0362,-0.0175,-0.0331,-0.0531,-0.0325,-0.048,0.0407,-0.0113,-0.0238,0.0138,-0.0494,0.0306,0.0596,-0.000736,-0.0243,-0.0411,-0.0426,0.0376,0.0561,-0.0446,0.0449,-0.0375,0.00446,0.024,-0.0139,-0.0474,0.00367,-0.0166,-0.0614,0.0125,0.0558,-0.0283,-0.0122,0.0131,0.00132,-0.00427,-0.0644,-0.0235,0.00582,0.00481,-0.00951,-0.0136,0.0552,0.0542,0.0156,0.0314,0.0707,-0.00724,-0.0256,0.00358,0.0154,-0.0465,0.0442,-0.0391,0.0108,-0.03,0.0445,0.0477,0.0246,0.0604,-0.0642,-0.0624,-0.0225,-0.0178,0.0436,0.0361,-0.0212,-0.0266,0.0353,-0.00682,0.0217,0.0119,0.0443,-0.0137,-0.0225,0.0222,0.0366,0.0357,0.0288,0.0311,0.0435,-0.0546,-0.0223,-0.0297,0.0313,0.0518,-0.0543,-0.0231,-0.0314,-0.00569,0.0531,0.052,-0.00461,-0.0249,0.0276,0.0127,-0.0102,0.0611,0.0473,-0.055,-0.0033,0.0195,0.0366,0.0396,0.0397,0.0523,-0.00938,-0.0069,-0.0419,-0.0393,-0.0433,-0.0361,0.0127,0.0202,0.00279,-0.0118,-0.0301,0.0366,-0.0582,0.00239,-0.0243,-0.0221,0.029,0.0141,-0.000635,-0.0377,0.0501,-0.00318,0.0381,-0.0018,0.0643,-0.00191,-0.0112,-0.0271,-0.0296,-0.0387,-0.0488,0.0319,-0.00953,0.00385,0.0556,0.000498,0.0556,0.0425,0.0107,-0.00697,-0.0229,0.0502,-0.0354,-0.0251,-0.00483,0.0236,0.0639,-0.0389,0.000706,0.0379,-0.0268,0.0377,0.0311,-0.029,-0.0498,-0.0539,-0.0424,0.0129,-0.0155,-0.0554,0.00674,-0.0555,-0.0531,0.0409,-0.0393,0.0642,-0.00549,0.0204,-0.028,-0.0351,-0.00662,0.0463,0.008,-0.0273,0.027,-0.00526,0.0541,-0.0629,0.0617,-0.000891,0.0336,0.0144,-0.0352,-0.0241,0.035,0.0457,0.0353,-0.0321,0.0234,-0.0307,0.0337,0.00336,-0.0437,0.0174,0.00612,-0.0129,-0.0426,-0.0118,0.0591,-0.031,0.0179,0.00105,-0.00499,0.0297,0.0305,-0.0571,-0.0165,0.0458,0.0385,0.00886,0.0156,-0.00733,0.00432,-0.00489,-0.024,-0.0493,-0.0518,-0.00929,-0.00539,-0.044,0.0174,0.055,0.00751,-0.0532,-0.0222,-0.0146,-0.0291,-0.0324,-0.0199,-0.0119,-0.031,0.0188,0.0266,0.0071,-0.0365,-0.0387,0.00762,0.012,0.0615,0.0563,0.056,-0.0022,-0.0463,-0.0104,0.0638,-0.0171,-0.0546,-0.0301,0.052,-0.0283,-0.0246,0.0598,0.03,-0.0513,0.0544,-0.0286,-0.0166,0.0565,-0.0365,0.00479,0.024,0.0068,0.0236,0.0132,0.0444,-0.0184,0.0499,-0.00722,-0.0397,-0.0428,-0.00876,-0.0204,0.00851,-0.0544,0.0138,0.0419,0.0448,0.0252,-0.0141,-0.0363,0.00766,-0.000106,-0.0126,-0.0538,0.0301,0.0158,0.0515,-0.0388,-0.0492,-0.0623,-0.0505,0.0111,-0.0204,0.0037,0.0351,-0.0532,-0.0223,-0.0366,0.00467,0.0279,-0.0544,-0.0513,0.0055,-0.0527,0.0508,-0.0359,0.0602,-0.00767,-0.0147,0.0483,0.039,-0.0324,0.0306,-0.0184,-0.0263,0.0054,0.0326,-0.056,-0.0253,-0.000668,-0.0513,-0.0548,0.0178,0.0255,-0.0359,-0.0206,0.0461,-0.0179,0.0274,0.0587,0.0536,-0.0157,-0.0508,-0.0476,0.0289,-0.032,-0.0574,0.014,-0.00446,0.0251,0.0459,-0.0383,-0.0276,0.0305,0.0562,-0.0257,-0.0202,-0.0204,0.0488,-0.0038,-0.0593,-0.0446,0.0339,0.0386,-0.0505,-0.0106,-0.0104,-0.0147,0.042,-0.0335,0.0386,-0.0143,0.0387,0.0528,-0.019,0.00761,0.0517,-0.0183,-0.0201,-0.0577,0.011,0.0532,0.0376,-0.0371,0.0523,-0.0332,-0.00211,-0.0376,-0.00609,0.0588,-0.0405,-0.0195,0.0298,0.0528,-0.0398,-0.0104,0.0443,0.0561,0.0252,0.0232,0.0192,-0.0405,-0.0409,-0.0297,0.0201,-0.0136,0.00309,0.0195,0.0101,0.0451,-0.0408,-0.0396,0.0482,0.00294,0.00871,0.0477,-0.036,-0.0629,-0.0271,0.0169,-0.0424,0.0125,-0.011,-0.0497,0.0423,-0.0229,-0.0401,0.0166,0.0477,0.0536,0.0345,0.0121,0.0452,0.0218,-0.0047,-0.0406,0.0084,0.0182,-0.0497,0.0574,0.00899,0.0302,0.0295,-0.0386,-0.0349,-0.0234,-0.0471,-0.000481,0.044,0.0262,-0.037,-0.00568,-0.0442,-0.0479,0.0312,-0.0411,-0.0108,0.0222,-0.0491,0.0145,-0.0386,-0.0303,-0.00963,0.0242,-0.0182,-0.0141,0.0497,0.0349,-0.0048,0.0175,0.0618,0.0217,-0.0592,0.0114,-0.0599,-0.0343,0.0374,0.0113,-0.0317,0.000248,-0.00358,-0.053,-0.00767,0.0424,-0.00914,0.0439,-0.0551,-0.0484,-0.055,-0.0342,-0.00168,-0.00307,0.0323,-0.0267,0.0552,-0.00683,-0.0314,0.0638,-0.0412,-0.0231,-0.0284,-0.00134,0.0311,0.0164,0.0519,0.019,0.0448,0.0269,0.00765,0.0363,0.0365,-0.0523,0.0296,0.0323,-0.0399,0.0309,-0.032,0.0461,0.014,-0.0349,0.0332,-0.0174,-0.0402,0.0569,-0.00145,0.0104,-0.0181,0.0451,0.00417,0.0252,0.0322,0.0319,-0.0478,0.0368,-0.0105,0.0211,0.00488,-0.0516,0.0476,-0.00649,-0.0476,-0.0121,-0.0208,0.0304,-0.0264,0.0175,-0.00638,-0.0192,-0.00127,0.0349,-0.0485,-0.00902,-0.0056,0.0257,-0.0593,0.0612,0.0283,-0.0466,0.0556,-0.037,-0.0185,-0.0289,0.0519,-0.00388,-0.0584,-0.00508,-0.0418,0.0363,0.0204,-0.0546,-0.0392,0.0145,-0.025,-0.0542,0.00968,0.00509,-0.00958,0.0393,-0.0423,-0.0442,-0.0459,0.0286,-0.0356,-0.0403,-0.0139,-0.0326,0.0328,-0.0303,-0.0218,-0.0335,-0.00881,0.0172,-0.0542,-0.0375,0.0161,-0.0507,0.0203,0.0286,0.0135,-0.0509,0.0498,-0.0439,0.0304,0.015,0.0326,0.0603,0.0168,-0.0557,0.0267,-0.0116,0.0581,-0.0208,-0.0206,0.0244,-0.0527,-0.0229,0.000279,0.0226,0.00376,-0.033,-0.0448,-0.0319,0.0502,0.0153,0.0189,-0.00439,-0.0145,-0.0623,-0.00763,-0.0239,0.0628,0.0185,-0.00231,0.00902,0.0421,0.0145,0.0362,-0.0212,-0.0621,-0.0437,0.0528,-0.0458,-0.0192,-0.015,0.0508,0.0289,0.0235,0.00643,0.0478,-0.0527,-0.0565,0.00459,0.0544,0.0322,-0.00606,0.00957,-0.00874,0.0316,0.0538,-0.0444,-0.0334,0.0119,-0.00174,0.0355,0.0156,0.00512,0.0129,-0.0315,-0.053,0.0165,0.0194,0.0625,0.0523,-0.061,-0.0311,0.0079,-0.0416,-0.012,-0.00195,-0.0498,-0.0109,-0.0289,0.0575,-0.00719,-0.0293,0.0431,-0.0551,-0.0409,-0.0234,-0.0216,0.0201,-0.0367,-0.0576,-0.0103,0.0477,0.0183,0.0508,-0.0205,-0.00589,-0.0155,-0.00724,-0.0218,-0.0216,0.0532,0.00236,-0.024,-0.0423,0.049,0.0377,0.00834,0.0294,-0.00799,-0.0579,-0.0219,-0.043,0.0179,-0.0271,0.0257,0.0366,-0.0155,-0.02,0.0522,0.0463,0.0241,-0.00372,-0.0152,-0.0474,-0.00374,0.0153,0.0294,-0.047,-0.00902,0.00516,-0.0144,0.0532,-0.0558,0.0346,-0.058,-0.0142,0.0287,0.0336,0.0456,0.0613,0.0327,-0.0257,-0.0159,0.00875,0.0211,-0.0244,-0.0358,-0.0016,0.0569,0.00251,0.0323,0.031,-0.017,0.00221,0.035,-0.0374,0.0299,0.0345,-0.0374,-0.0261,-0.0137,-0.0336,-0.0111,-0.00484,0.0518,0.00513,-0.0386,-0.0471,-0.0124,-0.0526,-0.0105,-0.0181,-0.049,0.0102,0.053,0.0368,0.035,0.013,-0.0528,0.0426,-0.0355,0.0472,-0.0428,0.0602,0.0249,-0.00138,0.00518,0.0576,-0.0309,-0.0198,0.0178,0.0264,-0.0584,0.0253,-0.0528,-0.0526,-0.0204,-0.041,-0.0256,0.00788,0.0422,-0.0168,-0.0465,0.0628,-0.03,0.0158,-0.0446,0.0587,0.0345,0.0178,0.0203,-0.0245,0.0398,0.00766,0.0483,0.00496,-0.0622,-0.0387,0.0151,-0.0429,0.0485,0.0529,0.0327,0.0438,0.015,0.045,0.0493,0.00948,-0.00361,-0.0376,-0.0331,0.00192,-0.0318,0.000846,-0.0439,-0.00191,0.034,0.0306,0.0427,-0.00368,-0.000253,0.0417,-0.0557,0.0107,0.0512,-0.0456,0.0608,0.0628,0.0297,-0.0162,0.0467,-0.0268,-0.00367,-0.0597,0.0105,-0.0528,-0.0122,0.00267,0.0344,-0.0487,0.0458,0.000944,-0.0427,-0.0486,-0.0362,0.0631,-0.0128,0.06,0.0516,-0.0198,-0.0304,0.0161,0.0323,-0.0315,-0.0368,-0.0044,0.0549,-0.0094,0.029,0.04,-0.0105,0.0211,0.0282,0.0142,0.0387,-0.0144,0.00199,0.035,-0.0352,-0.0381,-0.0248,-0.0392,-0.0242,0.0343,-0.00553,0.0492,0.0153,-0.0402,0.0414,-0.0235,0.0196,0.0258,0.0539,0.00271,-0.0254,0.04,0.0505,0.00409,0.00289,0.0415,0.0516,0.0163,-0.0472,0.0507,-0.0567,0.0525,-0.0161,0.0567,0.00798,-0.00125,-0.0309,-0.0277,-0.0126,0.000876,0.0572,-0.00351,0.0517,0.0611,0.0334,-0.0182,-0.0365,0.028,-0.0284,0.0387,-0.0479,-0.062,0.0303,-0.0179,-0.016,0.0166,0.0502,-0.0114,0.0199,0.0543,0.0388,0.00975,-0.0528,0.0368,-0.0241,-0.00611,-0.0314,0.00872,0.0198,-0.00482,0.000517,0.0293,0.0298,-0.0638,0.0425,0.0578,-0.0346,-0.0458,0.015,-0.0306,0.0115,-0.0314,0.0215,0.0435,0.0616,0.0214,-0.0196,-0.0452,0.0498,0.0438,0.0374,-0.0112,0.051,0.0491,0.0503,0.0548,0.0313,-0.033,-0.0234,0.0368,0.0379,0.00159,-0.0251,-0.0542,0.0275,0.0387,0.0368,-0.0207,0.0469,-0.0344,0.0593,-0.0305,0.0527,-0.017,-0.0279,0.0316,-0.0312,0.0236,-0.0271,0.0353,0.0436,0.0341,0.0167,-0.00741,-0.0314,-0.0261,-0.0531,0.00582,-0.0269,-0.0371,-0.00921,-0.055,-0.051,0.0551,0.0501,0.0233,-0.00897,-0.0293,-0.0176,0.0529,0.0347,-0.0329,-0.00158,0.0439,0.0141,-0.0129,-0.00386,0.0305,-0.0314,0.0126,0.0394,0.0477,-0.0417,-0.0014,0.0542,-0.00723,-0.026,-0.0525,-0.0382,0.0582,-0.0531,-0.0556,0.0634,-0.0244,-0.0161,-0.0493,0.0622,0.058,0.0168,0.00335,-0.0596,-0.0128,0.0596,-0.00931,0.0309,-0.0195,0.0427,0.0153,0.0499,0.0437,-0.025,0.0291,0.0689,0.0201,0.0459,0.0255,0.00638,0.00556,0.0573,0.00554,-0.0183,0.0593,-0.0261,0.0349,-0.0376,0.0535,0.0539,0.0459,-0.0277,0.0695,0.0555,0.0237,-0.0485,0.0485,0.0362,0.00575,0.000134,0.0212,0.0255,0.0191,0.0553,-0.0514,0.0141,-0.0192,-0.021,0.0289,-0.0291,0.0067,-0.022,-0.00712,-0.038,0.0287,0.0309,-0.0423,-0.0175,-0.0145,-0.00292,0.0454,0.0445,0.0351,0.0568,0.033,0.0383,-0.00719,-0.0136,0.000233,-0.0235,-0.0201,-0.0514,-0.0443,0.0416,-0.00239,0.0524,-0.00433,-0.039,-0.0524,-0.0424,0.0291,0.0143,0.0525,-0.0145,-0.041,-0.031,-0.0578,-0.0389,0.031,-0.0547,0.0422,0.0552,-0.0458,0.00866,0.0122,-0.0256,0.0464,0.00147,-0.0181,-0.0185,-0.0421,0.0316,-0.000777,0.0516,-0.0176,0.0435,-0.0621,0.0393,-0.00903,0.0266,0.00931,-0.0077,0.0465,0.0276,-0.0338,-0.0336,-0.0494,-0.00554,-0.0519,-0.0384,0.0296,0.0387,0.0383,-0.0286,0.0376,0.00583,-0.0303,-0.0698,0.0726,0.0399,0.0534,-0.0559,0.0445,0.0603,0.0375,-0.0259,0.0412,0.0163,-0.011,0.0243,-0.0272,0.0343,0.0368,-0.0387,-0.0279,0.0375,0.0461,-0.0141,-0.0382,-0.00594,0.0265,-0.00667,-0.043,-0.00268,-0.0137,-0.02,-0.0474,0.0302,0.0598,0.0156,0.00606,0.0269,-0.0209,0.0115,-0.0237,-0.044,-0.00781,-0.00681,0.0031,0.0365,0.0409,-0.0299,0.0591,0.0263,0.0211,0.0302,0.00675,0.02,-0.00954,0.0581,0.04,-0.0523,-0.0347,0.0067,0.0139,0.0403,-0.0547,0.00588,-0.0467,-0.019,-0.0358,0.0278,0.0264,0.0501,0.0272,0.0261,-0.0109,0.0608,-0.038,-0.0464,0.0477,0.0268,-0.00556,-0.0349,-0.00323,-0.0536,0.000807,0.0375,-0.00513,0.0473,0.0175,-0.0345,0.063,0.0144,-0.0343,0.0469,0.0523,0.00337,0.062,-0.0486,0.0159,0.0111,0.0409,0.0235,-0.000935,-0.0237,-0.015,0.022,-0.00386,0.0102,0.0163,-0.00231,0.0392,0.00586,0.00519,-0.0169,0.0144,-0.0546,-0.0105,-0.0511,0.0121,-0.0343,-0.0482,0.0351,-0.0372,0.0205,0.0433,-0.0507,-0.0211,-0.045,-0.0167,0.0525,-0.0217,0.0247,-0.0469,0.00901,0.0197,0.0339,-0.0569,-0.0528,-0.00419,0.0307,-0.0566,-0.0495,-0.00452,0.015,-0.0173,0.00121,0.0164,0.000283,0.0208,-0.0345,-0.0195,-0.0189,-0.0127,-0.04,-0.0129,0.031,-0.00879,0.0307,0.0535,-0.0364,-0.0637,-0.0176,0.034,0.0317,0.00952,-0.0439,-0.0428,0.0395,0.0537,0.0423,-0.0412,-0.042,0.0186,0.0226,-0.0424,-0.0365,-0.027,-0.0561,0.0568,0.0176,0.00762,-0.0162,0.000801,-0.0234,0.0425,0.0284,-0.0332,0.0438,-0.011,-0.0191,-0.0479,-0.0335,0.0355,-0.0155,-0.0282,0.000583,-0.0375,-0.029,0.0427,-0.00865,0.0426,-0.0522,-0.0594,0.0423,-0.0447,0.00437,0.0303,0.0455,0.0201,-0.0349,-0.0217,-0.0462,0.00819,0.0255,0.0576,0.0327,0.0386,-0.00373,-0.034,-0.0561,-0.0199,-0.0141,-0.0102,-0.0158,0.0281,-0.0397,0.0223,0.0237,-0.0539,0.0109,0.0433,0.0256,0.00683,0.00191,-0.026,0.0106,0.00627,0.0199,-0.0244,0.0394,0.0469,-0.0122,0.0135,0.0266,0.00957,-0.0243,0.0506,-0.0369,-0.0181,0.0109,0.0153,-0.0409,-0.00723,0.0315,-0.0222,0.027,-0.0123,0.0277,-0.0325,0.00499,-0.0618,-0.0325,-0.0344,0.0278,0.0276,-0.0468,-0.0311,0.0529,-0.0148,0.0297,0.0276,-0.0238,0.0393,-0.0507,-0.0286,0.0132,-0.0475,-0.00203,0.0485,-0.0521,0.0465,-0.0546,-0.0351,0.018,-0.0492,-0.00844,0.0246,-0.054,-0.0405,0.0376,-0.0435,0.00452,0.0122,-0.0179,0.0282,0.00997,0.0509,-0.0451,-0.0224,0.0489,0.0485,-0.0366,-0.0383,0.0393,0.0515,-0.0507,0.0345,-0.000867,0.00647,0.00746,0.0522,0.0203,-0.0536,-5.55e-05,0.0269,0.0183,-0.0492,-0.039,0.0101,0.0091,0.0184,0.0498,-0.0346,-0.0194,0.00545,0.0172,0.0107,-0.0592,0.0183,-0.00505,-0.0379,0.017,-0.0131,0.0251,0.0426,0.0283,-0.048,0.0523,0.0475,0.0619,0.00686,-0.0441,0.00819,0.0514,0.0418,0.0404,-0.048,-0.0461,0.0226,-0.0347,-0.0352,-0.0125,-0.0339,0.0354,0.0584,0.0416,-0.0359,-0.0168,-0.0602,-0.000629,-0.0302,-0.0163,-0.0253,-0.0301,0.0378,-0.03,-0.0379,0.048,-0.00347,-0.0131,0.0187,0.0249,0.00388,0.0162,0.0445,-0.0012,0.00598,-0.00928,0.0164,0.0177,0.0253,0.0291,0.0369,0.0593,-0.0106,0.0196,0.00467,-0.0126,-0.0592,-0.0349,-0.0526,-0.0267,-0.000401,-0.0265,0.0213,-0.0475,-0.0381,-0.0138,-0.0306,-0.00564,-0.0195,-0.0281,-0.0304,0.0484,0.0188,0.0541,-0.0184,0.0158,0.00219,-0.0408,-0.00605,0.00663,0.0583,-0.000731,0.0292,-0.0109,0.045,-0.0216,0.0229,0.0186,-0.0493,0.0167,-0.0108,-0.0448,0.0502,-0.0461,-0.0306,0.0158,0.0327,-0.00471,-0.0256,0.022,0.0257,0.0179,0.00719,0.0247,0.00294,0.0583,-0.0298,-0.0412,0.0093,0.0179,-0.00584,-0.0225,-0.0278,0.0449,-0.024,-0.0548,-0.0209,0.0397,0.0314,-0.0594,0.0297,-0.0385,0.0515,-0.0283,-0.0693,-0.0209,-0.0199,0.023,0.00322,-0.00279,0.0223,-0.0568,-0.0327,-0.00554,0.0069,-0.00628,-0.0366,-0.0019,0.046,0.00199,-0.0055,-0.0113,0.0144,-0.0316,-0.0189,-0.0274,0.0498,0.0037,0.0625,-0.0382,0.0189,0.0388,-0.0352,0.0256,0.0609,0.0639,-0.0243,-0.0507,0.0557,-0.0212,0.011,-0.0209,-0.0399,0.00213,0.00327,-0.0373,-0.0388,-0.00881,0.0219,0.0503,-0.0469,-0.00609,0.0525,-0.0484,0.0316,0.0264,0.0254,-0.0239,0.00279,-0.00223,0.0459,-0.0439,0.0441,-0.00891,0.0531,0.0594,0.0163,-0.0405,-0.0571,0.0429,0.0204,0.0365,-0.0202,0.00976,0.0115,-0.0336,0.0501,-0.00962,0.0361,-0.0327,-0.0488,0.0629,-0.0528,-0.0375,-0.000495,0.0885,-0.0577,-0.0503,0.0327,0.0215,-0.0392,-0.0233,0.0139,-0.0444,0.0109,-0.0381,0.0114,0.046,0.0718,-0.055,-0.0258,-0.0538,0.0427,0.0212,-0.0258,-0.0327,-0.00508,-0.00383,-0.012,-0.00796,0.00474,-0.00721,0.0404,0.0756,0.0347,-0.0178,-0.0173,0.0777,-0.0424,0.00214,0.0411,-0.0581,-0.00224,0.00569,-0.0681,-0.031,-0.0675,0.019,0.0271,0.0569,0.041,-0.0333,-0.0135,-0.00543,0.00417,-0.0303,-0.015,-0.0422,-0.00168,-0.0492,0.0055,0.0383,0.00699,0.00829,0.027,0.0577,-0.00828,0.0386,0.0363,0.0483,0.0272,-0.00677,-0.0291,0.0316,-0.0531,0.0395,0.0198,0.0408,0.0349,-0.0648,0.0135,0.00836,0.0234,-0.0483,-0.0135,0.0342,-0.0439,0.0473,-0.0187,-0.00736,-0.0294,0.0422,0.0113,0.0324,-0.0024,-0.00954,0.0495,-0.0093,0.0378,0.00794,0.00921,0.0323,-0.000477,-0.00647,-0.014,0.0155,0.0667,0.0361,0.0355,-0.0475,0.0398,-0.0523,0.0144,0.0407,-0.0372,0.0536,0.0222,0.0213,-0.0138,-0.0427,-0.0231,0.0141,0.00375,0.018,0.0177,0.00163,-0.0328,0.015,-0.02,0.0455,-0.0314,0.0239,0.0367,-0.0457,0.0227,-0.0372,0.0502,-0.0528,0.0306,-0.0203,0.0768,0.037,-0.00564,-0.014,-0.0299,-0.00744,0.00611,0.0327,-0.0511,-0.0437,0.013,-0.00218,0.0297,-0.0184,0.0189,-0.0054,-0.0293,-0.0633,-0.0413,-0.0287,0.0244,0.0267,-0.0266,0.0151,0.0455,-0.0284,0.0548,0.044,-0.0142,-0.018,-0.0508,-0.02,0.00511,0.0402,-0.0109,0.0369,-0.0023,-0.0255,-0.0381,-0.0166,-0.0218,-0.0476,-0.0173,-0.0189,-0.0487,-0.0323,-0.0397,0.0402,-0.0267,0.0379,-0.0464,0.036,0.0596,-0.0582,-0.0386,0.05,0.0242,-0.023,0.0542,0.0345,0.0168,-0.00691,0.00838,-0.0579,-0.023,-0.0265,-0.0468,0.0522,0.0472,0.0277,-0.0344,0.06,0.0269,0.0312,0.053,0.0361,0.0529,0.028,0.0321,4.15e-05,0.00935,0.0528,0.017,0.0433,0.0242,-0.0431,-0.0131,-0.0383,0.000554,-0.0374,-0.0461,-0.013,0.0555,0.0534,-0.018,-0.0558,0.00403,0.0226,-0.00526,-0.0235,0.0274,0.0528,0.0476,0.012,0.00182,0.00676,-0.0418,0.0223,0.0236,-0.0579,0.0217,-0.0421,0.0229,0.0558,-0.0169,-0.073,-0.0516,-0.0579,-0.0324,-0.023,-0.00938,-0.0289,-0.0404,-0.0258,0.0403,-0.0239,-0.0513,0.0161,-0.0576,0.019,0.0418,0.017,0.0387,-0.0273,0.0451,0.0586,0.028,-0.00216,-0.024,0.0131,0.0367,0.051,0.061,0.0355,-0.00716,-0.0296,0.0482,0.0269,0.00707,-0.0176,-0.0513,7.1e-05,-0.0338,0.0204,0.059,0.00811,0.0257,0.0471,-0.0248,0.0231,-0.0644,0.0626,-0.0349,0.0492,0.0581,-0.0369,0.0328,-0.0442,-0.0611,0.0491,0.0355,0.0244,-0.0117,0.00463,0.015,-0.0344,-0.0535,-0.00712,-0.0396,0.0631,-0.00881,-0.0693,0.0337,0.0339,-0.048,0.0271,-0.0175,-0.0218,0.0121,0.006,0.034,-0.0187,-0.0386,0.0499,0.0421,0.0519,0.0174,0.073,-0.0572,-0.00727,0.0488,0.0269,0.0592,0.0154,-0.0244,-0.00542,-0.0502,-0.0557,0.0432,-0.0357,-0.0136,0.0579,-0.0514,0.0404,0.02,0.016,0.000282,0.0606,-0.0233,-0.0117,0.0451,0.0317,0.0172,-0.00401,-0.0314,-0.0526,0.0305,-0.0534,0.0351,0.00215,0.0406,-0.0189,-0.052,0.00735,-0.00232,-0.0488,0.0182,0.0128,0.00893,0.0469,0.000285,-0.0194,-0.0243,0.00323,-0.0183,-0.0181,-0.0365,0.0409,-0.0538,0.0179,-0.0166,-0.0542,0.00603,-0.0502,0.0312,-0.00404,-0.0443,-0.00275,0.0153,0.0137,0.0137,0.0348,0.016,0.0599,0.0226,-0.035,0.0323,0.0491,0.0522,0.0107,-0.0406,-0.0462,-0.0336,-0.0278,-0.0295,0.0458,-0.0432,0.0547,-0.0413,0.00355,0.0292,0.0641,-0.0355,0.0164,0.00895,-0.0477,-0.0539,0.0369,0.053,-0.0351,-0.0125,-0.0385,-0.0237,0.0409,0.00528,-0.00697,-0.0512,-0.0368,0.0236,0.0455,0.00251,-0.0565,-0.0447,-0.0212,-0.0288,0.0553,-0.0413,0.045,-0.00629,-0.0153,-0.0104,-0.0134,-0.00505,0.00442,0.0539,0.00377,-0.0505,-0.0271,0.0154,-0.0335,-0.0297,-0.0371,0.032,0.051,-0.0115,-0.0359,0.0166,0.0106,0.0271,-0.0126,0.0281,0.0226,0.0171,-0.053,-0.0166,0.0194,0.0322,-0.0081,-0.0306,-0.0128,-0.00266,0.051,0.0327,-0.00927,-0.0356,-0.00473,0.0326,-0.00142,-0.00154,0.00747,0.0507,0.0156,0.0348,0.00792,-0.0133,0.0416,-0.0269,0.0151,0.0422,-0.0564,-0.0172,0.0082,0.00474,0.00195,0.0268,0.0309,-0.0231,-0.012,-0.0358,-0.0438,-0.00394,-0.0422,0.00717,-0.0232,0.0245,-0.00376,0.011,0.043,-0.0407,-0.0389,0.0246,0.0473,0.000379,-0.0167,-0.0398,0.0505,0.0215,-0.0115,-0.011,0.0176,0.0489,-0.0276,0.0416,-0.0323,0.0187,-0.0537,0.00679,0.015,0.061,-0.0039,-0.06,0.0178,0.0517,0.0503,0.0305,0.0349,-0.0354,0.0363,0.028,0.0388,0.0407,0.0263,-0.0191,-0.037,0.0504,-0.0298,0.0161,-0.00916,-0.0463,-0.0458,-0.0204,-0.0474,0.012,0.0489,0.00832,0.0237,0.0297,0.00509,-0.00908,-0.00128,0.0427,0.0379,-0.0166,0.03,-0.00407,-0.00269,-0.0513,0.0429,0.0395,-0.00221,0.0283,-0.0402,0.0203,0.0175,0.00287,0.00574,0.0173,0.0186,0.0533,0.0059,0.0254,0.011,0.023,-0.00166,-0.00197,-0.00811,-0.0306,0.0317,0.049,0.0572,-0.053,-0.00306,0.0293,0.0051,-0.000151,0.0374,0.0385,-0.0543,0.0558,-0.0552,0.0299,-0.0469,0.0481,0.0138,-0.0334,0.0297,-0.0111,-0.0552,-0.048,0.0581,0.0161,0.0241,-0.053,0.0576,-0.056,0.0648,0.039,0.0442,-0.048,0.0355,-0.00927,-0.0562,-0.0124,-0.0267,0.0304,-0.0414,0.011,0.0478,0.0558,0.00451,0.00565,-0.0317,-0.0494,0.0359,0.00663,-0.0454,0.00522,-0.0486,0.0563,-0.0362,-0.0208,-0.0192,-0.0126,-0.0207,-0.0582,0.0255,-0.05,0.0591,0.0497,-0.0312,0.0374,-0.00721,0.0155,0.0249,-0.0309,0.0592,-0.00869,-0.000364,0.0206,-0.0361,0.0338,0.0585,-0.0453,-0.0296,0.00218,-0.0235,-0.0058,0.0347,0.0238,-2.42e-05,-0.0471,-0.0204,-0.0594,-0.0199,0.0341,-0.0549,-0.0198,-0.00825,0.00289,0.0506,0.0472,0.00679,0.0402,-0.0258,0.0182,-0.0514,-0.0106,0.0332,-0.00484,0.00684,-0.0281,0.021,-0.0517,0.0289,-0.0526,-0.0065,0.0104,0.019,0.0272,-0.0191,0.0105,0.0405,0.0456,-0.0157,-0.0423,-0.00783,0.0171,0.0131,0.00891,0.054,0.0297,-0.0489,-0.0387,0.0444,-0.041,0.034,0.00893,-0.0494,-0.0383,-0.0425,0.0189,-0.0375,0.0149,0.00431,0.0512,0.0488,-0.0258,0.00774,-0.0595,-0.0459,-0.0446,-0.0431,-0.0334,0.0122,-0.0316,-0.0549,0.0525,-0.0482,-0.0252,0.00372,0.00824,0.00549,0.0435,-0.0351,0.00928,-0.0253,-0.0354,0.0342,0.00611,-0.0532,-0.0359,0.0103,0.0589,0.00129,0.0333,-0.0544,0.0567,-0.0362,0.0345,0.0337,0.0412,0.0138,-0.0532,-0.00122,-0.039,-0.0314,0.0197,-0.0545,0.0429,0.0508,0.0253,-0.0228,0.0208,0.0451,-0.0263,0.0125,-0.0145,-0.00852,0.0365,-0.0376,0.0533,-0.0133,0.0291,0.0161,0.0264,0.023,0.0303,-0.0141,0.0293,-0.0151,-0.0014,-0.00325,-0.0284,-0.0208,0.0421,0.0567,-0.0288,-0.0384,-0.00686,-0.0482,-0.0263,-0.0145,-0.0183,0.0633,-0.0262,0.00195,-0.0232,0.013,-0.00224,0.00894,-0.00976,-0.00545,-0.0246,0.0628,0.0194,-0.0308,0.00868,0.0481,0.015,0.00477,0.0305,0.013,0.0516,-0.0195,-0.0293,-0.0104,-0.0199,0.0304,-0.0504,0.0363,0.0439,0.00876,-0.0481,0.0181,0.0299,-0.0411,-0.0505,-0.0199,0.0268,0.0397,-0.021,0.0433,-0.0439,-0.00728,0.0235,0.0285,-0.0457,0.00922,0.0298,-0.0362,-0.0479,0.014,0.0183,-0.0195,-0.0407,0.055,-0.0225,0.0035,0.00453,-0.0394,0.0502,-0.0555,0.0141,-0.0248,0.0173,-0.0585,-0.00453,0.0301,0.0298,-0.00599,0.0593,-0.00407,-0.0457,0.0505,0.00465,-0.0222,-0.00586,0.0498,0.00816,-0.0168,0.00948,-0.0304,0.0324,-0.0384,-0.0112,-0.0381,0.0231,0.0398,0.0342,0.0563,-0.0399,-0.0256,0.051,0.0342,0.015,-0.0548,0.0103,0.0166,-0.0223,-0.0369,-0.0279,-0.0572,-0.0246,0.0234,0.0567,-0.000544,-0.0221,0.017,0.053,0.0404,-0.017,-0.00613,-0.0414,0.0522,-0.0336,-0.0369,0.0547,0.048,0.0393,0.00146,0.0511,0.0645,0.0347,-0.0284,0.0326,0.0406,0.0227,-0.054,0.0262,-0.00599,-0.041,0.0464,-0.0632,0.0434,0.0299,0.00886,0.0221,0.0044,-0.038,-0.059,0.0337,0.0233,-0.0215,-0.0345,-0.0163,-0.00706,0.0019,-0.0126,0.0449,0.06,-0.045,-0.0292,0.0422,0.004,-0.0529,-0.044,-0.022,-0.0263,0.0519,0.0285,-0.00084,0.051,-0.0319,0.0213,0.0251,0.0341,0.00769,-0.00314,-0.00587,-0.0517,0.0516,-0.0243,0.0402,0.000503,0.0539,-0.0152,-0.0283,-0.0576,-0.0149,-0.0116,-0.0069,-0.0521,0.0317,0.0575,-0.0454,-0.0179,0.0245,0.0525,0.000928,0.0525,-0.0275,0.0223,0.0357,0.028,0.0198,0.0166,0.048,0.0296,-0.00198,-0.0341,0.051,0.0546,0.0227,0.00401,-0.00672,0.0617,0.0609,0.0295,0.00442,0.0358,-0.02,0.0543,-0.045,0.0454,-0.0585,0.0278,0.00993,-0.0468,-0.0317,0.0313,-0.015,-0.0174,0.0381,-0.044,0.0482,0.0338,-0.0217,-0.00995,0.00751,-0.0279,-0.0341,0.0643,0.0351,-0.0122,0.0364,0.0233,-0.0491,-0.041,-0.0335,-0.0409,-0.0189,-0.00538,-0.0395,-0.0504,0.00792,-0.0542,0.0466,0.0171,-0.0548,-0.00567,0.00666,0.0333,0.0515,-0.0557,0.0386,0.0356,-0.0606,-0.0121,0.0214,-0.0133,-0.0216,-0.00735,-0.0162,-0.0514,0.0583,0.0303,-0.0486,0.00966,-0.00926,0.000814,0.0191,0.0535,-0.0428,0.0576,0.000284,0.00133,0.0501,0.054,-0.00023,0.0277,-0.0519,-0.0487,-0.0101,-0.0133,-0.0126,-0.0213,-0.0151,0.046,0.045,0.00492,0.00406,0.035,0.0248,-0.0133,0.0369,-0.038,0.0179,0.0291,0.027,0.0222,-0.00557,-0.00802,-0.01,0.0299,-0.0553,-0.0257,0.0236,-0.0318,0.000512,-0.00236,0.0161,-0.0157,0.00986,0.0372,0.0146,0.0266,0.0155,-0.0192,-0.0156,0.0121,0.00461,-0.0547,-0.053,-0.0161,-0.0106,0.0281,-0.0111,0.0233,0.0369,0.0156,0.00179,0.0227,-0.00547,-0.05,-0.0311,-0.0453,-0.0253,-0.00882,0.0118,0.00953,0.0239,0.0378,0.0384,0.00768,0.000822,-0.0405,0.0389,0.00785,0.02,0.0479,0.0234,0.0513,-0.0556,-0.0114,-0.0104,-0.012,-0.0327,0.034,0.0238,0.0129,-0.0281,0.0366,0.00549,0.0452,-0.0566,-0.00167,-0.021,-0.057,-0.0475,-0.0498,0.0274,-0.00621,-0.044,0.0489,-0.0493,-0.0568,0.0484,-0.0401,0.0306,0.0265,0.0133,0.0569,-0.0552,-0.0124,-0.0605,0.0397,0.0632,0.031,0.00203,-0.0261,-0.0492,-0.0183,0.0226,0.0205,0.0167,0.0236,-0.0464,-0.0353,0.00678,-0.0483,0.0106,0.00541,0.0397,-0.0591,0.0558,-0.0204,0.0295,-0.0322,-0.0563,-0.0561,-0.0125,0.00326,-0.00722,0.0186,0.045,0.024,-0.00784,-0.0487,-0.00831,-0.0482,-0.0185,0.0613,-0.0326,0.00437,-0.0561,0.0425,-0.0106,0.0323,-0.033,-0.0222,-0.0331,0.038,-0.018,0.0222,-0.00215,0.0231,-0.0301,0.0334,0.0284,0.0318,0.0267,-0.0181,-0.0169,-0.0528,0.038,0.0391,-0.0421,0.0294,0.0409,-0.0221,0.039,0.0294,0.0466,0.0535,-0.0111,0.0234,0.0287,-0.0455,0.0134,0.0272,0.0522,-0.0445,0.00168,0.00432,0.0194,0.0239,-0.0268,-0.058,0.0429,-0.00346,-0.0313,0.0263,0.012,0.0276,-0.00075,-0.0339,-0.0528,0.0544,-0.0163,-0.0403,-0.0309,-0.021,-0.0392,-0.00411,0.022,-0.0507,0.0163,0.05,0.0262,0.0536,-0.0524,-0.0156,-0.0426,-0.0181,0.0285,0.0508,-0.0125,0.0464,-0.0192,0.0338,-0.047,-0.00774,0.00714,0.0331,-0.0413,0.039,0.00212,0.025,-0.05,-0.000706,-0.0253,0.0413,-0.0542,0.0542,-0.0209,0.00138,0.0278,0.0401,0.0101,-0.0334,-0.0315,0.0397,-0.0124,-0.0418,-0.0262,0.0541,0.054,0.0395,0.0325,0.054,0.0198,0.0504,0.00978,-0.0189,0.0548,-0.0185,-0.0395,-0.00215,0.000453,-0.0332,-0.0472,0.0352,-0.0591,0.0272,0.0121,-0.0125,-0.0222,-0.000836,-0.0596,-0.00474,-0.05,0.000197,-0.0331,-0.0454,-0.0069,-0.00908,0.0351,-0.0363,0.017,0.017,0.051,-0.027,-0.0123,0.000895,0.0041,-0.051,-0.0203,-0.0215,0.0414,0.0245,-0.0309,0.0355,0.0418,0.00454,-0.0566,0.0161,-0.00474,-0.0268,-0.0412,-0.00705,0.0176,0.00879,-0.0436,0.00563,-0.0463,0.0525,-0.0222,-0.0344,0.045,-0.0145,-0.00248,-0.015,-0.0162,0.0223,0.0554,0.0497,-0.048,-0.0193,0.000232,0.018,0.0567,-0.0155,0.051,-0.000735,-0.000237,-0.00281,0.0257,0.0445,0.036,-0.038,-0.0415,0.0515,-0.0293,-0.0131,-0.0394,0.017,-0.0121,-0.0113,-0.0595,-0.0101,-0.0321,-0.000614,0.0546,0.0388,-0.0528,-0.0265,0.0137,0.0486,-0.00344,0.0483,-0.036,-0.027,0.0224,0.0585,-0.00396,-0.0359,0.0311,0.0269,-0.0148,0.0116,0.0429,0.0393,0.0349,0.00962,0.00227,-0.0381,0.0143,0.0569,0.0596,-0.0284,-0.0478,-0.0282,0.0366,-0.0306,-0.0428,0.0298,0.0332,-0.0347,-0.0473,0.0366,-0.0532,-0.0549,0.0209,-0.00263,0.0482,-0.00843,0.0524,0.0252,-0.044,0.0234,-0.00167,0.00136,0.00757,-0.0247,-0.0402,-0.0471,0.0143,0.00173,0.0239,0.0426,0.0418,0.0184,0.0447,-0.0342,-0.00258,-0.0388,-0.00838,-0.0482,-0.0485,-0.0149,0.0267,-0.0192,0.0307,-0.00259,0.055,0.0369,-0.056,0.019,0.0291,0.0118,0.0317,-0.0135,-0.033,-0.00518,-0.024,0.0333,-0.0612,-0.0356,0.0185,0.00929,0.021,0.023,-0.0288,0.0294,0.025,-0.00534,-0.00397,-0.0542,0.0109,0.0191,0.00358,-0.000957,-0.0503,0.00629,-0.00423,-0.0469,-0.00442,-0.0433,0.023,-0.00926,0.0262,0.0295,0.0551,-0.0519,-0.0101,0.0418,-0.0291,-0.0293,-0.0519,0.0317,-0.0446,0.049,-0.0536,-0.0425,0.0198,0.00366,0.0134,-0.0621,0.0108,-0.0497,-0.0351,-0.0303,-0.0466,0.0264,8.05e-05,-0.00219,-0.00791,0.0263,-0.0209,-0.0283,0.0353,0.0297,-0.04,0.0307,-0.0467,0.0476,0.0199,-0.0348,0.0553,-0.0111,-0.045,-0.00523,0.00815,0.0315,-0.0109,0.0244,0.033,0.0333,0.0546,0.0481,-0.0149,0.0433,-0.0337,0.0486,0.0569,-0.032,-0.00481,0.0243,-0.0558,0.0418,0.057,0.0467,-0.00211,0.011,-0.00315,0.0574,0.0117,0.056,-0.0179,0.0307,0.00608,-0.0299,-0.0307,-0.0262,-0.0227,-0.0433,-0.0123,-0.0203,-0.042,0.0439,0.0285,-0.028,0.0591,0.00678,0.0327,0.0613,0.0302,-0.0367,-0.0421,0.0499,-0.00118,-0.0276,0.023,0.00604,0.0475,0.00298,-0.0432,0.0528,-0.0455,-0.00636,0.0204,0.0576,0.0471,0.0259,-0.0407,-0.0352,0.0529,-0.0497,-0.0302,0.029,-0.0448,-0.032,-0.00136,1.13e-05,-0.0527,0.0168,-0.0448,-0.0544,-0.0123,-0.0504,0.0428,-0.00496,0.0233,0.0572,-0.0358,-0.0302,0.045,0.0094,-0.0446,0.00237,-0.042,-0.0254,-0.0524,0.0377,-0.0336,-0.000794,0.0123,-0.019,-0.0412,0.00328,0.0051,0.0307,-0.0234,-0.0502,-0.00962,-0.0286,0.0126,-0.0522,0.0408,0.0288,0.0432,-0.0285,-0.0308,0.0102,0.0499,0.0304,0.0331,-0.0425,-0.00567,0.0414,-0.0367,0.0534,0.0394,-0.0497,-0.00147,0.045,-0.0429,-0.0422,0.0444,0.0501,-0.0587,-0.0528,-0.0296,0.00762,0.0214,-0.0244,0.0569,-0.0386,-0.0202,0.0587,0.0424,-0.0303,0.0464,-0.016,0.0293,-0.0441,-0.00915,-0.00313,0.0419,0.0261,0.0186,-0.0205,-0.0146,0.0111,0.038,-0.00503,0.00213,-0.0596,0.0463,0.033,-0.0355,-0.0244,0.0166,0.0462,-0.0327,0.011,0.0558,0.0465,-0.0218,0.00974,0.0407,0.00207,-0.037,-0.00785,0.0234,-0.0485,0.0415,-0.0274,0.0411,0.0227,0.0336,-0.0227,0.0201,0.00513,-0.0223,0.059,-0.0567,0.0208,-0.0426,0.031,-0.0355,-0.0383,0.0151,0.0219,-0.05,0.0317,0.0289,0.0517,0.000934,0.042,-0.00447,0.0556,-0.0244,0.0465,-0.0488,0.0512,-0.0279,-0.0374,-0.0415,0.00566,0.00877,-0.0299,0.0149,0.0222,0.0544,0.0146,-0.0034,0.0132,-0.0292,-0.0111,0.0114,-0.00584,-0.0109,0.0232,0.0375,0.0183,-0.00214,0.0496,-0.0228,-0.049,-0.0575,0.0293,-0.0354,0.00901,-0.0352,-0.0156,0.0443,0.0448,-0.0303,-0.0143,0.0149,0.0147,0.0313,-0.0289,-0.0123,-0.0364,0.0359,0.0371,-0.0244,-0.0279,0.0263,-0.0501,-0.00854,-0.0317,-0.0291,-0.0585,0.0349,-0.029,-0.0481,-0.0261,0.00367,0.0206,0.0128,0.0603,0.0075,0.0488,0.0307,-0.0215,0.00388,-0.0504,0.0604,-0.00576,-0.00593,-0.0237,-0.0374,0.0383,-0.0372,-0.0524,0.0281,0.0266,-0.0199,-0.02,0.051,0.0365,-0.0251,0.0517,-0.0332,-0.019,-0.0109,-0.0343,-0.00629,-0.0431,0.0255,-0.0121,0.0305,0.00292,-0.0365,-0.037,0.00374,-0.0526,-0.0466,-0.00689,-7.2e-05,-0.0521,-0.00221,0.0469,-0.00251,-0.04,0.0466,-0.0535,0.0394,-0.0321,0.0243,-0.0234,-0.0313,0.00115,-0.0466,0.00106,0.0559,-0.0526,0.00809,0.0526,0.0365,-0.0586,0.0426,0.0374,-0.0228,-0.046,-0.0237,0.0395,0.0382,-0.00194,0.0196,-0.0368,-0.0238,-0.0404,0.0345,0.0612,-0.00841,0.00617,-0.0362,0.00827,-0.0281,0.029,0.0351,0.0473,0.00168,0.0465,0.0193,-0.00396,0.0585,-0.0407,0.0393,-0.0187,0.0327,0.0417,0.0546,-0.0279,-0.0418,-0.0289,-0.0146,-0.00401,-0.0314,0.00516,-0.0159,-0.0306,-0.0504,0.0148,0.0157,-0.0434,-0.05,0.014,-0.0439,-0.0505,-0.0477,0.0619,0.0505,-0.00261,0.0401,-0.00199,-0.00723,-0.0312,-0.0386,-0.0123,-0.0171,0.017,-0.057,-0.03,0.0136,-0.0184,-0.0495,-0.0316,-0.0162,0.027,-0.0246,-0.0509,0.00538,-0.0358,-0.0475,0.0147,-0.0122,0.0308,0.00631,0.0342,0.0037,0.0548,0.0242,-0.00185,0.0274,0.0401,-0.0541,-0.0307,-0.0272,0.0129,0.0527,0.037,0.0291,-0.0126,0.0143,-0.0599,-0.0356,0.0408,0.0585,-0.0252,0.0226,-0.00705,-0.0538,-0.0327,0.0617,-0.0096,0.0262,-0.0199,-0.0435,0.0546,-0.0521,-0.000253,-0.0256,-0.0471,0.0529,-0.00605,0.0257,-0.017,-0.0071,0.0425,0.0104,-0.0351,0.0126,-0.0305,-0.0284,-0.0385,-0.0198,0.0277,-0.0128,-0.0209,-0.0518,0.0479,0.0104,0.0281,0.0418,-0.000724,-0.0408,-0.0186,-0.046,0.029,0.00759,0.0465,-0.0259,0.0274,0.0351,-0.0319,0.0341,0.0429,0.0343,0.00229,0.000265,-0.0183,0.0377,0.0283,0.0568,0.0299,-0.0299,-0.0197,0.00137,-0.04,-0.0309,-0.0642,0.00981,-0.0201,0.0511,0.0242,-0.0308,-0.0354,0.0049,0.0335,-0.0058,-0.0369,-0.00842,0.00834,0.00704,0.0417,0.0278,-0.028,0.0236,-0.0524,-0.0333,0.0523,0.0188,0.017,-0.0421,-0.0226,0.0147,0.0222,0.0503,-0.0413,-0.0135,-0.0487,-0.0526,-0.0554,-0.0484,-0.0548,-0.0488,-0.0291,-0.0427,0.0586,0.00278,-0.0244,0.043,-0.0597,-0.0392,-0.0203,-0.0523,-0.0136,-0.00901,-0.00537,0.0115,-0.0327,-2.1e-05,0.011,-0.0474,0.0571,0.0476,0.0186,-0.00206,0.0446,-0.0621,0.00574,0.0196,0.045,0.0348,0.0372,0.0262,0.0359,-0.0343,-0.0605,-0.00231,0.0413,-0.0351,-0.0479,0.0511,0.0436,-0.0329,-0.0282,-0.0178,0.0307,-0.00356,0.0316,-0.0169,-0.0533,-0.0178,-0.0409,0.00238,0.0468,-0.0429,0.0192,-0.0178,-0.0381,0.0251,-0.00887,0.00596,-0.0565,-0.00479,-0.0282,-0.0347,-0.00477,0.0141,-0.0541,0.0463,-0.00711,-0.021,0.0505,-0.0303,-0.000208,-0.0546,0.0578,-0.0452,-0.0355,0.0177,0.00888,-0.0555,-0.00186,0.0533,0.0174,0.0222,0.0382,-0.00485,-0.0341,0.0568,-0.0376,-0.0113,-0.0217,-0.0512,-0.0235,-0.0535,0.0439,0.00299,-0.00497,-0.029,-0.0474,0.0205,-0.0207,0.0223,0.0359,-0.0127,0.045,0.0387,0.0342,-0.0481,-0.0553,0.0399,-0.023,0.0347,-0.0318,0.0241,-0.0243,0.0561,0.0064,0.0255,-0.00639,-0.0253,0.0402,0.0316,0.0465,0.00261,0.012,0.0136,0.00206,-0.00402,0.0321,0.0421,0.0326,-0.0429,0.0106,0.0458,0.0554,0.00082,-0.0288,-0.0265,0.0462,0.0343,-0.0436,-0.032,0.0382,-0.0377,-0.0212,-0.0424,-0.0023,0.0116,-0.0397,-0.0434,-0.0618,-0.0577,-0.0263,-0.0367,0.027,0.00199,0.0321,-0.0427,-0.0666,0.0265,0.00517,0.0119,0.00493,0.0382,-0.0129,-0.0293,-0.0387,0.018,-0.0274,0.0501,0.0524,0.0283,-0.0244,-0.00371,-0.0426,-0.048,-0.0415,0.0283,-0.0292,0.00318,0.056,0.0521,-0.0182,0.0494,-0.0315,0.00611,0.0425,-0.0187,-0.0226,0.0159,-0.0457,0.00824,-0.0457,-0.0561,0.0127,-0.0315,0.0335,-0.0478,0.0566,0.0192,-0.0356,-0.058,0.0479,-0.0138,0.0182,0.0243,0.0343,-0.0469,-0.009,0.0529,-0.021,0.0468,-0.056,0.0114,0.0398,-0.00803,0.0292,-0.0024,-0.00357,-0.026,-0.0328,-0.0141,0.08,0.0458,-0.0487,0.0391,0.019,-0.0406,0.0376,-0.0144,0.0319,-0.0308,0.0203,-0.0204,0.00528,-0.0241,0.0633,0.00706,0.0474,-0.0443,0.0316,-0.0163,0.00517,-0.0335,0.0199,0.0139,0.0316,-0.0263,0.057,-0.000292,0.0203,-0.0385,0.0431,-0.0472,0.0789,0.00109,-0.0311,0.043,0.0526,-0.0397,-0.0136,-0.0172,-0.013,0.0442,0.0206,-0.0491,-0.0188,0.0576,-0.0519,-0.0542,0.00232,-0.0564,-0.00672,0.0548,0.05,0.0439,0.029,0.00953,-0.0378,0.0272,-0.0211,0.00246,0.0593,-0.00217,-0.0357,0.00231,0.0127,0.014,0.0096,0.0285,-0.00299,0.00566,-0.00591,0.0576,0.0154,-0.0117,0.0303,0.0131,-0.0527,0.03,-0.0298,0.0106,-0.0303,0.0394,-0.0469,-0.0308,-0.018,0.0538,-0.0389,-0.00611,0.0173,-0.00244,-0.022,-0.0124,0.0552,-0.0203,0.0525,0.0228,0.0559,-0.00236,0.0337,-0.0468,0.0125,-0.0219,-0.045,0.057,0.0341,0.0233,-0.0329,-0.000114,0.00727,-0.0225,-0.0104,-0.0374,-0.00987,-0.0405,0.0106,-0.00394,-0.0447,-0.00597,-0.00208,0.00219,-0.0176,0.034,0.0446,-0.0459,-0.0515,0.00929,-0.0252,0.0236,-0.00207,0.0244,-0.0508,0.045,-0.0461,-0.0297,0.0434,-0.043,-0.0135,-0.0166,0.0216,0.0356,0.0499,-0.0555,0.0105,-0.0294,0.0582,0.0259,0.0486,-0.0219,-0.0332,-0.0279,0.0011,-0.06,-0.0192,0.0206,-0.0148,0.00986,-0.000386,-0.0116,0.0497,0.053,-0.018,0.00211,0.056,-0.0217,0.0287,0.0307,-0.033,-0.00742,-0.0448,-0.00864,-0.0174,-0.0064,0.062,0.000695,-0.006,-0.015,0.0666,0.0542,0.0158,-0.0424,0.0274,0.0178,0.0516,-0.0487,0.0285,-0.0463,0.0394,0.0672,0.0126,0.0354,-0.0536,-0.0188,0.0267,0.0209,0.00278,0.0178,0.00939,-0.0344,-0.0394,0.0615,-0.0436,0.0433,-0.0152,-0.0346,0.0219,-0.0185,0.00814,0.0195,-0.00369,-0.0145,0.0589,-0.0135,-0.00788,0.0116,0.0345,-0.0574,-0.000475,0.0606,0.054,0.0136,0.0479,-0.0245,0.0483,-0.05,0.0631,-0.0167,-0.031,-0.0332,0.0316,0.043,-0.0439,0.0418,-0.00238,-0.0297,-0.0379,0.0562,0.00128,-0.0111,-0.043,-0.0502,0.00388,-0.0481,0.0553,-0.0479,-0.0224,0.00445,-0.0436,0.0511,-0.0428,0.0175,-0.0452,-0.0127,-0.0547,0.0371,-0.0409,-0.00163,-0.0068,-0.0148,-0.0357,0.0198,0.0401,0.00542,-0.00623,-0.0298,0.00154,0.0188,0.0462,0.0099,0.056,-0.0755,-0.023,0.0146,0.0301,0.0332,0.0395,0.0374,-0.0309,-0.0428,0.0388,0.0514,0.011,0.000695,0.0149,-0.0438,0.038,-0.00558,-0.0406,0.00875,-0.0544,-0.0316,-0.0526,0.0195,0.0165,-0.0339,-0.0013,-0.0108,-0.0065,-0.0577,-0.035,-0.0318,-0.0407,-0.0259,-0.0135,0.0632,0.0276,-0.0257,0.0455,0.0266,-0.00195,-0.00621,0.0379,-0.0288,-0.0506,-0.0558,-0.0098,-0.062,0.0601,-0.0498,-0.0263,-0.011,-0.0515,0.0143,-0.0201,-0.0397,-0.0453,0.0311,-0.0419,-0.0545,0.0524,-0.0297,0.0111,0.0282,-0.044,-0.0469,0.0147,-0.0316,0.0278,0.0301,-0.0202,-0.0418,0.0763,0.0139,-0.0317,-0.0237,0.0198,-0.0421,-0.0444,-0.009,-0.02,-0.013,-0.00682,0.0408,-0.0311,0.0151,0.0205,-0.0349,-0.0449,-0.0249,0.0441,0.0439,-0.0212,0.035,-0.0409,0.0164,-0.014,0.0209,-0.0175,-0.0227,-0.0399,0.0394,-0.019,0.0544,0.00685,-0.00347,0.0118,-0.0481,0.029,-0.000507,-0.0344,0.0448,-0.00647,-0.0397,0.0343,-0.00634,0.043,-0.0382,-0.0465,-0.0393,-0.057,-0.00694,-0.00526,-0.000784,0.00902,-0.0275,0.0296,0.043,0.0614,-0.0189,-0.0273,0.00179,0.0136,0.0144,-0.0421,-0.0389,-0.00839,-0.0282,-0.0274,-0.00729,-0.0278,0.0036,0.0287,-0.0171,-0.00465,-0.0542,0.019,-0.0161,-0.0285,0.0148,0.00931,0.0552,-0.0197,0.0532,0.0297,-0.0139,0.0417,-0.0433,0.0476,0.0566,0.0471,-0.0646,0.0283,0.0346,0.0469,-0.0139,-0.0529,0.0195,0.0486,-0.0311,-0.0577,0.0618,0.0398,-0.0272,0.0551,-0.00969,-0.0415,-0.00147,-0.0482,-0.0256,-0.00347,0.0125,0.0296,0.0536,0.00904,-0.0354,-0.00952,-0.0534,-0.0461,-0.016,-0.00378,0.0426,0.0068,0.0442,0.0391,-0.03,-0.0481,0.0555,0.0528,-0.00302,-0.0723,-0.0534,0.00755,0.0102,-0.00196,0.0416,-0.0279,-0.0155,-0.00966,-0.011,0.0153,0.00971,0.0389,0.0428,-0.0528,0.0104,-0.00706,0.0492,-0.0563,-0.0256,-0.00122,-0.0283,-0.00523,0.0473,-0.00663,-0.0175,-0.0433,0.0511,0.016,0.0217,0.0552,0.0537,-0.00764,0.0485,-0.0312,0.0288,0.0355,0.0607,0.0476,-0.0556,-0.0111,0.039,-0.0274,0.0348,0.0487,0.0553,0.0618,-0.0449,0.0212,0.032,-0.0353,0.0258,0.00423,-0.0242,-0.00303,0.0201,-0.0493,-0.0147,0.0559,0.0301,-0.0108,-0.0367,0.0547,-0.0372,-0.0451,-0.0183,-0.00587,-0.0165,0.0472,-0.046,-0.0185,0.0349,0.0245,-0.00447,0.0105,-0.0229,0.0581,0.037,0.00217,-0.0271,-0.0297,-0.012,-0.00409,0.000145,-0.043,0.0191,-0.0435,0.014,-0.0203,-0.00148,0.03,0.0268,0.0572,-0.0527,-0.0318,-0.0378,-0.00633,0.0483,0.0563,-0.00957,-0.0294,-0.045,0.0426,0.049,0.00968,0.00018,0.0356,0.0586,0.0464,0.032,0.0132,-0.000951,0.0219,0.0196,0.0104,-0.0394,0.0313,-0.0456,0.0319,-0.051,-0.0346,0.0246,0.00432,-0.00706,-0.00772,0.0195,0.00225,-0.0455,0.0226,-0.0344,0.0402,-0.0517,-0.0198,0.056,0.0399,0.0195,0.0265,-0.0268,0.0109,0.063,-0.0292,0.0348,-0.032,-0.0239,-0.0133,-0.0243,0.0555,0.056,0.0324,-0.0517,-0.033,0.00157,-0.00679,-0.0682,-0.00309,0.0303,0.0645,-0.04,0.0433,0.0619,-0.0513,0.0161,-0.0447,0.017,0.057,0.0495,-0.0232,0.0265,0.00913,-0.0565,0.0232,0.0231,-0.00567,0.00769,-0.0233,-0.0165,-0.0479,-0.0261,-0.0568,0.0172,0.0633,-0.057,-0.00975,-0.0343,-0.0503,-0.0316,-0.0021,0.0253,0.0489,0.0281,0.0414,0.0461,-0.0599,0.0187,-0.0002,0.0557,0.0285,-0.0536,0.0484,-0.0223,-0.0532,-0.0308,0.0433,-0.0412,-0.0547,-0.0142,-0.0516,-0.0265,-0.0331,-0.01,-0.00284,0.0332,-0.006,0.00855,-0.0314,0.000393,0.00884,0.0253,-0.0502,0.0132,0.00384,-0.0176,0.00213,-0.0541,-0.0184,-0.0312,0.0184,-0.00496,0.0075,-0.0403,0.00627,-0.00124,0.00953,-0.0404,0.0468,0.012,-0.0439,0.0468,-0.00182,-0.0583,-0.0166,0.0189,-0.0534,-0.0301,0.0487,-0.0127,0.0505,0.00548,-0.0489,0.0318,0.0448,0.0281,0.0622,-0.0213,0.0105,-0.0328,0.027,-0.054,0.0482,0.0439,-0.05,0.0537,-0.00694,0.0325,-0.0177,0.0488,0.00669,0.0206,0.0292,0.0279,0.0124,-0.0573,0.0276,-0.058,-0.0143,-0.00863,-0.00645,0.0459,-0.034,0.0275,0.0566,-0.0631,0.0272,0.00294,0.0138,0.0448,0.0208,0.009,-0.00463,0.0184,-0.0249,0.0431,0.0273,-0.0442,0.0215,0.0357,-0.0317,-0.0318,-0.0593,-0.00636,0.0152,-0.0493,-0.0026,0.0469,0.0311,-0.00501,-0.0107,-0.058,-0.0432,0.033,-0.0194,0.0241,-0.0449,-0.00405,-0.0316,-0.0556,0.0255,-0.0158,0.0419,-0.0407,0.027,0.00547,-0.0405,-0.0292,0.0453,0.0452,-0.0214,-0.0346,-0.0257,-0.0537,-0.0233,-0.0337,-0.0493,0.0334,-0.0525,-0.043,-0.00556,-0.0266,0.0138,0.0525,0.0443,-0.0219,-0.0469,-0.0361,-0.00988,-0.0103,-0.00644,0.0498,-0.0176,0.0575,-0.0302,0.0498,-0.0392,0.0375,-0.0672,0.00115,0.0399,0.00954,-0.0308,0.059,-0.00804,-0.0443,-0.0538,0.0521,-0.0321,0.0296,-0.0219,-0.0296,-0.0185,-0.0307,-0.0425,-0.0386,0.0532,-0.00735,-0.021,0.0449,-0.0467,-0.0503,-0.0275,-0.0155,-0.0591,0.00813,0.0489,0.0262,0.00305,-0.0328,-0.0209,0.0494,0.0387,0.00904,-0.0215,-0.0148,-0.0253,-0.0527,-0.0477,0.0308,0.0422,0.0537,-0.0407,0.0352,-0.0464,0.0302,-0.05,0.0391,0.0174,0.0196,0.0594,0.0141,0.0123,0.0178,0.0355,0.0333,0.0114,0.0395,0.0572,0.0229,0.0499,-0.0111,0.0377,0.035,0.03,-0.0284,0.0274,-0.0525,-0.014,-0.000778,0.0439,0.0289,-0.0309,0.0046,-0.0163,-0.0242,0.0129,0.0556,-0.0598,-0.0294,0.025,-0.0232,0.0127,0.0244,0.0519,0.0516,0.0337,0.0215,0.0122,-0.0441,-0.016,0.0169,-0.0246,-0.055,-0.0119,0.0339,-0.0124,0.0593,0.0561,-0.00241,0.0019,0.0174,-0.0331,-0.0269,-0.0372,-0.047,-0.0465,0.0166,0.063,-0.0575,-0.0529,0.0229,-0.0173,-0.00296,-0.0145,-0.0272,-0.0185,0.00877,-0.0201,0.0173,0.0552,-0.0413,0.0592,-0.0232,-0.0599,-0.0533,-0.0448,-0.00774,-0.0497,-0.038,-0.0347,-0.0229,-0.0357,-0.0216,-0.0102,0.0502,0.0611,-0.00951,-0.000711,-0.0475,-0.0506,0.0521,-0.0306,0.0347,0.000704,0.00734,-0.0398,0.0505,0.0271,-0.0338,0.0483,-0.0246,-0.0592,0.0101,0.00193,-0.0231,0.0396,-0.0266,0.0507,-0.0525,-0.00928,0.0528,-0.0169,-0.0452,0.0532,0.0131,0.0478,0.0536,-0.0134,0.045,0.0164,-0.0174,-0.0334,-0.0492,-0.0268,0.0394,-0.0127,0.0346,0.054,-0.054,-0.00328,-0.0382,-0.0169,-0.04,-0.0294,-0.00106,0.0247,0.0386,-0.0361,-0.00183,0.0112,-0.051,0.0218,0.0332,0.0478,-0.0502,0.0206,-0.0168,-0.0124,0.0122,0.00832,-0.00999,0.0231,-0.0327,-0.0485,-0.00441,-0.0412,0.0154,-0.0236,0.0612,0.00375,-0.0455,-0.0535,0.0534,0.0181,0.0231,-0.0208,-0.0648,-0.0568,-0.0527,0.0314,0.011,-0.0338,0.0606,-0.034,-0.0527,-0.0235,-0.0747,-0.0212,0.00674,0.0335,0.00556,-0.0378,-0.00514,-0.053,-0.0145,0.00536,-0.0365,0.0281,0.0487,0.0376,0.00628,0.0115,0.026,0.0475,0.0563,-0.0437,-0.0523,0.0319,0.0334,0.0593,0.035,0.0211,-0.053,-0.00723,-0.0474,0.0198,-0.0168,-0.0525,0.0489,-0.0442,-0.0499,0.0229,0.0177,-0.0106,0.0116,0.0183,0.0418,-0.0449,0.0152,-0.0127,0.0506,0.0126,0.0214,-0.0445,-0.0302,0.0326,0.0417,0.0384,-0.0115,-0.0228,0.0123,-0.0197,0.0176,-0.00799,0.0375,-0.0165,-0.0396,0.0295,0.0438,-0.051,0.0185,0.0146,-0.00945,0.033,0.0607,0.0259,0.0309,0.0584,-0.0424,0.0178,0.0256,0.0236,-0.0395,-0.0418,0.0442,-0.0188,0.0493,0.00703,-0.0326,-0.0371,-0.0487,-0.0373,-0.00707,-0.0144,0.0255,-0.0128,-0.00982,0.0324,-0.013,-0.0288,-0.0258,0.0232,-0.0431,0.0515,-0.0201,0.0132,-0.0268,-0.0551,-0.0232,0.0191,-0.0113,0.0493,-0.0495,0.0448,-0.0233,0.0383,0.00822,0.0283,0.0125,0.0141,-0.0331,-0.015,0.032,0.0525,0.0202,-0.0503,0.056,0.0222,0.026,0.0385,0.0571,-0.0116,0.034,-0.021,0.0364,-0.0472,-0.0136,0.0263,0.0489,-0.0268,0.0554,-0.00341,-0.0124,0.0267,-0.0149,-0.00509,-0.00354,0.0697,0.0137,-0.0577,0.024,-0.0419,0.0598,0.0191,-0.0049,-0.0423,0.0185,-0.0153,-0.016,0.0693,-0.0555,-0.0424,-0.00865,0.0119,-0.0449,-0.0352,0.0143,0.0558,-0.0302,-0.00279,-0.0164,-0.0457,-0.0402,0.0569,0.0196,0.0313,0.0187,0.00598,-0.0525,0.0249,-0.0117,-0.0444,0.0146,0.0613,0.0743,-0.0535,0.00015,0.0107,0.0216,-0.0219,0.0404,-0.0353,-0.00909,-0.0222,0.0505,0.0474,-0.00702,-0.0267,-0.0112,-0.0211,0.0299,0.0204,-0.0231,0.0667,0.0408,-0.00362,0.00527,-0.0465,-0.0426,-0.0186,0.0417,-0.00538,-0.00293,0.0508,-0.00795,0.000787,-0.000634,-0.076,-0.0223,0.0369,-0.0238,0.0177,-0.0588,0.0379,-0.0093,-0.0429,-0.0115,0.0395,0.0335,0.0684,-0.00204,-0.0131,-0.0412,-0.0478,0.0473,-0.0598,0.0539,0.0456,-0.0316,-0.0404,0.0153,0.0198,0.0174,-0.0442,-0.0472,-0.0574,0.018,-0.0402,-0.0284,-0.0279,-0.00238,-0.00129,-0.0198,0.0497,-0.0662,0.0253,-0.0498,-0.0331,0.0291,-0.0474,-0.0608,0.0198,-0.0247,-0.0475,-0.0459,0.00631,-0.0089,0.0555,-0.0188,0.0225,0.02,0.0233,-0.0175,0.0557,0.0493,0.0433,-0.00871,-0.0176,-0.0264,0.0375,-0.0348,0.0197,-0.0182,0.0143,-0.0391,-0.00657,-0.0349,0.0127,0.0534,0.0125,0.0557,0.0135,0.0594,-0.0599,-0.0345,0.0129,-0.0298,-0.0571,-0.0542,0.023,0.0487,-0.0453,0.0478,-0.0181,0.0201,0.00197,0.0087,-0.0477,-0.0194,-0.00499,0.0374,-0.0372,0.0101,-0.00812,-0.0468,-0.036,-0.00573,0.00708,-0.0191,-0.0267,0.0224,0.0104,-0.0111,0.0351,-0.0174,0.0205,0.0501,-0.0532,0.0494,0.00132,-0.0178,0.0414,-0.02,-0.0317,0.0118,0.0465,0.00779,0.0393,0.034,-0.0411,-0.0109,0.00406,-0.0372,-0.0259,0.00455,0.036,-0.0342,-0.0367,0.00626,-0.0122,0.034,0.0457,-0.0488,0.0433,0.0276,0.0266,0.0106,-0.0228,0.0282,0.0295,0.00808,-0.0549,0.0226,-0.0362,0.0357,-0.0322,0.0511,0.0262,0.0434,0.0272,-0.0267,-0.00456,-0.000113,-0.0276,-0.00599,-0.051,0.0283,-0.0198,-0.00266,0.0471,0.00416,0.00685,-0.0279,-0.0293,-0.0422,0.0151,0.0012,-0.0537,-0.0216,0.0288,-0.0375,0.0111,0.0166,-0.0259,-0.0484,0.00234,0.0237,0.0317,0.0154,-0.0217,-0.0361,0.0103,0.0372,-0.0406,-0.0447,-0.0179,-0.0226,0.0186,-0.0188,-0.0351,0.0226,-0.0445,0.03,0.03,0.0612,-0.0187,-0.00439,-0.0376,-0.0275,0.0559,-0.0288,-0.0404,-0.0373,-0.0322,-0.0206,-0.0616,-0.0434,-0.0217,0.0094,0.0461,-0.0491,0.0145,-0.0495,0.0104,0.0639,-0.0483,0.0211,-0.0462,-0.0474,0.0216,-0.0566,0.0195,-0.0281,0.0391,-0.0395,0.0245,-0.039,-0.0211,-0.0513,0.0206,-0.0354,0.00566,-0.0343,0.0455,0.0132,0.00189,0.0467,0.0293,0.057,0.0496,0.0379,-0.00116,-0.0124,-0.039,-0.0425,-0.00486,0.0344,0.0418,-0.0129,0.0222,-0.04,-0.0334,-0.0507,-0.0144,-0.0513,0.0303,-0.0169,-0.0248,0.0218,0.00776,0.0353,0.0304,-0.0187,0.017,-0.0372,-0.0376,-0.0567,0.0228,-0.038,0.0493,0.051,-0.05,-0.031,0.0447,-0.0588,-0.032,0.0284,0.0281,0.0501,0.029,0.00298,-0.0596,0.0217,0.0511,0.0418,-0.0375,-0.00608,-0.0178,-0.0279,0.0167,-0.0396,-0.00731,-0.00306,0.0484,-0.0583,-0.0529,0.00058,-0.036,-0.00146,0.0484,-0.0389,-0.021,-0.0518,0.0139,0.0128,0.0112,0.0259,-0.00921,0.0404,0.0274,-0.00493,-0.0244,-0.0186,-0.0354,0.0328,-0.0218,0.0539,-0.00991,0.0463,0.0606,-0.0047,-0.0163,0.0304,-0.0383,0.0279,0.0241,-0.0518,0.0432,0.0337,0.0351,0.0153,-0.02,0.0103,0.0453,0.0328,0.00909,0.0544,0.0294,0.0334,-0.0466,0.0422,0.0115,0.0608,0.0342,0.0506,0.00483,-0.0085,0.0198,0.0229,-0.00698,-0.00412,-0.0121,0.0435,0.0192,-0.0244,0.0481,0.0388,0.0188,0.0341,-0.0192,-0.0175,-0.0418,-0.0147,-0.00862,0.0418,-0.00528,-0.0526,-0.0292,-0.0454,0.0311,-0.0192,0.0308,0.0512,0.0375,-0.0461,0.0272,0.00106,0.0373,-0.0181,-0.0447,0.0338,-0.00387,-0.0177,-0.0564,-0.0138,-0.00287,-0.0113,0.0182,0.0411,-0.0481,-0.0415,-0.0364,-0.0506,-0.0365,-0.0285,0.0145,-0.0412,-0.0474,0.0382,-0.0315,0.058,-0.0482,0.00887,0.0422,-0.0349,-0.0418,-0.0479,-0.0371,0.0404,-0.0339,0.0489,-0.0355,0.0253,0.0516,0.0105,-0.00113,0.0605,-0.0222,-0.0184,0.0248,-0.033,-0.0358,-0.016,-0.0473,-0.0171,-0.0142,-0.0489,-0.031,0.0254,-0.0141,-0.0269,-0.0551,0.00174,0.00403,-0.0364,-0.0249,-0.0266,0.054,0.0243,-0.00562,-0.019,-0.023,-0.0121,0.0365,0.02,-0.0434,0.0365,-0.0227,0.042,0.00596,0.0465,0.0236,0.0575,-0.0146,-0.0518,-0.0166,-0.0103,0.00286,-0.0524,0.0226,0.0465,-0.0565,-0.0234,0.0467,0.0498,-0.0147,0.0309,-0.0067,0.0496,-0.0147,-0.015,0.0156,0.0316,-0.0443,0.0294,-0.0241,0.053,0.0356,-0.0416,-0.0392,-0.00766,-0.0179,-0.0311,-0.00529,-0.0245,0.00886,-0.0318,-0.0386,0.0291,0.0307,0.00385,-0.0215,0.00984,-0.0559,-0.00478,-0.00344,-0.0373,-0.0178,0.000109,0.0217,-0.0158,0.0575,0.0195,0.0231,-0.0474,-0.0152,-0.0505,-0.011,0.0625,-0.000998,0.0328,-0.0536,-0.0539,0.0316,-0.0174,0.00132,0.00781,0.00214,0.0301,0.0181,-0.031,-0.0157,-0.0447,-0.0275,-0.0335,0.0291,0.0303,-0.00391,-0.00452,-0.0226,0.0352,-0.022,-0.0407,-0.0161,0.0323,0.0478,-0.00426,0.022,0.0385,0.0529,0.0336,-0.0437,0.0483,-0.0613,0.0197,-0.0116,-0.00549,-0.000601,-0.037,-0.0332,0.0124,0.0241,0.0361,0.0464,-0.0242,0.0475,-0.0306,0.0246,-0.0108,0.055,0.0531,0.0475,-8.93e-05,-0.00786,0.0202,-0.0413,0.0206,0.0389,-0.0321,0.0374,-0.021,0.0128,0.0328,-0.0349,0.0249,-0.052,-0.00236,-0.0116,0.0413,-0.0296,0.0293,0.0449,0.0487,-0.0203,0.055,0.0505,-0.0254,0.0159,-0.0269,-0.0445,0.0221,0.0522,-0.0291,0.0322,0.0431,0.0449,0.0361,0.0453,-0.0518,0.0337,0.0562,-0.00428,-0.0452,-0.0239,0.00586,-0.016,0.0294,-0.0466,-0.0176,-0.0336,0.0532,0.0564,0.00472,-0.0521,0.0346,-0.0556,0.0077,-0.0405,0.00533,0.0493,0.0478,-0.0222,-0.0167,-0.0412,-0.0138,0.0365,0.0152,0.0532,0.0295,0.0607,-0.00418,-0.00313,0.0496,-0.0221,-0.0185,0.00325,-0.011,0.0454,0.0139,-0.0393,-0.0216,-0.0182,-0.0431,0.0125,-0.0242,-0.0523,0.0351,0.00436,-0.0123,0.0335,-0.0493,0.0464,0.025,-0.0142,0.00901,0.039,-0.00707,-0.005,-0.0183,-0.0425,0.0222,-0.0565,0.0127,0.0113,0.0102,0.0126,-0.0184,-0.0207,-0.0149,-0.0381,-0.0379,-0.00609,0.0183,-0.0523,-0.0316,0.0174,-0.0544,0.0332,0.0166,-0.0344,-0.0403,0.0433,0.0111,-0.0391,0.0617,0.0385,0.0454,0.0264,0.026,0.0238,-0.026,-0.0208,0.02,-0.0471,0.0422,0.0415,-0.0609,0.0347,0.00162,-0.0596,-0.00321,0.0647,0.0356,0.0302,-0.0185,-0.0139,-0.0601,0.0374,-0.02,0.00551,0.0106,0.0132,0.0196,-0.0281,-0.00419,-0.0278,0.0305,0.0299,-0.000843,0.0058,0.0402,-0.0412,-0.045,0.0258,0.0114,0.048,-0.0153,5.69e-05,-0.0118,-0.0289,0.00691,0.037,-0.018,0.0409,-0.0427,-0.0558,0.0327,-0.00952,-0.0485,0.00746,-0.0418,0.0224,0.0296,0.00394,0.0299,-0.0404,-0.0054,-0.0409,-0.0516,-0.0136,-0.0375,-0.0167,0.0117,0.00416,0.0557,-0.0525,-0.0178,-0.0544,0.0499,-0.0661,-0.0371,-0.0192,0.0481,-0.00735,0.0508,-0.0192,-0.0551,0.0221,0.0282,-0.0611,-0.0546,-0.0619,-0.0397,-0.0109,0.0333,0.0543,0.0458,0.0215,0.0105,-0.0417,0.0544,0.0153,0.000137,0.017,-0.0413,0.0317,0.0361,0.00243,0.017,0.0112,0.0397,0.0108,-0.0369,-0.00484,0.00328,-0.0409,0.0159,0.0219,0.0517,-0.0573,0.00196,-0.0377,0.00932,0.00712,-0.0509,-0.045,0.0196,0.039,-0.0535,0.0486,0.00348,-0.0118,0.00676,0.0107,0.000874,-0.0506,0.0177,-0.0223,0.019,-0.0107,0.0356,-0.0409,0.0176,0.0372,0.00641,0.035,0.0436,0.0467,0.061,-0.0266,-0.042,-0.0558,-0.0269,-0.0381,0.0315,0.0424,0.0151,-0.0522,0.00767,-0.00066,0.00474,-0.00746,0.0604,0.0088,0.0467,-0.00935,-0.00138,-0.0142,-0.0298,0.0232,-0.0187,0.00727,-0.0409,-0.023,-0.0339,-0.0339,-0.0206,-0.0247,0.0467,-0.00548,0.0136,-0.00626,-0.0285,0.00368,0.0525,0.0399,0.0187,0.0329,0.0172,-0.0257,-0.0307,-0.0249,-0.00841,0.0403,-0.0265,-0.0169,0.00416,-0.00171,0.0383,0.0277,-0.0621,0.0131,0.0128,-0.0237,0.021,-0.0524,-0.0239,-0.00646,0.00443,-0.0449,0.032,0.0432,-0.00905,0.0215,0.0391,0.0272,0.0101,0.0297,0.0339,-0.0349,-0.0172,-0.0211,0.0287,0.0515,0.0555,-0.0298,0.00352,-0.0343,-0.00527,0.0297,0.00602,-0.0119,-0.0212,0.0248,0.0273,0.0535,-0.000759,-0.0124,0.0252,-0.0216,0.0168,0.0369,-0.0604,0.0545,0.0524,-0.0354,0.024,-0.0299,0.025,0.0336,0.0365,-0.0282,-0.0502,-0.0505,-0.0349,0.0474,-0.0112,-0.0488,0.0289,-0.0441,-0.0314,-0.0146,0.00465,-0.00751,-0.0541,0.0155,0.0236,-0.0496,0.0325,0.0263,-0.034,0.0135,0.0492,0.00698,0.0464,0.0348,0.0589,-0.018,-0.0436,-0.0348,-0.0292,-0.00607,0.0149,0.0296,-0.00722,-0.0665,-0.00775,0.0145,-0.0456,0.031,-0.0497,0.0601,0.0377,-0.0486,0.0576,-0.0483,0.0205,0.0182,-0.0335,0.0424,-0.0227,-0.0207,-0.04,-0.0452,0.0112,0.0201,0.0155,-0.0352,0.0275,-0.0503,-0.05,-0.0348,-0.0185,0.0593,0.00464,-0.00772,-0.0357,0.0189,-0.0291,-0.0184,0.0306,0.00869,0.00206,0.0439,0.00383,0.00751,0.0159,-0.0357,0.00827,0.0385,0.0391,0.024,0.018,0.00854,0.0602,-0.028,-0.00559,-0.0576,0.0364,0.0397,-0.0326,0.0366,-0.0532,0.000676,0.0116,0.017,0.0333,0.00175,0.0245,0.0421,0.0336,3.62e-05,-0.0201,0.0343,0.0391,0.0396,-0.0609,0.00168,-0.00413,-0.046,-0.0101,0.0155,0.0436,0.00175,-0.0209,0.0469,-0.0158,0.000728,0.0083,0.0554,-0.016,-0.00499,0.0699,0.044,-0.0184,0.0485,-0.00218,-0.0485,0.0331,-0.00864,-0.0138,-0.0023,0.00408,0.0353,0.0414,-0.0102,0.0336,-0.00822,0.0264,0.0462,-0.0106,-0.0398,-0.0289,-0.0531,0.0374,-0.0213,0.0517,0.0174,0.0506,0.0368,-0.0254,0.0184,-0.0507,0.0366,0.0545,-0.0252,-0.058,0.0256,0.00107,0.0416,0.0696,-0.0181,0.00605,-0.064,0.0306,0.00472,0.0555,0.0383,0.0158,0.000852,-0.00269,0.0408,0.000843,-0.0152,0.0494,0.0365,0.00865,0.00197,0.0424,-0.00496,0.0162,-0.0266,0.0257,-0.0242,0.0451,0.00627,0.0348,0.0683,-0.0693,-0.0571,-0.0112,0.0479,-0.0199,-0.0315,0.0552,0.0435,0.0253,0.0546,0.00288,0.0209,-0.0515,-0.0333,-0.0451,0.0128,-0.0528,0.0152,0.0154,0.0215,0.0261,-0.00696,-0.00152,-0.0546,0.0105,-0.0115,0.0193,0.037,0.0222,0.0359,0.0444,-0.0194,-0.00755,-0.019,0.0159,0.0508,-0.0312,0.0108,0.0188,0.0249,0.0519,0.0388,0.0157,0.0333,0.0254,-0.0249,-0.0548,0.0463,0.0363,0.00524,0.00418,0.0366,-0.000988,-0.0223,0.0011,-0.00779,0.0301,-0.00667,0.0116,0.0188,0.0211,-0.0426,-0.0385,-0.0137,-0.0345,0.0366,0.0345,0.0103,-0.00801,0.0144,0.0392,0.00784,0.0482,0.0146,0.0588,0.00847,0.0572,0.00688,-0.00354,0.0437,-0.0128,0.0199,-0.0461,-0.00235,-0.0545,0.0041,0.0454,0.0408,-0.0182,-0.0158,-0.00568,-0.0476,-0.0256,-0.00509,0.00993,-0.00493,0.042,-0.0234,-0.0403,-0.0416,0.00914,0.0266,-0.044,-0.021,-0.0546,0.0378,-0.0282,0.0214,-0.0482,0.0634,0.0166,-0.0403,0.0479,-0.0298,-0.0475,-0.0301,0.0287,0.0113,-0.00345,0.0194,-0.000816,0.000554,-0.00256,-0.0392,0.0332,0.0419,0.0285,-0.0479,-0.0643,0.0245,0.0225,0.0112,-0.0337,0.0629,0.0598,-0.0587,-0.0362,-0.00322,-0.0248,0.0455,-0.043,0.0655,-0.00174,-0.0626,0.0542,0.033,0.0583,0.0333,-0.00633,0.0479,-0.0218,0.0438,0.0521,-0.00179,0.0148,-0.036,-0.00365,0.0284,-0.0581,-0.0587,0.053,-0.0161,0.0716,0.0193,-0.0461,-0.00701,-0.0218,0.0347,-0.0437,-0.000505,0.0563,-0.0459,0.00139,0.062,-0.008,0.047,0.0498,-0.0233,-0.0326,0.0094,-0.0387,0.00988,0.0495,0.00886,0.027,0.0258,0.0104,-0.033,-0.0209,-0.043,0.00806,-0.0205,0.034,-0.0288,0.0514,-0.00819,-0.0212,-0.00627,-0.0228,-0.00919,-0.0164,-0.0415,0.0257,0.0173,-0.045,0.00952,-0.0427,-0.0128,0.0499,0.0413,-0.0495,-0.0531,0.0229,0.0278,-0.0311,0.00186,-0.0404,0.054,-0.0498,-0.0403,-0.014,0.0346,-0.034,0.0234,-0.0135,0.0497,-0.0432,0.0576,-0.0391,0.0265,-0.0297,0.0026,0.0152,-0.0129,0.0514,-0.0204,-0.0467,0.0444,0.00011,-0.0527,-0.0297,-0.0799,0.00268,0.0401,0.0163,-0.0235,0.0265,0.0465,-0.0321,0.0536,0.0486,-0.0656,-0.0377,0.00711,-0.0544,-0.0475,-0.0234,0.0491,0.0216,0.00495,-0.0063,-0.0136,0.057,0.0343,-0.0447,0.0231,-0.0212,0.0468,-0.0507,0.023,-0.0274,-0.0462,-0.0234,-0.0416,0.0521,-0.0497,-0.0602,-0.00984,0.0239,-0.0153,0.054,0.0451,-0.0279,0.0293,-0.0182,-0.0135,-0.0106,0.0311,0.0239,0.0458,-0.00237,0.0383,0.0157,-0.0259,-0.0232,-0.0651,0.00918,0.0274,-0.0259,-0.0171,0.0227,-0.00237,-0.0338,0.00475,0.0496,-0.0437,-0.0181,0.0184,0.036,0.0237,-0.0338,-0.0326,0.0122,0.0074,0.0402,-0.0617,-0.024,0.0439,-0.0358,-0.00206,-0.0492,0.0178,-0.0351,0.0411,-0.0245,0.055,0.00977,0.0509,-0.0341,-0.0435,-0.0521,0.0263,0.00442,0.0031,-0.0464,-0.0419,-0.0469,0.0308,0.0302,-0.0533,-0.0527,3.8e-05,0.0232,0.0164,-0.0187,0.0553,0.0413,-0.0153,0.049,0.0253,0.0494,-0.0322,-0.0135,-0.00529,0.0468,0.0271,0.032,-0.00589,-0.0182,-0.051,0.0142,0.00341,-0.01,-0.0226,-0.0237,-0.00913,-0.0581,-0.0458,-0.0296,0.0441,0.0318,0.0156,-0.0244,0.00612,0.0119,0.0594,0.0485,-0.015,0.0561,0.0391,0.0145,0.053,0.0299,-0.0308,-0.0537,0.00454,0.0118,0.0578,0.00518,0.0254,-0.0397,0.0256,0.0188,0.0255,0.043,-0.0118,0.0202,0.0517,-0.0033,-0.0131,0.0295,0.0192,0.0375,0.0348,-0.00769,-0.0482,-0.0326,0.01,-0.0295,-0.0307,0.0222,-0.00386,0.0322,-0.0281,0.048,-0.014,0.003,0.0135,-0.051,-0.0384,-0.0132,-0.021,-0.00326,0.0228,-0.00624,0.0109,-0.0284,-0.036,0.0513,0.00374,-0.0355,-0.0194,0.0479,0.00525,-0.0541,0.0345,-0.00359,0.0134,-0.0504,0.0193,0.0239,0.0524,0.00544,0.0126,-0.032,-0.0283,-0.0227,-0.0143,0.00189,0.0109,-0.0297,0.0102,0.0363,0.0458,-0.0271,0.0245,-0.00243,-0.0318,-0.0516,-0.00607,0.0674,-0.0437,0.0147,-0.0137,-0.0499,-0.0628,-0.0187,-0.0355,0.0342,0.011,0.0458,0.0562,-0.0432,-0.0397,-0.0505,0.0333,-0.0145,0.0508,-0.0354,-0.00566,0.0504,0.00971,-0.0402,-0.0451,-0.0124,0.0632,-0.0232,0.0329,-0.000331,0.0487,-0.0319,-0.00644,-0.0116,0.051,-0.00219,-0.0583,-0.00477,0.0357,0.00538,0.0517,-0.00268,-0.00106,0.0107,0.00434,0.0489,0.00941,0.043,0.0471,-0.0334,0.00406,0.0262,0.0563,0.0404,-0.0489,0.0215,0.0483,-0.0324,0.0223,0.05,0.0235,0.000983,-0.0572,0.0141,0.00925,-0.0135,-0.0505,0.0153,0.0129,-0.0543,-0.00753,-0.0288,-0.0506,-0.0389,-0.0219,0.0172,-0.0112,0.0572,0.0419,-0.0357,-0.0219,-0.0559,0.00849,0.0425,0.00384,-0.0292,-0.0455,0.00527,0.0361,-0.0537,-0.0586,-0.0519,-0.0258,0.000543,0.0112,0.0102,-0.0112,-0.0445,0.0444,0.0496,0.0543,0.0234,0.055,-0.0149,-0.0183,0.0371,0.0451,-0.00875,0.0625,-0.0554,0.0473,-0.0245,0.00775,0.0105,-0.0506,-0.0255,0.0262,0.0133,0.0234,-0.0356,0.0321,0.0586,0.0142,0.0421,-0.0116,-0.0415,-0.0437,0.0588,0.0367,0.00615,-0.0379,0.0229,0.0271,-0.0439,0.0386,-0.0462,0.0127,-0.0339,0.0287,0.0386,0.0118,0.0529,-0.0444,0.0457,-0.0382,0.0259,-0.0145,0.034,-0.0455,-0.0187,0.017,0.0488,-0.00923,0.0202,0.0322,-0.05,-0.0209,0.0384,-0.00278,0.0459,0.00435,0.0479,0.0139,0.0344,0.03,0.0303,0.0315,0.0362,0.0273,0.00886,0.0158,0.00118,0.0394,0.0371,-0.0582,-0.0543,-0.0504,-0.055,-0.0283,-0.0071,-0.0132,-0.00839,0.0557,-0.0511,-0.0506,-0.028,0.0206,0.0491,-0.037,0.052,0.00792,0.0476,-0.0437,-0.0183,0.0486,0.0384,0.0419,-0.0561,0.0119,-0.0484,-0.0178,-0.061,0.0152,0.0517,0.0485,-0.00233,0.0106,-0.0287,-0.00287,-0.038,0.0543,0.0262,-0.038,0.0383,0.0516,0.00476,0.0413,0.0599,-0.00403,0.00184,0.0369,-0.00615,0.0201,-0.0114,-0.0042,0.0291,0.00654,-0.061,0.0523,0.0149,-0.0503,0.0137,0.0065,0.0471,0.0211,0.0419,0.0268,-0.00294,-0.0346,0.0449,-0.0594,0.0141,0.0423,-0.0364,0.0119,-0.0102,0.00213,0.00129,-0.0173,-0.0505,0.0439,0.0274,0.0416,-0.0367,-0.0159,-0.0297,-0.0463,-0.0372,0.0215,-0.0114,0.0526,0.052,0.00354,0.0481,0.0512,0.0523,-0.0241,-0.00269,0.0222,0.0241,-0.0425,0.0323,-0.0174,0.0232,0.0447,0.0313,-0.0079,0.0497,0.00204,-0.018,0.0207,0.0462,0.015,-0.0125,-0.00305,0.057,0.0339,-0.00306,-0.0561,0.0126,0.0425,0.0218,0.0558,0.00376,-0.00432,0.0412,-0.0547,-0.0516,-0.0419,-0.00961,0.00815,0.0574,0.0156,-0.0194,0.00579,-0.0529,0.0355,-0.0548,0.0111,-0.0278,-0.0441,0.0133,-0.0515,0.0423,-0.0114,-0.0165,0.0161,0.0336,0.0451,0.00257,0.0338,0.0227,0.0574,-0.0565,-0.00231,0.0424,0.0247,0.0665,-0.0475,-0.017,0.0295,0.0615,-0.00411,-0.0156,-0.00283,0.057,-0.0432,0.0195,0.0516,-0.0232,-0.0226,0.00296,-0.048,0.0533,-0.0524,0.0404,-0.0327,-0.011,0.0182,-0.0165,-0.000149,-0.0108,0.021,-0.0258,-0.000449,-0.0404,-0.0517,0.013,-0.0228,0.0243,0.0518,-0.0527,-0.0458,-0.0194,0.0574,-0.0413,-0.0387,-0.00329,0.0383,-0.0227,-0.0512,0.0259,0.0136,-0.0514,0.0111,-0.013,-0.0262,-0.0443,0.0535,0.0498,0.0228,0.0526,-0.0169,-0.0308,0.0195,-0.00662,0.0109,-0.0329,-0.0537,0.033,0.0122,0.0014,-0.00521,0.0302,0.0502,0.0129,-0.0367,0.0462,0.0318,0.00282,-0.0499,-0.033,0.0462,-0.0413,-0.0391,-0.00767,-0.026,-0.0565,0.00524,-0.023,-0.0226,0.0329,0.0311,0.0108,0.0379,-0.0335,-0.0328,-0.0218,-0.0227,-0.0214,0.0337,-0.0523,0.0139,-0.0256,-0.0547,-0.0125,0.041,-0.00953,-0.0559,0.0127,0.0225,-0.0282,-0.0391,-0.0491,0.0146,0.0345,-0.0278,0.0415,-0.027,0.0186,0.0579,0.0429,0.0157,-0.055,0.0394,0.05,-0.0216,0.0503,-0.0368,-0.0251,0.0518,-0.0177,0.0239,0.0507,-0.0582,-0.0186,0.0316,0.0533,-0.000982,0.00188,-0.0275,0.00979,0.0572,-0.051,0.0367,0.0104,-0.0552,0.0303,0.0396,0.00511,0.026,-0.047,0.0341,-0.0285,0.024,0.0165,0.0309,-0.0159,0.0426,0.0298,-0.029,-0.0437,0.0355,0.00779,0.0312,-0.0477,-0.0549,0.0147,-0.0225,0.036,-0.0354,0.0131,-0.0236,-0.00385,0.0148,0.00574,-0.00406,-0.0386,0.0136,0.0176,-0.0406,0.0218,0.00994,-0.0209,-0.0324,-0.021,0.0365,0.0153,0.06,-0.0391,-0.026,-0.0436,-0.0408,-0.0253,-0.0314,-0.0645,0.0237,-0.0067,0.046,0.0624,0.0141,0.00502,0.00663,0.0524,0.00012,0.0273,-0.00798,-0.0481,0.0102,-0.0543,-0.0507,-0.0237,0.0199,-0.0504,0.0304,0.0103,-0.0491,0.0034,0.0998,-0.0423,-0.0576,-0.0538,-0.0591,0.00187,0.021,-0.0505,-0.0401,-0.0324,-0.0476,-0.0468,-0.00635,0.0715,-0.00623,-0.0339,-0.0411,-0.0595,0.0356,0.0475,0.028,-0.049,-0.0676,-0.0335,-0.039,-0.0173,0.043,-0.044,-0.0298,0.0307,0.00476,0.0471,0.0934,0.0387,-0.00307,0.0497,0.0337,0.018,-0.0357,-0.0068,0.00557,0.0407,-0.0512,-0.0107,-0.0217,0.0538,0.043,0.0336,0.042,-0.00675,0.0487,0.00401,0.0444,-0.0068,0.0227,-0.0186,0.0409,-0.00141,-0.0222,0.0337,0.0412,-0.029,-0.00276,-0.0244,0.0553,0.00762,-0.0486,0.00127,0.0136,-0.0308,-0.00308,0.0311,-0.0424,-0.0271,-0.00797,0.0621,-0.0845,0.0662,-0.0173,-0.00281,-0.06,-0.0173,-0.0528,0.00539,-0.0312,0.00614,-0.00664,-0.0119,-0.0203,0.00222,-0.0373,0.0537,0.000977,-0.0076,0.0349,-0.0505,-0.0311,-0.0232,0.0127,0.0408,-0.0361,-0.0251,0.0193,-0.0404,0.0642,0.0102,0.0279,-0.0111,0.0317,-0.0398,-0.00751,-0.0124,-0.0312,0.0586,0.0228,0.00269,-0.0129,0.0696,-0.0205,0.00989,-0.0109,0.0522,-0.0663,0.000721,0.0161,-0.0566,0.0474,-0.0386,-0.0111,-0.000549,0.0281,0.0268,0.0256,0.00142,-0.00252,-0.026,-0.0233,0.0561,-0.0406,-0.0282,0.0161,0.0629,-0.0217,-0.0336,-0.00235,0.018,-0.00491,-0.00632,0.000524,-0.0202,-0.0079,-0.0122,0.0178,-0.0476,0.0819,-0.021,-0.0395,-0.0294,0.0137,0.017,0.0233,0.00508,0.0377,0.0305,0.0102,-0.0577,0.031,-0.0197,0.00408,0.0135,-0.039,0.0194,0.0438,0.0233,0.0439,0.0548,0.044,-0.0143,0.0428,0.0579,0.0153,0.0165,0.0204,-0.0178,0.0387,0.0121,0.0778,0.0265,-0.052,-0.0041,-0.0485,-0.0312,0.0596,0.025,0.0495,-0.0344,0.0355,0.0467,0.0598,-0.0347,0.0117,-0.0538,-0.0363,0.0552,0.0352,0.00574,0.000227,0.0197,0.0399,0.0484,-0.0338,-0.0404,-0.0384,0.0276,-0.0221,-0.0255,0.0544,0.0522,0.0488,0.0199,-0.0328,0.0303,0.00897,-0.0261,-0.0402,-0.0404,0.047,-0.013,0.0471,-0.0217,0.0605,-0.0481,-0.003,-0.0473,-0.0364,-0.0402,0.011,-0.0457,-0.0137,-0.00809,-0.0544,-0.042,0.0605,-0.0473,0.00662,-0.0476,0.00688,0.049,-0.039,-0.00943,-0.0448,0.0535,-0.0246,-0.00868,0.0336,-0.0209,0.0127,0.0266,0.00314,0.047,0.0355,0.0431,-0.0459,0.0613,-0.0515,-0.0579,-0.0228,0.0485,-0.049,0.0595,0.0525,-0.0543,0.0177,0.0363,-0.0459,0.00401,0.0494,-0.0536,0.00868,-0.045,0.0528,0.0372,-0.0401,-0.0483,0.0532,-0.00314,-0.0236,-0.0175,0.045,0.0195,0.0419,-0.0229,-0.0367,-0.0112,0.00447,0.00653,-0.0455,0.0167,-0.0214,-0.0321,0.0198,0.0337,0.028,-0.0272,0.0466,-0.0432,0.000293,-0.0486,-0.0253,0.0419,-0.022,-0.045,0.0245,0.0184,0.0217,0.0054,-0.0378,0.0304,-0.0382,0.0234,0.0175,0.0147,-0.0259,-0.012,0.0342,0.0476,-0.00551,0.036,-0.0495,-0.0549,0.0174,-0.0311,-0.0286,-0.000816,0.0166,0.00926,-0.0364,0.00965,0.0522,-0.000855,0.0294,0.0436,-0.0308,-0.0124,-0.00587,0.021,-0.017,-0.0298,-0.00749,0.00645,0.0282,-0.0416,0.0301,0.0616,0.0554,0.0187,-0.0147,-0.0218,0.0187,-0.0133,-0.0126,-0.0166,0.0365,0.00375,-0.00791,0.0125,0.0423,0.0454,0.0356,-0.0496,-0.04,0.0569,0.0574,-0.0491,0.0123,-0.061,-0.0235,-0.00973,-0.0377,0.0398,0.00297,0.0129,0.0486,-0.00395,-0.0105,0.0147,0.0592,-0.045,0.00612,0.0113,0.0439,0.0122,0.0529,0.00875,-0.0278,-0.0516,-0.0339,0.0306,0.0133,-0.0155,-0.0144,0.0548,-0.0492,-0.0333,0.0289,-0.0197,0.0118,-0.00323,-0.0488,-0.0211,-0.0444,-0.019,-0.0137,-0.0429,-0.0112,-0.0191,-0.0592,-0.0113,0.0481,-0.0226,-0.0189,0.0226,0.0273,0.0454,0.055,0.0151,-0.0527,0.019,-0.0595,-0.0149,0.0404,-0.0465,-0.0224,0.00185,0.00287,0.031,0.0482,-0.0238,-0.0565,-0.0279,0.0182,-0.0264,0.0607,-0.0582,0.0481,0.0637,-0.000849,0.034,-0.047,-0.00334,-0.0364,-0.0409,0.00201,-0.0278,-0.0539,0.0113,-0.0217,0.0438,-0.0106,0.00125,-0.0562,0.0325,-0.0399,-0.00448,-0.0174,-0.0496,0.0158,0.0573,0.0537,0.0592,-0.0286,0.0314,0.0364,-0.00338,-0.0233,-0.0273,-0.00872,0.0257,0.00551,-0.0296,0.0512,-0.0152,0.0422,0.022,-0.0324,0.0339,-0.0507,-0.0377,0.0188,0.0498,-0.0386,-0.0274,-0.0632,-0.00842,-0.0132,-0.0573,-0.00819,0.0139,0.0512,-0.0522,0.0121,0.033,0.00512,-0.0113,0.0512,0.00438,-0.0498,-0.00111,0.0478,0.0113,0.0524,0.000847,-0.0402,0.0405,-0.0143,-0.0108,0.0159,0.0561,-0.0356,-0.0272,0.0106,-0.0252,-0.0553,0.0262,-0.00117,0.0396,0.0491,0.0572,0.0185,0.0197,-0.0459,0.0345,-0.031,0.0279,0.0412,0.043,-0.0414,-0.0429,-0.00587,0.00515,-0.0419,-0.0454,0.0398,-0.0396,-0.0501,-0.0458,-0.0206,-0.0375,0.0165,0.00633,0.0553,-0.0431,-0.0241,0.0203,0.033,0.0342,-0.0192,-0.0031,0.0352,0.0167,0.00834,0.000848,-0.00531,0.0136,0.0544,-0.0492,-0.0482,-0.0449,-0.0468,-0.0609,-0.0256,0.0515,0.0156,-0.0227,0.0295,-0.0353,0.011,-0.0171,0.0604,0.0188,0.0336,-0.0119,0.0436,0.0143,0.0288,0.0508,0.0297,-0.0528,0.06,-0.0256,0.0442,-0.0174,0.0384,0.0363,-0.0701,-0.0225,0.0371,0.023,-0.042,0.0548,0.0154,0.0488,-0.0211,-0.0171,0.0113,-0.0235,0.0266,-0.0388,-0.00881,0.0295,0.0408,0.00723,0.0534,0.0326,0.0533,-0.0212,-0.0401,0.0192,0.0344,-0.063,-0.0339,-0.0117,0.00572,-0.00311,-0.0345,-0.0461,0.0422,0.000411,0.0298,-0.0165,0.0192,-0.0307,0.0124,-0.0651,0.0133,-0.0302,0.0244,0.0348,0.0186,-0.0294,0.0238,-0.0394,0.0529,-0.0247,0.0255,0.037,-0.0378,0.0436,-0.049,-0.0406,-0.0137,-0.012,-0.0187,6.19e-05,0.0232,-0.00878,0.0435,-0.0442,-0.0331,-0.052,-0.0358,-0.0343,-0.0107,0.043,-0.000713,0.0511,0.0633,0.0156,0.0603,0.0176,-0.00345,0.0367,-0.0493,-0.0139,-0.0366,0.00878,-0.0536,-0.0627,-0.0208,-0.000121,-0.0388,0.0347,-0.0191,-0.0513,-0.025,-0.0212,0.0276,-0.00291,0.0536,-0.0152,-0.0188,-0.0116,-0.0314,-0.0293,-0.045,0.00435,-0.00502,-0.0573,-0.00999,-0.0297,0.0167,-0.0491,0.0446,0.0337,-0.0665,-0.0537,0.0432,-0.0486,0.0635,-0.0203,-0.0698,0.057,0.0171,-0.0192,-0.0331,0.0475,0.0216,0.0282,-0.0343,-0.0121,-0.00418,-0.018,0.017,0.025,-0.0355,0.00484,-0.00855,-0.0073,-0.0237,-0.0423,0.054,0.0658,0.016,0.06,-0.0516,-0.0501,0.0417,-0.0314,0.025,0.0616,0.0366,-0.0456,-0.0418,0.0275,0.0297,0.0573,-0.0325,0.0018,0.0316,0.0473,-0.0278,-0.0139,0.0299,-0.05,-0.0428,0.0137,-0.0443,-0.0599,-0.0485,0.0597,-0.0225,0.0308,0.0208,0.0359,0.0343,0.0307,-0.0595,-0.0184,-0.0182,-0.0531,0.0122,0.052,0.0253,-0.0479,-0.0263,-0.0181,-0.0598,0.0258,0.0253,0.024,0.0361,-0.00972,-0.00204,-0.039,-0.00953,0.0152,-0.0417,-0.0037,-0.0482,-0.0506,-0.00714,0.0252,0.0217,-0.0179,-0.0171,0.027,0.0195,-0.0135,-0.0389,-0.00998,-0.0423,-0.0218,0.0146,0.0215,-0.017,-0.00504,0.033,0.0274,-0.0405,-0.00174,0.0298,-0.0475,0.0419,0.0302,-0.0595,-0.0201,0.0572,0.0504,-0.0234,0.0464,-0.0617,-0.0591,0.00421,0.0259,0.0539,-0.0442,0.0252,0.0186,0.00608,-0.00743,0.0572,-0.0269,0.0217,0.0107,-0.00914,-0.0327,0.0312,-0.0308,0.0182,-0.0257,0.0108,0.0147,-0.02,0.0604,0.0316,-0.0247,-0.0451,-0.0263,-0.0276,0.0172,0.0423,0.0297,0.0583,0.0333,-0.057,-0.0302,-0.0425,-0.00267,-0.00889,0.0172,0.049,-0.0118,0.0425,0.0165,-0.0563,0.0432,0.0405,0.0382,0.00684,0.03,0.0495,0.0544,0.0306,-0.00764,0.0466,0.0133,0.0105,0.0361,0.0399,0.0403,0.0332,0.0493,-0.013,0.0408,0.0627,0.00732,0.0319,0.0205,0.0484,-0.00227,-0.0415,0.052,-0.0158,-0.0202,0.038,-0.0342,-0.0603,0.0158,-0.0347,-0.0519,-0.0583,-0.0377,-0.047,0.0341,-0.013,0.0218,-0.00183,0.0509,0.00675,0.00719,-0.047,0.0451,0.0536,-0.0233,-0.00896,-0.00152,0.0622,-0.00473,-0.0161,-0.0107,-0.03,-0.0403,-0.033,0.0419,0.0142,0.027,0.0155,-0.0198,0.0377,0.0056,-0.0542,-0.043,0.0315,0.0501,0.00533,-0.0391,-0.0211,-0.00514,-0.0636,0.0548,0.0755,0.0186,0.0366,0.0344,0.0473,-0.0392,0.00442,0.0457,0.0658,0.019,0.0449,0.0333,-0.0404,0.0474,-0.0272,0.00893,-0.000865,0.0011,0.0592,0.0281,-0.0278,-0.0188,-0.00156,-0.0457,0.0418,0.0324,-0.018,0.0303,-0.0305,0.0135,-0.00301,-0.0318,0.0392,-0.03,0.0379,0.00581,-0.0582,-0.0513,-0.0207,0.0212,-0.00813,0.0213,-0.052,-0.0364,-0.0221,0.00215,0.0496,0.0218,0.043,-0.0398,0.0097,0.0223,-0.0174,-0.0477,-0.0403,-0.0355,-0.0114,-0.0391,-0.0117,-0.0404,-0.0489,0.047,0.0293,0.0391,-0.0274,-0.0392,0.0276,0.0294,0.0107,0.054,0.0474,0.0457,-0.000265,-0.0197,0.0497,0.0196,-0.0176,0.025,-0.035,0.00624,-0.0481,0.0122,0.0204,-0.00827,-0.0248,-0.0357,-0.00221,-0.00482,-0.0572,0.0295,0.00874,-0.0782,0.0108,-0.033,0.0242,-0.0518,-0.0376,0.0448,-0.0441,0.0282,-0.0349,-0.0214,-0.0465,0.049,0.00016,0.0173,-0.0427,0.05,-0.00484,0.0134,-0.014,-0.0516,0.0396,0.0575,-0.027,-0.0358,-0.00979,-0.0323,-0.0469,-0.0147,0.00726,-0.0241,0.012,0.00446,0.039,0.0126,0.0261,-0.0127,-0.0934,-0.00422,-0.0405,-0.0481,0.0101,0.0276,0.0369,-0.0227,0.0166,0.0188,0.0342,0.0372,0.0171,0.0175,0.0377,-0.0323,-0.024,0.0241,-0.0459,0.0337,0.0506,-0.0545,-0.02,-0.00553,-0.0278,0.0513,0.00527,0.0463,-0.0268,0.00667,0.00155,0.0205,0.0245,-0.0345,0.0553,-0.0519,-0.025,-0.0254,-0.00433,-0.00417,-0.0228,-0.0301,-0.0182,0.00124,-0.0483,0.0555,-0.0291,-0.0524,0.0134,-0.0452,-0.0194,0.0369,0.033,0.0536,0.0221,-0.0364,0.0314,0.0233,-0.0433,0.00284,0.0345,0.0204,0.0478,-0.0399,-0.0107,0.0188,0.0616,-0.00281,0.0127,-0.00876,0.0168,0.0348,-0.0164,-0.0203,-0.0365,-0.0109,0.0289,0.0446,0.0642,-0.0565,-0.0514,0.0364,0.0043,0.000686,-0.0406,0.0141,-0.0307,-0.029,-0.0313,-0.0543,-0.0589,0.042,-0.0351,-0.0108,-0.0499,0.0602,0.0464,0.0346,-0.0444,0.0318,-0.0369,0.0167,0.0608,0.00522,0.0573,-0.0528,0.00641,-0.0299,-0.0379,0.0514,-0.0342,-0.0238,0.0104,-0.028,-0.0293,-0.012,0.0458,0.00151,-0.0449,0.0153,-0.0104,-0.0455,-0.0383,-0.0582,0.0369,0.021,-0.0173,-0.033,-0.00953,-0.0215,-0.0499,0.013,0.0384,0.0665,0.0607,0.000921,-0.0403,0.00169,0.0498,-0.0627,0.0384,0.0454,0.00881,-0.0507,0.019,-0.00374,-0.0589,0.0438,0.0349,-0.0131,0.0529,0.00393,0.0336,-0.00659,-0.0344,-0.041,-0.0117,-0.0384,-0.0243,-0.0235,-0.051,0.0633,0.059,-0.0374,-0.00698,-0.0101,2.77e-05,0.0619,0.055,-0.0293,-0.0661,-0.00925,-0.024,0.0357,-0.046,-0.0207,0.0668,0.0288,0.0387,-0.0542,0.0501,-0.0273,0.0137,-0.049,0.0248,-0.0271,-0.0463,0.0279,0.0413,0.0228,0.0546,-0.0145,-0.0355,0.0588,0.0251,-0.0301,-0.0643,0.0188,-0.028,0.0506,0.0263,-0.0481,-0.0144,0.0236,-0.0344,-0.031,0.0077,0.015,-0.0701,-0.0118,-0.0103,-0.00258,-0.0039,0.0403,-0.0508,-0.0354,-0.0209,0.0584,0.017,0.0178,-0.043,-0.021,-0.0553,0.0545,0.0397,0.00363,-0.0217,-0.0537,0.0162,-0.0129,-0.0291,-0.021,-0.0472,-0.0531,0.0217,-0.0603,0.0106,-0.00185,-0.0378,-0.0374,0.0471,-0.0163,-0.0482,0.0611,0.0591,-0.0399,-0.0592,0.0342,0.0495,0.0583,-0.021,0.0351,0.0229,0.0398,-0.0133,0.0462,-0.0579,-0.000152,0.0323,0.0028,0.0367,0.0503,-0.0135,-0.00288,0.0286,0.0012,-0.0218,-0.0386,-0.0305,-0.00566,-0.0324,0.0385,0.0202,-0.0091,0.0524,-0.00647,0.0246,0.0113,-0.0336,-0.0304,-0.0224,0.015,0.061,-0.00977,-0.0201,-0.055,0.0377,-0.0404,-0.00629,0.0486,-0.0397,-0.0268,0.0344,0.0407,-0.0553,0.0612,-0.0096,-0.00433,-0.00108,-0.0497,-0.0434,-0.0495,-0.0554,0.0536,-0.0355,-0.0198,-0.0352,-0.0174,-0.0506,0.0167,-0.0362,-0.0253,0.02,0.0517,-0.0374,0.0438,-0.00168,-0.0082,-0.00289,-0.0103,0.00189,0.0627,0.00232,-0.0344,0.05,0.0298,-0.00804,0.0135,-0.0469,0.0592};
float f1_0_bias[32] = {0.0303,-0.0301,0.0582,-0.0312,0.0197,0.00666,0.0276,-0.0476,-0.0158,-0.000896,-0.023,-0.0559,0.011,0.00492,0.0228,0.0181,0.0231,-0.0185,-0.0441,0.0583,-0.0256,-0.0224,0.03,0.0264,0.0578,-0.00203,-0.0199,-0.00621,0.0536,-0.0238,-0.0182,-0.00555};
float f1_1_weight[32*32*3*3] = {-0.00877,0.0365,-0.0415,-0.0481,-0.0361,0.0604,0.0357,0.0129,-0.0023,0.0514,0.035,0.0449,0.0416,0.0387,0.0311,0.00139,0.0533,-0.0433,-0.0108,-0.0501,0.0473,-0.0416,-0.0197,0.012,-0.00885,0.0006,0.0568,-0.00236,0.00618,-0.0525,0.0344,-0.00779,0.0441,0.0125,-0.00807,0.0266,-0.0193,0.0211,-0.0439,-0.00365,-0.0205,-0.0221,-0.0479,0.026,0.0308,-0.0353,-0.0517,0.0481,0.0551,0.0138,-0.0208,0.0536,0.0379,-0.0568,0.0539,-0.00432,0.0467,-0.0178,0.0602,0.0526,0.0357,-0.0571,0.0113,-0.0487,0.024,0.00213,-0.000824,-0.0386,0.0315,-0.0437,0.053,-0.0468,-0.0156,-0.0366,0.0205,0.028,-0.0173,-0.0639,-0.0317,0.0214,-0.0278,0.0139,-0.0444,0.00486,-0.0271,0.0203,-0.0178,0.023,-0.0351,0.00849,-0.0293,-0.0365,-0.0156,0.0284,-0.0402,0.0209,0.0658,0.0239,0.00405,0.00525,-0.0635,0.0341,-0.0168,0.0229,-0.00626,-0.00283,-0.0414,0.0201,0.0614,0.0428,-0.0464,-0.0179,0.0115,0.00895,0.0112,-0.0144,0.0164,-0.0633,-0.051,0.0339,0.047,0.00155,-0.0305,-0.044,0.0273,0.0247,-0.0183,-0.0445,-0.0283,-0.0094,-0.0444,-0.0032,0.0256,-0.0507,0.0203,0.0295,0.0157,0.0545,0.0286,0.00563,-0.00834,0.00184,0.00986,0.0146,0.061,-0.0125,0.00186,-0.0437,0.0499,0.00871,-0.0273,-0.0539,-0.0546,0.0068,0.0294,-0.0486,-0.00165,-0.00565,0.0162,0.0188,-0.0375,-0.047,0.0178,0.013,-0.0688,0.0272,-0.0593,0.0246,0.0306,0.0557,0.0414,-0.0133,-0.0295,0.0112,-0.0536,0.0168,0.0257,0.0487,-0.0532,0.0282,-0.0194,-0.0546,-0.0206,-0.00722,-0.0348,-0.0296,0.0533,0.0342,-0.0433,0.00922,0.0627,0.0289,0.0322,-0.00536,-0.0533,-0.043,-0.00646,-0.0365,-0.034,-0.0249,-0.0547,-0.0141,0.0346,-0.0358,0.057,0.0497,0.0433,0.0467,-0.0221,0.0636,-0.0427,0.00356,-0.0196,-0.061,0.0443,-0.00591,-0.0289,-0.0259,-0.0289,-0.0602,-0.0239,0.0138,-0.0485,-0.0456,-0.0453,-0.0568,0.018,-0.0173,-0.0488,-0.0561,0.0535,-0.0583,0.0248,0.047,0.0471,0.0246,0.0587,-0.0122,-0.0437,-0.0471,0.0192,0.000592,-0.0559,0.0219,0.0548,-0.0658,0.033,0.0506,0.00275,0.0255,0.00895,0.00798,-0.038,-0.0129,0.0492,-0.00501,0.00202,0.0443,0.00907,-0.00326,0.0483,-0.00908,-0.0554,0.022,0.021,0.0118,-0.0147,-0.044,0.0204,-0.0341,0.0577,0.0398,-0.036,-0.0166,0.0294,-0.0302,-0.0235,-0.0607,-0.00355,0.0264,0.0234,0.0393,-0.00705,-0.00289,-0.00642,-0.0398,-0.0164,-0.0283,-0.0052,-0.0501,0.0488,-0.0133,-0.0107,-0.0187,-0.00205,0.0113,0.0398,-0.0533,-0.0126,-0.0229,0.0135,0.0365,-0.0195,0.0337,-0.0444,-0.00126,-0.0382,-0.0312,0.0378,-0.0246,0.0131,0.0187,-0.0399,-0.0366,0.0643,0.0058,0.0509,-0.0401,0.0243,-0.0184,0.00513,0.058,0.0422,0.0453,-0.0284,0.0308,-0.062,0.0261,0.017,0.00202,-0.0388,0.0184,-0.0188,-0.0427,0.0352,0.0589,-0.00133,0.0561,-0.0487,0.0424,0.048,-0.0393,0.03,0.0349,-0.0313,-0.0582,-0.00231,-0.026,0.0382,0.00142,0.0218,0.0455,0.0587,0.0188,-0.0226,-0.0505,-0.0477,-0.0162,-0.0141,0.0211,-0.0294,-0.0415,-0.0344,0.00929,0.0197,0.0418,0.0496,0.0577,0.00512,0.037,-0.00374,-0.0305,0.0444,0.0514,-0.0408,-0.0442,-0.0182,0.0278,0.00846,0.00216,-0.0491,0.0416,0.0227,0.0138,-0.00409,0.0526,0.027,-0.0236,0.0153,-0.0278,-0.0152,-0.0127,-0.00728,0.0606,-0.0142,-0.0627,0.0211,-0.0384,0.042,-0.000415,0.0359,-0.0161,0.0028,0.0391,0.0197,-0.0127,0.0195,-0.025,0.0164,-0.0579,0.0161,0.0267,0.0146,-0.0185,-0.0183,-0.0453,0.0044,0.0431,0.00776,0.0205,-0.0499,0.0431,0.00751,-0.0645,-0.0293,-0.0191,-0.0202,0.0252,0.0286,-0.0582,-0.0388,-0.0211,0.00719,0.0566,-0.0282,-0.0167,0.0276,0.0228,0.00153,-0.0397,0.00321,-0.00606,-0.0482,-0.045,0.0532,0.00633,0.0264,0.0603,-0.0143,0.0159,0.00167,-0.0216,-0.0226,-0.0234,-0.0172,0.0449,0.0138,0.0347,0.0478,-0.0272,0.0194,0.0491,0.0277,-0.0216,-0.013,0.0553,0.01,0.0443,-0.0369,-0.0343,0.00275,-0.0383,-0.0229,-0.0361,-0.0375,0.0529,0.0357,-0.00323,-0.0287,-0.00898,0.0463,-0.0331,0.0302,-0.04,-0.0236,-0.0213,-0.0351,-0.00883,-0.02,0.012,0.0365,-0.0131,0.0151,0.00858,0.0178,0.0524,-0.0385,0.0594,-0.0477,0.00506,0.0378,-0.00199,-0.00775,-0.0207,0.0359,-0.0481,-0.0326,0.0302,-0.0391,-0.0412,-0.013,0.00813,0.0557,-0.0276,-0.0107,0.0447,0.0547,0.0101,-0.0196,0.0455,-0.0588,0.0193,-0.0506,0.0403,-0.036,-0.0161,-0.0341,-0.0286,0.0458,0.00205,0.0127,-0.00809,0.00738,0.0375,0.00761,0.00824,0.0502,-0.0516,-0.0297,0.0303,-0.0216,0.043,-0.0396,-0.0455,0.012,-0.0159,-0.018,-0.037,0.0293,0.0606,-0.0566,-0.0314,0.0276,-0.0523,0.0522,-0.0451,0.0148,-0.04,0.0543,0.0292,0.0132,0.0493,0.00867,-0.04,-0.017,0.0492,-0.00384,-0.038,0.0334,-0.0405,-0.018,0.0521,-0.0307,-0.0458,-0.00673,0.0613,-0.0354,-0.0321,-0.03,0.0516,0.0248,0.0511,-0.0359,-0.0294,-0.0529,0.0201,0.0529,-0.0506,-0.0584,0.00666,-0.0239,-0.0375,-0.0363,-0.0538,-0.00742,-0.0447,0.0203,0.0624,-0.0555,-0.0105,-0.0248,0.0527,0.0463,0.0599,-0.0195,-0.00452,-0.0257,0.0459,-0.0092,0.0128,0.0333,0.0597,0.012,-0.0333,0.0547,0.0316,0.00932,-0.0189,-0.00989,0.0343,-0.0615,0.0616,0.0164,0.00125,0.0348,-0.05,-0.0386,0.05,0.00129,0.0057,0.0184,-0.0243,0.0406,0.0564,-0.0159,0.0156,0.0208,0.00595,-0.0124,-0.0292,0.0115,-0.0533,-0.0152,0.0304,0.0173,0.0222,-0.0115,0.0488,0.0168,-0.0464,0.0281,0.00389,0.0454,0.0245,-0.0434,0.0283,0.0216,0.0257,0.0373,-0.00466,-0.0281,0.0512,-0.0438,0.0243,0.0101,0.0637,-0.0252,0.0161,-0.0373,0.0053,0.0535,0.0457,0.0418,0.0409,0.0123,-0.00949,0.0471,-0.0271,-0.00894,0.0246,0.0408,0.0522,0.056,-0.0493,-0.0314,0.0231,-0.0451,-0.0215,0.0546,-0.054,0.0403,0.0376,0.0225,0.0436,-0.0148,-0.0117,0.0322,0.0353,-0.0438,0.026,0.0254,-0.0422,-0.00804,-0.00591,0.0425,0.00569,0.0234,0.0352,0.0576,0.0144,0.0487,0.00583,-0.0102,0.0329,-0.0387,0.0171,-0.0446,-0.0116,-0.0507,0.0106,-0.0228,-0.0453,0.0288,0.0236,0.00292,-0.0177,-0.0528,0.0262,0.0378,0.0549,0.0118,0.054,0.0368,-0.0547,-0.017,-0.0181,-0.0374,0.0567,-0.0275,0.0159,0.0602,-0.0431,0.0413,-0.00962,-0.0121,0.000272,-0.0199,-0.0584,-0.0471,0.00138,0.0375,-0.00352,-0.0308,0.0133,0.0457,0.0386,-0.0265,0.00653,0.0442,0.0505,0.055,-0.0206,-0.0197,0.0397,-0.0315,0.0281,-0.0604,0.0446,0.0302,0.0487,0.0404,0.0512,0.0371,-0.00592,-0.0209,0.0351,0.0467,0.0211,0.0272,0.0128,0.0059,0.0441,-0.0265,0.0141,-0.0333,-0.066,-0.0459,0.0144,0.00359,-0.0244,-0.0489,-0.0076,-0.000594,0.0028,-0.0211,-0.0193,0.0264,0.0378,0.022,-0.0491,0.0567,-0.0188,0.045,0.0278,0.0249,-0.0589,-0.0444,-0.035,0.0174,0.00121,0.0149,0.0175,0.0345,0.046,-0.000598,-0.0289,-0.0506,-0.0602,-0.0188,-0.00416,-0.0348,0.0258,-0.0448,-0.00978,-0.021,0.0442,0.0476,0.0231,-0.035,0.0215,0.0358,-0.0344,0.041,-0.00763,0.00268,0.0192,-0.00199,-0.05,0.0544,-0.0589,-0.0193,0.0112,0.0136,-0.0587,-0.0252,-0.0189,-0.0153,-0.0216,-0.0604,-0.0595,0.0365,-0.026,0.00689,-0.0238,0.00389,0.0176,0.0479,-0.00346,-0.0465,-0.0489,-0.0386,0.0187,0.0209,0.00243,-0.0115,-0.0231,0.0205,-0.052,-0.036,0.00635,-0.0319,-0.00547,-0.0182,-0.0246,0.0578,-0.00958,-0.0465,-0.03,-0.0259,-0.0161,0.0335,0.00217,0.0409,-0.00332,-0.0108,-0.0105,0.0466,-0.0332,0.0536,-0.0416,-0.000275,0.0199,0.037,0.0104,0.04,-0.0188,-0.000595,0.0293,0.0407,0.0429,0.047,0.0272,0.0388,0.0312,-0.00223,0.00444,0.0116,0.0351,0.0501,-0.00297,-0.0398,0.0518,0.0663,0.00741,0.0345,-0.00511,-0.0471,0.0214,-0.0371,0.0148,0.0359,-0.00621,-0.0267,-0.0617,-0.0495,-0.0417,-0.0537,-0.0171,0.0209,-0.043,-0.0574,0.048,-0.0315,0.0312,-0.0438,-0.0175,-0.0552,-0.00186,-0.0393,0.00933,0.0382,-0.00673,0.0122,0.0288,0.0232,-0.0103,0.0561,0.00247,-0.0301,0.0138,0.00256,0.0274,0.0213,0.0404,0.0286,-0.0415,-0.0322,0.00908,0.0518,-0.00918,-0.0474,0.014,-0.013,-0.0596,0.046,0.0457,-0.0472,0.00879,-0.0123,0.038,-0.0416,-0.0111,0.00761,-0.0249,0.0119,0.0546,-0.0346,0.0622,-0.0466,-0.0136,-0.0565,-0.0192,-0.0553,-0.0442,0.0549,0.00101,-0.0166,0.0132,0.0369,-0.0053,-0.017,0.0258,0.0552,0.0397,0.0645,0.034,0.0276,-0.00396,-0.0368,-0.0329,-0.0144,0.0273,-0.0327,-0.0107,0.00886,0.00156,-0.0139,-0.036,0.0347,-0.0186,0.0293,-0.0142,-0.0307,0.0489,-0.0352,0.0536,-0.0483,0.0182,-0.0424,0.0102,0.00906,-0.0569,-0.0325,-0.036,0.0559,0.0561,-0.022,-0.03,-0.0256,-0.00599,-0.0495,0.00575,-0.0292,0.0604,0.0485,0.0504,-0.00133,-0.0505,-0.0179,-0.0433,0.0346,0.0254,0.0217,-0.0207,-0.0513,-0.0187,0.0269,0.00382,-0.0402,0.037,-0.0115,0.043,-0.0288,-0.00809,-0.0313,0.0291,0.00594,-0.031,0.00649,-0.00406,0.00665,-0.0218,0.0323,0.049,0.0585,0.0227,0.0431,0.0226,0.0487,0.0334,0.0519,-0.0367,-0.0391,-0.0398,0.0552,0.0319,-0.0376,0.0479,-0.0192,-0.00822,-0.0326,-0.0377,0.0231,0.0243,-0.0532,-0.0324,-0.0134,-0.0486,-0.00188,-0.041,0.0554,0.0344,-0.0344,0.00909,0.0201,0.0156,0.0493,0.0194,-0.0052,-0.0151,0.0147,-0.0454,-0.011,0.0547,0.039,-0.0221,0.0623,0.033,0.0263,-0.0454,-0.0539,0.0483,-0.0408,0.016,-0.0119,-0.0413,0.0385,0.0135,0.0322,-0.0313,0.019,-0.0421,-0.0419,-0.0244,0.0658,0.0516,0.0176,-0.0116,0.0287,0.0157,-0.0201,-0.0483,0.0472,0.00997,0.0565,-0.0103,-0.06,0.0348,0.0356,-0.0561,0.0605,-0.0255,-0.014,0.0109,-0.0258,0.0262,0.0166,-0.00778,-0.0489,0.0301,0.0111,0.0445,0.0318,-0.0198,0.0569,0.0535,-0.0523,0.0146,0.0108,-0.0425,0.0485,-0.00826,-0.00912,0.0278,-0.0226,0.026,0.0111,0.0183,-0.0391,0.0265,-0.0159,0.0138,-0.0118,0.061,-0.0422,0.021,0.0322,-0.0471,0.0437,0.00243,0.0234,-0.0334,-0.00137,-0.0443,-0.00612,-0.000636,0.0115,0.0213,0.0605,0.00968,-0.0215,-0.0247,-0.00655,0.0557,-0.0457,0.0181,0.0449,0.0565,0.00201,0.0292,0.0189,-0.0276,0.0171,0.0265,0.0392,-0.0043,0.0387,0.0313,-0.0063,-0.0269,0.0494,0.0134,0.0369,0.0129,-0.049,-0.0192,-0.031,0.0578,0.0429,-0.0511,0.0402,0.0636,-0.026,0.0412,-0.00967,0.0272,0.0244,-0.0234,-0.0058,-0.0392,0.0521,-0.0299,-0.013,0.0241,0.00235,0.0571,0.00777,0.0395,-0.00208,0.0183,-0.00393,0.0281,-0.0123,0.0142,0.0168,-0.0604,0.0374,0.0609,0.00616,0.0642,0.00802,0.0257,-0.0317,-0.0461,-0.0326,0.0588,0.0555,0.0372,0.0391,0.000699,0.0599,-0.0483,-0.00251,0.059,0.0541,0.035,-0.0278,0.031,0.044,-0.0517,-0.0116,-0.0284,-0.0476,-0.0241,-0.0482,-0.0119,0.0115,-0.0279,-0.0429,0.053,-0.0252,0.0511,0.0274,0.0499,-0.0279,0.0336,0.0352,0.0158,0.0019,-0.0201,0.0521,-0.00621,-0.0223,-0.0248,0.00142,-0.0409,-0.0402,0.00331,-0.0089,-0.0572,0.00355,0.037,0.00964,0.00561,-0.0215,0.0515,-0.00803,0.0484,0.0593,-0.0254,0.00764,0.036,-0.0386,0.0363,-0.0273,0.00469,-0.051,-0.0145,-0.0388,-0.0588,0.0301,-0.037,-0.0466,-0.0127,0.00441,-0.0602,-0.0197,0.0527,-0.0117,-0.0206,0.0548,-0.0252,0.0116,0.0294,-0.0454,0.0227,0.0426,0.0397,0.0375,-0.0326,-0.0216,-0.0294,-0.00451,0.0176,0.0135,-0.0401,0.0136,0.0508,0.0357,-0.00459,-0.0447,0.0125,0.000288,-0.0433,-0.00899,-0.00714,0.0374,-0.0235,0.0539,-0.0532,0.0184,0.0315,-0.0311,0.0449,0.0149,0.0449,-0.00477,-0.0103,-0.0177,-0.0128,0.0499,0.0226,-0.018,0.0258,-0.0381,-0.0329,0.0633,0.0486,-0.0238,-0.0406,0.00148,-0.00729,0.0525,0.0425,-0.0441,-0.0571,0.0282,0.0026,0.0481,-0.0556,0.0586,-0.0535,-0.0199,0.0379,-0.0124,0.0421,0.009,0.0361,-0.0213,-0.0343,-0.00726,-0.0405,0.0509,-0.0378,0.0282,-0.035,-0.0424,0.00894,-0.0309,-0.0265,0.0401,-0.00863,0.00449,0.0567,0.0556,0.0105,-0.00387,-0.00154,-0.0334,-0.0179,-0.024,0.00258,0.025,-0.0534,0.0652,0.0119,0.0391,-0.033,-0.00705,-0.00916,-0.0407,-0.0294,0.0148,-0.0537,0.0137,0.03,0.0102,-0.0105,-0.0293,-0.0193,-0.0539,-0.00115,0.0318,-0.0318,-0.0143,-0.0281,-0.0264,0.0467,-0.0378,0.0496,0.00125,0.0529,-0.0411,-0.0272,0.0182,0.021,0.0476,0.034,0.01,-0.0263,0.0326,0.0152,-0.0447,0.0314,0.0251,0.041,-0.0414,0.0276,0.049,-0.0429,0.0258,0.0573,0.0296,-0.0166,-0.0514,0.0301,-0.00142,0.0369,-0.0512,0.04,0.0471,0.0347,0.0621,0.0538,0.0467,0.0514,0.00324,0.00637,0.00107,-0.0541,0.0499,-0.0274,0.00689,0.0483,0.0457,-0.00421,-0.00664,0.015,-0.0454,-0.0453,-0.0472,-0.0449,0.0192,0.0269,-0.0188,0.00477,-0.0101,0.00653,0.0246,0.0564,0.0233,-0.0208,-0.0304,0.00176,0.0479,0.0482,0.0447,-0.03,-0.0362,-0.0444,0.0163,0.0409,-0.0227,-0.00588,0.0604,0.0459,-0.00709,0.0221,0.00168,0.0539,0.0542,-0.0331,-0.00891,0.0153,-0.00374,-0.0458,0.0579,-0.0417,-0.034,0.0168,-0.0263,-0.056,0.0408,0.0288,0.0216,-0.0537,0.0323,0.0269,-0.0158,-0.00916,0.0359,0.0157,0.0465,-0.0274,-0.0276,0.0486,0.0419,0.0149,-0.00985,-0.0048,-0.02,-0.0382,0.0491,0.0552,0.0406,0.0285,0.0123,-0.0269,-0.0356,-0.0243,0.0384,-0.0262,-0.0591,0.0521,-0.00992,-0.0596,0.00583,0.0156,0.0201,0.0031,-0.0012,-0.00693,0.0473,0.00845,-0.00704,-0.0243,-0.0513,0.0521,0.00493,0.0349,0.00646,0.0143,0.0396,-0.0269,0.0642,0.0618,0.06,0.0216,-0.0033,0.034,0.0568,-0.0243,-0.00866,0.05,0.0227,0.0363,0.043,-0.0286,0.0202,0.0229,0.0557,-0.0451,0.0135,-0.0314,-0.0107,0.0225,0.00689,0.00952,-0.0682,0.0428,-0.00252,-0.0269,-0.0191,0.0292,-0.00474,-0.0409,0.0619,0.0109,-0.0485,-0.0227,0.0052,0.0479,-0.00799,-0.0183,-0.00757,0.0166,-0.0276,0.0313,-0.0301,-0.00141,0.0101,-0.0263,-0.0529,-0.0136,0.0105,-0.0323,0.0188,0.0387,-0.0353,-0.00226,-0.00834,0.00089,0.0195,0.0207,-0.0199,0.0251,-0.0479,-0.0503,0.0597,-0.0259,-0.0236,-0.0519,-0.0415,0.0481,-0.0076,0.0324,-0.0336,0.0176,0.0321,0.0137,-0.0421,0.0443,-0.00309,-0.0271,0.0454,-0.0459,-0.0306,-0.0363,0.0389,0.0291,0.00934,-0.051,-0.0242,-0.0288,-0.0431,0.000478,0.029,0.0614,0.0375,0.0558,0.0512,-0.0488,-0.0516,-0.00593,-0.0116,-0.0012,-0.0312,-0.0331,-0.0456,-0.0149,-0.0264,0.0564,0.0518,-0.0171,-0.03,-0.00666,0.0516,-0.0596,0.0367,-0.0125,0.0458,0.0152,0.065,-0.0683,0.0416,0.0375,-0.00296,0.0143,-0.057,-0.0376,0.0546,-0.00819,0.0474,-0.0521,0.0508,-0.0584,-0.0237,0.0484,-0.0203,0.0342,0.0527,-0.0419,-0.0179,-0.035,0.0146,0.0388,0.0032,-0.0527,-0.0502,-0.0576,0.0101,0.0108,-0.0477,0.0292,-0.00627,0.0108,-0.0231,-0.029,-0.0268,-0.0305,-0.0243,0.0338,-0.0511,0.0424,0.00348,-0.0508,0.0163,-0.0298,-0.024,0.0281,-0.0458,-0.056,0.029,-0.0485,0.0399,0.0379,-0.00364,-0.0308,-0.0461,0.0337,0.051,0.021,0.0441,-0.0172,0.036,-0.0398,0.0367,0.063,-0.0204,0.0119,0.0314,0.0531,-0.00145,-0.0138,0.0544,-0.0546,0.0406,-0.0281,-0.0522,0.0221,-0.0151,-0.0381,0.0311,-0.0442,-0.0192,-0.0514,0.000623,-0.00938,0.0117,0.0455,0.0146,-0.0295,0.0484,-0.0219,0.0105,-0.0393,0.0355,0.00642,0.015,0.0186,-0.0287,-0.00536,0.0466,0.0223,0.00305,0.00281,0.0566,0.0418,-0.0229,-0.00255,0.00654,-0.0136,-0.000849,0.0519,-0.0177,-0.0571,0.00946,-0.0232,0.00446,0.032,0.0176,0.0358,-0.0161,0.0366,0.0453,-0.0532,0.0483,0.0373,-0.045,0.0415,0.00222,0.0128,0.0172,0.0385,-0.0419,-0.0373,0.0135,-0.0534,-0.0123,0.00771,-0.00383,0.00656,0.0148,0.0171,-0.000268,-0.0316,0.0332,-0.000461,-0.018,0.00441,0.0173,0.0323,-0.0243,-0.0505,-0.0615,0.0103,-0.0225,0.0259,-0.0132,-0.00388,0.0402,-0.0429,0.0313,0.0494,-0.0266,-0.0138,0.0457,-0.012,0.0505,0.0322,0.0545,0.00195,-0.0266,-0.00925,0.0546,0.0408,0.0333,-0.0102,0.00901,-0.0242,-0.0238,-0.00388,-0.0154,-0.0465,0.0546,0.0387,-0.0562,-0.0419,-0.0404,-0.043,-0.0524,0.0183,0.00959,-0.000814,0.0435,-0.00669,-0.000938,0.0297,0.0247,0.0349,-0.0472,0.0221,0.054,0.0131,-0.0385,0.0435,0.0238,0.0287,-0.0537,0.00169,0.0556,-0.00452,0.0415,0.0216,0.00234,-0.0259,-0.0373,0.0511,0.0254,0.00318,0.0478,-0.0177,0.0154,0.0226,-0.00231,-0.0506,0.000298,-0.0533,0.0139,-0.0403,0.0478,0.0411,-0.0478,0.0362,-0.0493,0.0204,-0.0505,0.056,0.00833,0.0595,0.00365,0.048,-0.00723,0.0545,-0.00515,0.0241,0.0186,-0.00333,0.00801,-0.0101,-0.0411,-0.044,0.0127,-0.00707,0.0162,-0.0302,0.0446,-0.00654,-0.0354,0.0357,0.0502,-0.0494,0.00392,0.0286,-0.0216,0.00405,-0.00447,-0.0457,0.00905,0.00188,0.0417,0.0518,0.0156,0.0273,-0.00517,0.0356,-0.0096,-0.0119,-0.038,0.0362,0.0519,-0.0353,-0.056,-0.0138,0.0302,0.00946,0.013,0.00148,0.0207,0.0398,0.0555,-0.0594,-0.000916,0.019,0.0415,0.00572,-0.0394,-0.0336,0.0141,-0.0147,-0.0533,-0.0227,-0.0536,0.0533,0.0386,0.00918,-0.0265,0.0204,0.062,0.0295,0.0214,0.0287,-0.0193,0.0314,-0.0258,-0.0245,0.053,-0.0508,0.0276,0.00351,0.00498,0.0055,-0.0192,0.0108,-0.0491,0.0403,-0.0125,0.00906,0.0393,-0.000359,-0.0217,0.0255,-0.0439,-0.0444,0.0184,0.012,-0.0422,-0.0151,-0.0503,-0.0103,0.0202,-0.0297,0.0364,-0.0331,-0.043,0.0361,-0.047,-0.0347,0.0116,-0.00698,0.0188,0.0082,0.0473,0.0321,0.0577,0.0707,-0.0194,-0.0209,-0.0327,0.0351,0.0103,-0.00672,0.0541,0.0119,0.0563,0.0309,-0.0237,-0.0389,-0.0487,-0.0408,-0.02,-0.00531,-0.0193,0.0174,-0.0359,-0.0211,-0.0585,-0.0486,0.00967,0.0462,0.017,-0.0579,-0.0309,-0.0028,-0.00482,0.00573,0.0466,0.0431,0.0484,-0.0357,0.0375,0.0282,-0.0177,0.0378,-0.0113,-0.0269,0.0634,-0.0127,-0.0535,-0.0333,-0.0408,-0.0442,0.00619,-0.00456,0.0262,-0.0177,-0.0508,-0.0189,0.0188,-0.0237,0.0447,-0.0215,-0.00107,0.0547,0.0378,-0.059,0.0176,0.0349,-0.0169,0.0755,-0.0385,0.0653,-2.04e-05,0.0157,-0.0294,-0.00368,-0.0362,-0.00379,0.00128,-0.0216,0.0489,-0.0146,-0.0373,0.0406,-0.0261,0.00599,0.0381,-0.036,-0.00826,0.000845,-0.0107,0.00183,-0.0118,0.0315,-0.0227,0.00536,0.053,-0.0343,0.0261,0.053,0.00753,0.074,-0.0407,0.0445,-0.0481,0.0475,-0.0485,-0.0391,0.0231,-0.0196,-0.0228,-0.0382,0.0211,0.0427,0.0477,0.0413,-0.0411,0.0107,-0.06,0.033,0.0264,0.042,0.0296,0.0425,0.0241,-0.0279,-0.0282,0.0165,0.013,0.0574,-0.0464,0.0423,-0.00946,0.0397,-0.0264,0.0324,0.0405,-0.0478,0.0138,-0.0285,-0.0334,-0.0414,0.0398,0.023,0.0249,0.0126,0.00214,-0.0553,0.0375,0.0261,-0.0372,-0.0432,-0.0411,0.0602,-0.0218,0.0291,-0.00423,0.0514,-0.0277,0.0135,0.0352,-0.0518,-0.00878,0.0312,0.00852,0.00707,-0.0452,0.0596,0.00233,-0.0316,-0.0318,-0.0414,0.0445,-0.0488,0.0556,0.0117,-0.00636,0.0137,-0.0268,-0.0372,-0.0466,0.00196,-0.00402,-0.0114,-0.0133,0.054,-0.0542,-0.0489,0.0108,0.0507,0.0152,0.0403,-0.0101,-0.00414,0.0353,-0.0138,-0.0144,-0.00885,-0.00295,-0.047,-0.0512,-0.0452,0.0168,0.0424,0.0306,-0.0336,-0.00452,0.0123,-0.0451,0.029,0.0594,0.0159,-0.0369,-0.0428,-0.0123,0.0418,0.00295,0.0477,-0.0129,0.0352,-0.0412,-0.0341,0.0272,-0.0494,-0.0472,0.0423,0.0481,0.0412,-0.02,0.00318,0.0167,0.0105,0.0299,-0.00424,0.0472,-0.0128,-0.0164,-0.0187,-0.00136,0.00897,0.0486,0.0174,-0.0446,0.0186,-0.015,0.0433,0.0133,0.00912,-0.00866,0.0162,-0.0177,0.0338,-0.0199,0.00797,-0.0269,-0.0612,-0.0457,-0.0313,-0.00962,0.00119,-0.0253,0.0196,0.0339,-0.0221,-0.0234,-0.0189,-0.0221,-0.00346,-0.05,-0.00632,-0.0158,0.0346,0.00838,0.0401,0.0353,0.0269,-0.0172,0.0326,0.0173,0.0571,-0.0514,0.0398,-0.0506,-0.0357,0.0685,0.0605,-0.000792,0.051,-0.0183,-0.0057,0.025,0.0632,-0.0244,0.0147,-0.0154,-0.0501,-0.0457,-0.0316,-0.0438,-0.0622,-0.0402,0.0146,-0.0313,-0.0359,-0.0128,0.0359,-0.00539,0.0359,-0.0226,-0.0142,0.0135,-0.0131,0.00671,0.026,-0.0638,0.0278,0.0438,0.0538,0.0405,0.0221,-0.0109,0.062,-0.028,0.0513,-0.0273,-0.0275,-6.16e-05,-0.0345,0.0326,-0.0488,-0.0533,-0.0389,-0.0111,-0.0404,-0.0516,-0.0526,0.0324,0.015,-0.0425,0.0206,-0.0403,-0.0254,-0.00976,-0.0229,0.00597,0.0326,0.0148,-0.0643,0.0306,0.0116,0.0136,0.0377,-0.00299,0.0319,-0.0228,-0.0329,-0.0613,0.00689,0.00484,0.0297,0.0258,-0.0496,-0.0201,0.0409,0.0484,0.00354,-0.029,0.0293,0.052,-0.0354,-0.0724,0.0377,-0.00339,0.0271,-0.0104,0.0459,-0.0426,0.0237,-0.00922,-0.0409,-0.00582,-0.0133,0.0615,-0.0534,0.0182,-0.0288,0.00688,0.0172,-0.0353,-0.0261,0.00176,0.0362,0.0372,-0.0298,-0.0432,-0.0123,0.00068,0.0565,0.0261,0.0114,-0.0507,-0.0277,-0.0183,-0.00394,-0.0048,-0.0382,0.0655,0.0436,0.0317,0.0361,-0.00219,-0.0464,0.066,0.000766,0.0197,-0.0247,0.0213,0.00751,-0.0249,-0.0359,-0.038,0.0262,0.0244,-0.0458,0.012,-0.0482,-0.0413,-0.0501,-0.029,0.0371,0.0454,-0.0154,0.00088,-0.0103,-0.0233,-0.0408,-0.0247,0.0634,0.0643,0.0519,0.0437,0.0591,0.0146,-0.0103,0.00938,0.0325,-0.0342,0.0317,-0.0352,-0.0419,-0.017,0.000203,0.00454,0.0149,-0.052,0.0682,-0.0488,-0.0177,0.0254,-0.0186,0.056,0.0475,-0.0192,0.013,0.00351,-0.0329,0.00687,-0.0231,-0.0214,0.00843,0.0356,-0.0191,-0.0335,0.00794,-0.0666,-0.0494,-0.0451,0.054,0.00562,-0.018,0.046,-0.00649,-0.0383,-0.0244,0.0335,0.0439,0.0315,0.0675,-0.0483,0.0558,-0.0309,-0.0165,0.0517,0.0145,0.0238,0.0189,0.0274,-0.0511,0.0352,0.033,-0.0139,-0.0516,-0.0476,-0.0297,0.0494,-0.0361,0.014,-0.0252,-0.00746,-0.0292,-0.0311,0.015,-0.0303,0.02,0.0587,-0.0435,-0.0034,0.00497,-0.0305,-0.0424,0.0337,0.0146,-0.0318,0.0375,-0.0499,-0.011,-0.012,0.0193,0.00533,-0.0265,-0.00256,0.0421,0.0112,-0.00719,0.027,0.045,-0.0163,-0.0213,0.0448,0.0529,0.0211,-0.0305,-0.043,-0.0121,0.0421,0.062,0.0601,0.0311,0.0122,0.0434,-0.0283,0.0374,-0.0401,0.0447,0.0178,-0.0565,0.0234,0.039,-0.0436,-0.0433,-0.00507,0.0164,0.0319,0.0601,0.00372,-0.0345,-0.0447,0.0259,0.0218,0.044,-0.0552,-0.0494,0.0368,-0.0122,0.0333,-0.042,0.0237,-0.0347,-0.0123,0.0515,0.0363,0.00552,-0.0358,-0.0531,0.00344,0.0361,0.0343,0.0385,0.0241,0.0597,0.0242,-0.0362,0.0224,-0.0205,0.0496,-0.0399,0.0405,-0.0155,-0.0223,0.0581,-0.0117,-0.023,0.0215,0.0438,-0.00913,0.000159,0.028,-0.0208,0.0389,0.0157,-0.0284,-0.0342,-0.0411,-0.0521,-0.0157,-0.00185,0.0582,0.0521,0.0358,-0.065,-0.0336,-0.0202,-0.0347,-0.000784,-0.0357,-0.0442,0.0422,0.0597,-0.0214,0.0565,-0.0303,0.00394,0.0266,0.0482,0.014,-0.0446,0.0459,0.0521,-0.0504,-0.0295,-0.03,0.0114,0.0123,0.036,0.000735,0.000411,0.0277,-0.00519,0.00905,0.000513,-0.053,0.0628,-0.0206,0.0144,0.0189,-0.00128,-0.00386,-0.0435,0.0434,0.0393,-0.00481,-0.0343,0.00705,0.0207,0.0573,-0.0558,0.0199,0.0227,0.0285,0.0206,0.0512,0.0305,-0.0168,-0.00511,0.0243,-0.0248,-0.0424,0.0385,0.025,-0.0191,-0.0173,-0.024,0.0329,0.0149,0.0281,0.0289,-0.0128,0.0436,-0.0447,-0.0464,-0.000627,0.0301,0.0193,-0.0151,-0.0134,-0.000925,-0.00907,0.0371,0.0421,0.0111,0.0337,-0.0471,-0.0394,0.0133,-0.0408,0.00442,-0.0103,0.0293,-0.0383,-0.0243,0.0324,-0.0164,-0.0318,-0.0102,-0.0429,-0.00326,0.0339,-7.16e-05,0.0305,0.0557,0.0247,0.0282,-0.0382,0.00815,-0.0393,-0.0431,-0.0128,-0.0522,-0.00756,-0.031,-0.00918,0.019,-0.0449,0.0253,0.0492,0.00507,-0.0338,-0.00201,0.0451,-0.00816,0.0293,0.0251,0.00604,0.0556,-0.0415,0.0357,-0.0554,-0.0478,0.0494,-0.0198,0.0453,0.02,-0.0109,-0.043,0.00101,0.0607,0.0471,-0.00689,-0.0408,-0.0044,0.0543,-0.0457,-0.00592,-0.0495,0.0138,0.0506,-0.024,-0.0199,-0.00916,-0.0484,-0.0331,0.0477,0.00831,0.0395,0.00554,-0.0477,-0.0444,-0.01,0.0387,0.0549,0.024,0.0364,0.0531,0.0596,0.0192,0.0176,-0.0594,-0.000783,-0.029,0.0293,-0.0113,0.00462,0.0243,0.000259,0.0267,0.0489,0.04,0.00654,-0.0514,-0.0543,-0.00859,-0.0364,-0.0482,-0.0201,-0.002,-0.0291,0.00445,0.0028,-0.0136,0.0402,-0.0564,0.0488,-0.0401,-0.00402,-0.0439,0.0251,0.0166,-0.0211,-0.0255,0.025,-0.0273,-0.0256,0.0158,0.0234,0.0367,0.0497,0.00111,-0.000804,0.00278,0.0373,0.0113,-0.0331,-0.0466,-0.0279,-0.0448,-0.0525,0.0529,0.00914,0.0308,0.0425,0.0266,0.00797,0.0313,0.0256,0.00751,0.0391,-0.0454,-0.0436,-0.0529,0.0492,0.0277,-0.0157,0.0258,-0.0362,0.00518,0.0319,-0.0205,-0.0529,0.0235,0.00101,0.0236,0.0429,-0.0141,0.0537,0.054,-0.0598,0.0414,-0.04,-0.0348,0.00659,-0.0395,-0.0422,0.0213,-0.0246,0.0491,-0.0782,0.0555,0.0057,0.0614,-0.0289,0.0452,-0.0162,0.0477,-0.0506,-0.0459,-0.0184,-0.0534,0.0279,0.00428,0.0108,-0.00372,-0.0183,0.0497,-0.0209,-0.0533,-0.0573,0.032,-0.0549,-0.0223,0.039,-0.00109,0.0609,0.0599,-0.0408,-0.0242,-0.0125,-0.0375,-0.0477,0.0363,-0.0354,0.0138,0.0402,-0.0341,0.0351,0.027,-0.00955,0.0474,0.0605,-0.0294,-0.036,-0.00144,-0.0287,-0.00565,0.0518,0.0372,0.0199,0.0505,-0.0394,0.0074,-0.0438,-0.0334,0.0144,0.0705,0.0419,-0.0731,-0.049,0.0405,0.0197,0.0414,-0.0447,0.00487,-0.00617,-0.03,-0.0403,0.0532,-0.042,-0.0534,0.0395,0.0201,-0.00351,0.0294,0.024,-0.00438,-0.0293,0.0412,-0.0567,0.0266,-0.0191,-0.0193,-0.0499,-0.0474,-0.0423,0.00578,-0.00638,0.0196,-0.00851,0.0197,0.0458,0.0562,0.0228,-0.0552,-0.0599,-0.0412,-0.0056,0.0114,0.0193,-0.00142,0.0448,-0.0451,0.0314,0.0037,0.0279,-0.0312,0.0136,-0.024,-0.0379,-0.0165,0.0385,0.0623,0.0345,-0.0569,-0.00041,-0.0276,0.0172,0.0408,0.0206,-0.0611,-0.0351,0.0123,0.0509,0.000323,0.0303,-0.0583,0.0398,-0.0164,0.0633,0.0234,0.0543,0.0328,0.0381,-0.063,0.0161,0.0356,-0.0553,0.0428,-0.0265,